{"learner":{"attributes":{"scikit_learn":"{\"_estimator_type\": \"regressor\"}"},"feature_names":[],"feature_types":[],"gradient_booster":{"model":{"gbtree_model_param":{"num_parallel_tree":"1","num_trees":"100"},"iteration_indptr":[0,1,2,3,4,5,6,7,8,9,10,11,12,13,14,15,16,17,18,19,20,21,22,23,24,25,26,27,28,29,30,31,32,33,34,35,36,37,38,39,40,41,42,43,44,45,46,47,48,49,50,51,52,53,54,55,56,57,58,59,60,61,62,63,64,65,66,67,68,69,70,71,72,73,74,75,76,77,78,79,80,81,82,83,84,85,86,87,88,89,90,91,92,93,94,95,96,97,98,99,100],"tree_info":[0,0,0,0,0,0,0,0,0,0,0,0,0,0,0,0,0,0,0,0,0,0,0,0,0,0,0,0,0,0,0,0,0,0,0,0,0,0,0,0,0,0,0,0,0,0,0,0,0,0,0,0,0,0,0,0,0,0,0,0,0,0,0,0,0,0,0,0,0,0,0,0,0,0,0,0,0,0,0,0,0,0,0,0,0,0,0,0,0,0,0,0,0,0,0,0,0,0,0,0],"trees":[{"base_weights":[1.0541411E-7,-1.0782356E0,1.0294354E0,-2.0602593E0,-6.963556E-1,6.015631E-1,1.744104E0,-2.6332874E0,-1.7592043E0,-1.0363928E0,-3.8467434E-1,2.6347864E-1,8.6509615E-1,1.6224234E0,3.0986252E0,-8.3382183E-1,-7.443952E-1,-1.9953178E0,-4.6210933E-1,-1.2617999E0,-9.5802826E-1,-5.5451614E-1,-2.0730177E-1,1.7407084E-1,4.031028E-1,7.1308804E-1,9.8164684E-1,1.4326522E0,1.9653844E0,2.625274E0,3.5453622E0,-6.302195E-1,-5.4165834E-1,-1.2328621E0,-4.5716152E-1,-1.0470324E0,-8.9647305E-1,-6.197095E-1,-4.4526353E-1,-3.4383544E-1,-1.3552564E-1,2.463445E-2,2.1857436E-1,3.5914582E-1,4.6084693E-1,6.193472E-1,7.8910506E-1,9.095356E-1,3.2874846E-1,3.9770845E-1,4.6878806E-1,1.847453E0,6.337779E-1,7.170949E-1,8.485083E-1,9.515482E-1,1.1577232E0,-3.9379197E-1,-3.5284603E-1,-2.8990066E-1,-3.5187745E-1,-2.8167403E-1,-2.5710985E-1,-1.9601479E-1,-1.651293E-1,-1.19656414E-1,-1.8141782E-1,-9.4764985E-2,-1.6637586E-1,-2.8532682E-2,-8.9246504E-2,6.658752E-2,-5.8523705E-3,7.823151E-2,4.2634748E-2,1.22487865E-1,9.254066E-2,1.5852685E-1,1.1736684E-1,1.9463767E-1,1.13621205E-1,2.646022E-1,2.3017763E-1,3.0148414E-1,2.6600477E-1,5.61475E-1,4.8814893E-1],"categories":[],"categories_nodes":[],"categories_segments":[],"categories_sizes":[],"default_left":[0,0,0,0,0,0,0,0,0,0,0,0,0,0,0,0,0,0,0,0,0,0,0,0,0,0,0,0,0,0,0,0,0,0,0,0,0,0,0,0,0,0,0,0,0,0,0,0,0,0,0,0,0,0,0,0,0,0,0,0,0,0,0,0,0,0,0,0,0,0,0,0,0,0,0,0,0,0,0,0,0,0,0,0,0,0,0],"id":0,"left_children":[1,3,5,7,9,11,13,15,17,19,21,23,25,27,29,-1,-1,31,-1,33,35,37,39,41,43,45,47,49,51,53,55,-1,-1,57,-1,59,61,63,65,67,69,71,73,75,77,79,81,83,-1,-1,-1,85,-1,-1,-1,-1,-1,-1,-1,-1,-1,-1,-1,-1,-1,-1,-1,-1,-1,-1,-1,-1,-1,-1,-1,-1,-1,-1,-1,-1,-1,-1,-1,-1,-1,-1,-1],"loss_changes":[2.1237129E4,3.503084E3,2.9919932E3,4.4666113E2,7.128684E2,5.453987E2,5.990342E2,1.3066406E1,8.5697266E1,5.563379E1,1.0571515E2,3.34355E1,6.026294E1,2.1619238E2,5.4342773E1,0E0,0E0,1.2672363E1,0E0,4.3930664E0,1.2166504E1,1.2501953E1,1.6809158E1,1.088805E1,2.492035E0,1.0178711E1,1.5017944E1,2.8095215E1,1.6860352E1,3.968506E-1,5.571533E0,0E0,0E0,1.8492432E0,0E0,8.741211E0,1.5738525E0,2.2554626E0,4.7467194E0,3.3122559E0,7.3621407E0,3.2881293E0,4.034588E0,1.3659363E0,1.905777E0,4.536499E0,9.935913E-1,1.7210083E0,0E0,0E0,0E0,5.266113E-1,0E0,0E0,0E0,0E0,0E0,0E0,0E0,0E0,0E0,0E0,0E0,0E0,0E0,0E0,0E0,0E0,0E0,0E0,0E0,0E0,0E0,0E0,0E0,0E0,0E0,0E0,0E0,0E0,0E0,0E0,0E0,0E0,0E0,0E0,0E0],"parents":[2147483647,0,0,1,1,2,2,3,3,4,4,5,5,6,6,7,7,8,8,9,9,10,10,11,11,12,12,13,13,14,14,17,17,19,19,20,20,21,21,22,22,23,23,24,24,25,25,26,26,27,27,28,28,29,29,30,30,33,33,35,35,36,36,37,37,38,38,39,39,40,40,41,41,42,42,43,43,44,44,45,45,46,46,47,47,51,51],"right_children":[2,4,6,8,10,12,14,16,18,20,22,24,26,28,30,-1,-1,32,-1,34,36,38,40,42,44,46,48,50,52,54,56,-1,-1,58,-1,60,62,64,66,68,70,72,74,76,78,80,82,84,-1,-1,-1,86,-1,-1,-1,-1,-1,-1,-1,-1,-1,-1,-1,-1,-1,-1,-1,-1,-1,-1,-1,-1,-1,-1,-1,-1,-1,-1,-1,-1,-1,-1,-1,-1,-1,-1,-1],"split_conditions":[6.250741E0,4.933512E0,7.4702425E0,4.3198442E0,5.5295286E0,6.809208E0,8.803467E0,4.0487504E0,4.637087E0,5.189156E0,5.869306E0,6.594356E0,7.092396E0,8.008736E0,9.34837E0,-8.3382183E-1,-7.443952E-1,4.5283E0,-4.6210933E-1,5.174437E0,5.3582444E0,5.737123E0,6.000251E0,6.3378754E0,6.723138E0,6.9359703E0,7.3208914E0,7.745851E0,8.294095E0,9.001547E0,9.825134E0,-6.302195E-1,-5.4165834E-1,5.037495E0,-4.5716152E-1,5.334567E0,5.4254155E0,5.6612244E0,5.8429656E0,5.9840784E0,6.203115E0,6.2681346E0,6.50256E0,6.6628337E0,6.77036E0,6.9188867E0,6.966405E0,7.1336894E0,3.2874846E-1,3.9770845E-1,4.6878806E-1,8.248764E0,6.337779E-1,7.170949E-1,8.485083E-1,9.515482E-1,1.1577232E0,-3.9379197E-1,-3.5284603E-1,-2.8990066E-1,-3.5187745E-1,-2.8167403E-1,-2.5710985E-1,-1.9601479E-1,-1.651293E-1,-1.19656414E-1,-1.8141782E-1,-9.4764985E-2,-1.6637586E-1,-2.8532682E-2,-8.9246504E-2,6.658752E-2,-5.8523705E-3,7.823151E-2,4.2634748E-2,1.22487865E-1,9.254066E-2,1.5852685E-1,1.1736684E-1,1.9463767E-1,1.13621205E-1,2.646022E-1,2.3017763E-1,3.0148414E-1,2.6600477E-1,5.61475E-1,4.8814893E-1],"split_indices":[0,0,0,0,0,0,0,0,0,0,0,0,0,0,0,0,0,0,0,0,0,0,0,0,0,0,0,0,0,0,0,0,0,0,0,0,0,0,0,0,0,0,0,0,0,0,0,0,0,0,0,0,0,0,0,0,0,0,0,0,0,0,0,0,0,0,0,0,0,0,0,0,0,0,0,0,0,0,0,0,0,0,0,0,0,0,0],"split_type":[0,0,0,0,0,0,0,0,0,0,0,0,0,0,0,0,0,0,0,0,0,0,0,0,0,0,0,0,0,0,0,0,0,0,0,0,0,0,0,0,0,0,0,0,0,0,0,0,0,0,0,0,0,0,0,0,0,0,0,0,0,0,0,0,0,0,0,0,0,0,0,0,0,0,0,0,0,0,0,0,0,0,0,0,0,0,0],"sum_hessian":[1.9131E4,9.344E3,9.787E3,2.615E3,6.729E3,6.123E3,3.664E3,8.98E2,1.717E3,3.217E3,3.512E3,2.683E3,3.44E3,3.364E3,3E2,4.49E2,4.49E2,8.22E2,8.95E2,8.26E2,2.391E3,1.793E3,1.719E3,1.637E3,1.046E3,1.496E3,1.944E3,2.169E3,1.195E3,1.49E2,1.51E2,5.22E2,3E2,7.49E2,7.7E1,9.71E2,1.42E3,1.12E3,6.73E2,5.91E2,1.128E3,3.76E2,1.261E3,5.98E2,4.48E2,6.74E2,8.22E2,1.197E3,7.47E2,1.196E3,9.73E2,6.71E2,5.24E2,7.5E1,7.4E1,7.4E1,7.7E1,3.02E2,4.47E2,5.97E2,3.74E2,6.73E2,7.47E2,7.48E2,3.72E2,5.24E2,1.49E2,5.24E2,6.7E1,9.04E2,2.24E2,6.8E1,3.08E2,8.11E2,4.5E2,3E2,2.98E2,2.24E2,2.24E2,5.99E2,7.5E1,1.49E2,6.73E2,2.23E2,9.74E2,5.98E2,7.3E1],"tree_param":{"num_deleted":"0","num_feature":"1","num_nodes":"87","size_leaf_vector":"1"}},{"base_weights":[1.0246427E-4,-7.380683E-1,7.3865914E-1,-1.417188E0,-4.6188033E-1,4.379343E-1,1.2225713E0,-1.7089473E0,-1.1081188E0,-6.9519466E-1,-2.3338422E-1,2.3319727E-1,6.3684547E-1,1.1364542E0,2.1812465E0,-1.9092687E0,-1.5261592E0,-1.2035317E0,-1.0302304E0,-7.8927135E-1,-6.0459924E-1,-3.4624103E-1,-9.897127E-2,1.5415685E-1,3.3479714E-1,5.9302336E-1,7.6751894E-1,1.0032558E0,1.3771766E0,1.848129E0,2.4956303E0,-6.020405E-1,-5.477004E-1,-4.936181E-1,-4.4151518E-1,-1.2656689E0,-1.1369537E0,-2.652492E-1,-1.065088E0,-8.6806E-1,-7.335829E-1,-6.2791044E-1,-4.917906E-1,-4.1263884E-1,-2.9371792E-1,-1.9674562E-1,-5.1101446E-2,1.0074221E-1,1.8405244E-1,2.987206E-1,4.000331E-1,5.381437E-1,6.3442844E-1,2.5066432E-1,7.4948937E-1,9.2211115E-1,1.0892503E0,1.3096586E0,1.52094E0,5.047971E-1,5.9734976E-1,6.6989005E-1,8.148589E-1,-3.6104453E-1,-4.292842E-1,-2.837674E-1,-3.5901088E-1,-3.441018E-1,-2.9337877E-1,-2.4592252E-1,-3.0928355E-1,-1.3431808E-1,-2.2678618E-1,-1.677359E-1,-1.93677E-1,-1.0607139E-1,-1.6070339E-1,-1.1793452E-1,-1.8148178E-1,-8.515386E-2,-1.253613E-1,-4.29363E-2,-1.0150478E-1,-2.1510944E-3,-3.3142705E-2,3.85739E-2,5.02118E-3,8.6136E-2,4.2128563E-2,1.4054002E-1,8.4247045E-2,1.3871498E-1,1.0068836E-1,1.8411738E-1,1.5708148E-1,1.9603308E-1,1.7623566E-1,2.1140333E-1,2.3745674E-1,3.0880538E-1,2.7147138E-1,3.1163457E-1,3.3756062E-1,3.6587638E-1,4.0751487E-1,4.7416553E-1,4.261763E-1],"categories":[],"categories_nodes":[],"categories_segments":[],"categories_sizes":[],"default_left":[0,0,0,0,0,0,0,0,0,0,0,0,0,0,0,0,0,0,0,0,0,0,0,0,0,0,0,0,0,0,0,0,0,0,0,0,0,0,0,0,0,0,0,0,0,0,0,0,0,0,0,0,0,0,0,0,0,0,0,0,0,0,0,0,0,0,0,0,0,0,0,0,0,0,0,0,0,0,0,0,0,0,0,0,0,0,0,0,0,0,0,0,0,0,0,0,0,0,0,0,0,0,0,0,0,0,0],"id":1,"left_children":[1,3,5,7,9,11,13,15,17,19,21,23,25,27,29,31,33,35,37,39,41,43,45,47,49,51,53,55,57,59,61,-1,-1,-1,-1,63,65,-1,67,69,71,73,75,77,79,81,83,85,87,89,91,93,95,-1,97,99,101,103,105,-1,-1,-1,-1,-1,-1,-1,-1,-1,-1,-1,-1,-1,-1,-1,-1,-1,-1,-1,-1,-1,-1,-1,-1,-1,-1,-1,-1,-1,-1,-1,-1,-1,-1,-1,-1,-1,-1,-1,-1,-1,-1,-1,-1,-1,-1,-1,-1],"loss_changes":[1.0430947E4,1.7941514E3,1.3912598E3,2.4752783E2,3.6256873E2,2.4012585E2,3.0009668E2,4.9117676E1,8.763062E0,2.8210938E1,5.2133347E1,2.3309113E1,1.6678345E1,1.0651318E2,2.69104E1,1.8317871E0,2.43396E0,1.0390625E0,2.8667603E0,6.593994E0,4.21167E0,6.3967743E0,7.3429165E0,2.5971184E0,2.8741302E0,4.7598267E0,2.911682E-1,1.4137695E1,9.6171875E0,1.998291E-1,2.7409058E0,0E0,0E0,0E0,0E0,1.3716125E0,2.281372E0,0E0,3.1550903E0,4.483124E0,5.8773804E0,1.3672485E0,1.6243591E0,2.8520966E0,1.1646118E0,3.869791E0,2.7536542E0,1.377553E0,4.676201E0,2.3686905E0,1.6518707E0,7.467041E-1,7.542114E-1,0E0,5.742798E-1,1.1407471E0,7.32666E-1,1.9462891E0,3.967285E-3,0E0,0E0,0E0,0E0,0E0,0E0,0E0,0E0,0E0,0E0,0E0,0E0,0E0,0E0,0E0,0E0,0E0,0E0,0E0,0E0,0E0,0E0,0E0,0E0,0E0,0E0,0E0,0E0,0E0,0E0,0E0,0E0,0E0,0E0,0E0,0E0,0E0,0E0,0E0,0E0,0E0,0E0,0E0,0E0,0E0,0E0,0E0,0E0],"parents":[2147483647,0,0,1,1,2,2,3,3,4,4,5,5,6,6,7,7,8,8,9,9,10,10,11,11,12,12,13,13,14,14,15,15,16,16,17,17,18,18,19,19,20,20,21,21,22,22,23,23,24,24,25,25,26,26,27,27,28,28,29,29,30,30,35,35,36,36,38,38,39,39,40,40,41,41,42,42,43,43,44,44,45,45,46,46,47,47,48,48,49,49,50,50,51,51,52,52,54,54,55,55,56,56,57,57,58,58],"right_children":[2,4,6,8,10,12,14,16,18,20,22,24,26,28,30,32,34,36,38,40,42,44,46,48,50,52,54,56,58,60,62,-1,-1,-1,-1,64,66,-1,68,70,72,74,76,78,80,82,84,86,88,90,92,94,96,-1,98,100,102,104,106,-1,-1,-1,-1,-1,-1,-1,-1,-1,-1,-1,-1,-1,-1,-1,-1,-1,-1,-1,-1,-1,-1,-1,-1,-1,-1,-1,-1,-1,-1,-1,-1,-1,-1,-1,-1,-1,-1,-1,-1,-1,-1,-1,-1,-1,-1,-1,-1],"split_conditions":[6.3056135E0,4.9898577E0,7.4702425E0,4.5283E0,5.579558E0,6.8901887E0,8.803467E0,4.19294E0,4.7437534E0,5.3582444E0,5.95154E0,6.6474037E0,7.3208914E0,8.008736E0,9.34837E0,3.903788E0,4.3198442E0,4.637087E0,4.7877393E0,5.189156E0,5.5295286E0,5.737123E0,6.0726624E0,6.4242578E0,6.809208E0,7.0778613E0,7.3487806E0,7.726649E0,8.392666E0,9.001547E0,9.825134E0,-6.020405E-1,-5.477004E-1,-4.936181E-1,-4.4151518E-1,4.6090474E0,4.661184E0,-2.652492E-1,4.884327E0,5.1523757E0,5.2092957E0,5.38244E0,5.540414E0,5.722289E0,5.9342284E0,6.040202E0,6.203115E0,6.3939843E0,6.487588E0,6.6628337E0,6.8519535E0,6.9188867E0,7.2515135E0,2.5066432E-1,7.4067383E0,7.502837E0,7.8296623E0,8.119214E0,8.575985E0,5.047971E-1,5.9734976E-1,6.6989005E-1,8.148589E-1,-3.6104453E-1,-4.292842E-1,-2.837674E-1,-3.5901088E-1,-3.441018E-1,-2.9337877E-1,-2.4592252E-1,-3.0928355E-1,-1.3431808E-1,-2.2678618E-1,-1.677359E-1,-1.93677E-1,-1.0607139E-1,-1.6070339E-1,-1.1793452E-1,-1.8148178E-1,-8.515386E-2,-1.253613E-1,-4.29363E-2,-1.0150478E-1,-2.1510944E-3,-3.3142705E-2,3.85739E-2,5.02118E-3,8.6136E-2,4.2128563E-2,1.4054002E-1,8.4247045E-2,1.3871498E-1,1.0068836E-1,1.8411738E-1,1.5708148E-1,1.9603308E-1,1.7623566E-1,2.1140333E-1,2.3745674E-1,3.0880538E-1,2.7147138E-1,3.1163457E-1,3.3756062E-1,3.6587638E-1,4.0751487E-1,4.7416553E-1,4.261763E-1],"split_indices":[0,0,0,0,0,0,0,0,0,0,0,0,0,0,0,0,0,0,0,0,0,0,0,0,0,0,0,0,0,0,0,0,0,0,0,0,0,0,0,0,0,0,0,0,0,0,0,0,0,0,0,0,0,0,0,0,0,0,0,0,0,0,0,0,0,0,0,0,0,0,0,0,0,0,0,0,0,0,0,0,0,0,0,0,0,0,0,0,0,0,0,0,0,0,0,0,0,0,0,0,0,0,0,0,0,0,0],"split_type":[0,0,0,0,0,0,0,0,0,0,0,0,0,0,0,0,0,0,0,0,0,0,0,0,0,0,0,0,0,0,0,0,0,0,0,0,0,0,0,0,0,0,0,0,0,0,0,0,0,0,0,0,0,0,0,0,0,0,0,0,0,0,0,0,0,0,0,0,0,0,0,0,0,0,0,0,0,0,0,0,0,0,0,0,0,0,0,0,0,0,0,0,0,0,0,0,0,0,0,0,0,0,0,0,0,0,0],"sum_hessian":[1.9131E4,9.568E3,9.563E3,2.765E3,6.803E3,5.899E3,3.664E3,1.42E3,1.345E3,3.365E3,3.438E3,2.908E3,2.991E3,3.364E3,3E2,6.73E2,7.47E2,5.98E2,7.47E2,1.647E3,1.718E3,1.868E3,1.57E3,1.637E3,1.271E3,2.244E3,7.47E2,2.169E3,1.195E3,1.49E2,1.51E2,3E2,3.73E2,2.25E2,5.22E2,3E2,2.98E2,1.49E2,5.98E2,6.76E2,9.71E2,1.42E3,2.98E2,8.22E2,1.046E3,5.15E2,1.055E3,5.89E2,1.048E3,8.22E2,4.49E2,9.71E2,1.273E3,1.47E2,6E2,1.122E3,1.047E3,8.2E2,3.75E2,7.5E1,7.4E1,7.4E1,7.7E1,2.24E2,7.6E1,7.5E1,2.23E2,3.02E2,2.96E2,5.26E2,1.5E2,7.2E1,8.99E2,2.97E2,1.123E3,7.4E1,2.24E2,7.49E2,7.3E1,9.72E2,7.4E1,3.75E2,1.4E2,6.07E2,4.48E2,4.42E2,1.47E2,3.1E2,7.38E2,7.6E1,7.46E2,2.25E2,2.24E2,1.5E2,8.21E2,8.97E2,3.76E2,2.99E2,3.01E2,1.47E2,9.75E2,4.48E2,5.99E2,2.97E2,5.23E2,2.26E2,1.49E2],"tree_param":{"num_deleted":"0","num_feature":"1","num_nodes":"107","size_leaf_vector":"1"}},{"base_weights":[1.17943186E-4,-5.3025377E-1,5.064853E-1,-1.0123868E0,-3.427664E-1,2.964536E-1,8.572978E-1,-1.2933676E0,-8.6476505E-1,-4.947493E-1,-1.7644769E-1,1.532907E-1,4.4626406E-1,7.9638064E-1,1.5354668E0,-4.2202833E-1,-1.2342278E0,-9.801994E-1,-7.5777036E-1,-5.625117E-1,-4.2358494E-1,-2.6142254E-1,-1.0243672E-1,8.611188E-2,2.2674367E-1,3.851086E-1,4.95972E-1,6.978875E-1,9.578966E-1,1.3010381E0,1.7567091E0,-3.838296E-1,-3.4618795E-1,-3.0931395E-1,-8.88594E-1,-7.980175E-1,-7.363796E-1,-6.1899036E-1,-5.138796E-1,-4.756987E-1,-3.8959998E-1,-3.162937E-1,-2.3751403E-1,-1.503009E-1,-5.1170263E-2,2.1544965E-2,1.0533187E-1,1.7820965E-1,2.663224E-1,4.0182135E-1,3.0162724E-2,4.603261E-1,5.381984E-1,6.4179206E-1,7.530511E-1,9.1107327E-1,3.2011575E-1,3.553506E-1,4.2053428E-1,4.7160256E-1,5.7353514E-1,-2.532126E-1,-3.021715E-1,-1.9975738E-1,-2.5178844E-1,-1.940034E-1,-2.3651268E-1,-1.7841576E-1,-2.1711291E-1,-1.4024074E-1,-1.8458861E-1,-1.17583945E-1,-1.621917E-1,-3.1330127E-2,-1.2345559E-1,-5.278705E-2,-1.1569332E-1,-1.414488E-2,-7.5587496E-2,-4.087285E-2,-9.7060956E-2,-1.506852E-3,-5.269303E-2,3.9471447E-2,-1.3201428E-2,4.0461503E-2,1.8666873E-2,6.581253E-2,4.3407686E-2,1.0027561E-1,7.527306E-2,1.1351711E-1,1.528953E-1,1.483332E-1,1.235052E-1,1.6443439E-1,1.3340029E-1,2.0117192E-1,1.7637622E-1,2.172181E-1,2.3423125E-1,2.555378E-1,2.8549367E-1],"categories":[],"categories_nodes":[],"categories_segments":[],"categories_sizes":[],"default_left":[0,0,0,0,0,0,0,0,0,0,0,0,0,0,0,0,0,0,0,0,0,0,0,0,0,0,0,0,0,0,0,0,0,0,0,0,0,0,0,0,0,0,0,0,0,0,0,0,0,0,0,0,0,0,0,0,0,0,0,0,0,0,0,0,0,0,0,0,0,0,0,0,0,0,0,0,0,0,0,0,0,0,0,0,0,0,0,0,0,0,0,0,0,0,0,0,0,0,0,0,0,0,0],"id":2,"left_children":[1,3,5,7,9,11,13,15,17,19,21,23,25,27,29,-1,31,33,35,37,39,41,43,45,47,49,51,53,55,57,59,-1,-1,-1,61,63,65,67,69,71,73,75,77,79,81,83,85,87,89,91,-1,93,95,97,99,101,-1,-1,-1,-1,-1,-1,-1,-1,-1,-1,-1,-1,-1,-1,-1,-1,-1,-1,-1,-1,-1,-1,-1,-1,-1,-1,-1,-1,-1,-1,-1,-1,-1,-1,-1,-1,-1,-1,-1,-1,-1,-1,-1,-1,-1,-1,-1],"loss_changes":[5.1384146E3,8.4438354E2,7.209426E2,1.0739038E2,1.7003094E2,1.3127484E2,1.5018604E2,4.2926025E0,2.0475952E1,1.6716858E1,2.0192589E1,1.5440208E1,8.904419E0,5.286255E1,1.3325989E1,0E0,6.970215E-1,2.9172363E0,1.8365479E-1,4.6204224E0,2.8591614E0,1.8874588E0,4.2128906E0,2.030449E0,2.8262253E0,6.361023E0,2.2313232E0,5.99646E0,5.5290527E0,1.00616455E-1,1.3482971E0,0E0,0E0,0E0,7.408905E-1,1.0722656E0,2.279358E0,1.6715698E0,4.287323E0,3.4539032E0,6.4950104E0,4.32148E0,2.8642807E0,2.1209545E0,4.778222E0,2.724792E0,1.5986767E0,8.9959335E-1,7.7672195E-1,3.018402E0,0E0,1.2900543E0,4.5002747E-1,1.2260132E0,2.7844238E-1,1.3468018E0,0E0,0E0,0E0,0E0,0E0,0E0,0E0,0E0,0E0,0E0,0E0,0E0,0E0,0E0,0E0,0E0,0E0,0E0,0E0,0E0,0E0,0E0,0E0,0E0,0E0,0E0,0E0,0E0,0E0,0E0,0E0,0E0,0E0,0E0,0E0,0E0,0E0,0E0,0E0,0E0,0E0,0E0,0E0,0E0,0E0,0E0,0E0],"parents":[2147483647,0,0,1,1,2,2,3,3,4,4,5,5,6,6,7,7,8,8,9,9,10,10,11,11,12,12,13,13,14,14,16,16,17,17,18,18,19,19,20,20,21,21,22,22,23,23,24,24,25,25,26,26,27,27,28,28,29,29,30,30,34,34,35,35,36,36,37,37,38,38,39,39,40,40,41,41,42,42,43,43,44,44,45,45,46,46,47,47,48,48,49,49,51,51,52,52,53,53,54,54,55,55],"right_children":[2,4,6,8,10,12,14,16,18,20,22,24,26,28,30,-1,32,34,36,38,40,42,44,46,48,50,52,54,56,58,60,-1,-1,-1,62,64,66,68,70,72,74,76,78,80,82,84,86,88,90,92,-1,94,96,98,100,102,-1,-1,-1,-1,-1,-1,-1,-1,-1,-1,-1,-1,-1,-1,-1,-1,-1,-1,-1,-1,-1,-1,-1,-1,-1,-1,-1,-1,-1,-1,-1,-1,-1,-1,-1,-1,-1,-1,-1,-1,-1,-1,-1,-1,-1,-1,-1],"split_conditions":[6.250741E0,4.933512E0,7.4702425E0,4.3198442E0,5.579558E0,6.8901887E0,8.803467E0,3.903788E0,4.637087E0,5.3582444E0,5.869306E0,6.594356E0,7.1484175E0,7.9841676E0,9.34837E0,-4.2202833E-1,4.19294E0,4.5283E0,4.7437534E0,5.189156E0,5.4254155E0,5.6612244E0,6.0726624E0,6.3378754E0,6.739365E0,7.1336894E0,7.3208914E0,7.7058287E0,8.392666E0,9.001547E0,9.825134E0,-3.838296E-1,-3.4618795E-1,-3.0931395E-1,4.6090474E0,4.661184E0,4.8184233E0,5.1523757E0,5.3483276E0,5.38244E0,5.4347444E0,5.602676E0,5.674205E0,6.058856E0,6.203115E0,6.286142E0,6.487588E0,6.6628337E0,6.77036E0,7.092396E0,3.0162724E-2,7.2515135E0,7.4563107E0,7.6164846E0,7.8296623E0,8.119214E0,3.2011575E-1,3.553506E-1,4.2053428E-1,4.7160256E-1,5.7353514E-1,-2.532126E-1,-3.021715E-1,-1.9975738E-1,-2.5178844E-1,-1.940034E-1,-2.3651268E-1,-1.7841576E-1,-2.1711291E-1,-1.4024074E-1,-1.8458861E-1,-1.17583945E-1,-1.621917E-1,-3.1330127E-2,-1.2345559E-1,-5.278705E-2,-1.1569332E-1,-1.414488E-2,-7.5587496E-2,-4.087285E-2,-9.7060956E-2,-1.506852E-3,-5.269303E-2,3.9471447E-2,-1.3201428E-2,4.0461503E-2,1.8666873E-2,6.581253E-2,4.3407686E-2,1.0027561E-1,7.527306E-2,1.1351711E-1,1.528953E-1,1.483332E-1,1.235052E-1,1.6443439E-1,1.3340029E-1,2.0117192E-1,1.7637622E-1,2.172181E-1,2.3423125E-1,2.555378E-1,2.8549367E-1],"split_indices":[0,0,0,0,0,0,0,0,0,0,0,0,0,0,0,0,0,0,0,0,0,0,0,0,0,0,0,0,0,0,0,0,0,0,0,0,0,0,0,0,0,0,0,0,0,0,0,0,0,0,0,0,0,0,0,0,0,0,0,0,0,0,0,0,0,0,0,0,0,0,0,0,0,0,0,0,0,0,0,0,0,0,0,0,0,0,0,0,0,0,0,0,0,0,0,0,0,0,0,0,0,0,0],"split_type":[0,0,0,0,0,0,0,0,0,0,0,0,0,0,0,0,0,0,0,0,0,0,0,0,0,0,0,0,0,0,0,0,0,0,0,0,0,0,0,0,0,0,0,0,0,0,0,0,0,0,0,0,0,0,0,0,0,0,0,0,0,0,0,0,0,0,0,0,0,0,0,0,0,0,0,0,0,0,0,0,0,0,0,0,0,0,0,0,0,0,0,0,0,0,0,0,0,0,0,0,0,0,0],"sum_hessian":[1.9131E4,9.344E3,9.787E3,2.615E3,6.729E3,6.123E3,3.664E3,8.98E2,1.717E3,3.515E3,3.214E3,3.132E3,2.991E3,3.364E3,3E2,3E2,5.98E2,8.22E2,8.95E2,1.797E3,1.718E3,1.495E3,1.719E3,1.637E3,1.495E3,1.345E3,1.646E3,2.093E3,1.271E3,1.49E2,1.51E2,3.73E2,2.25E2,5.22E2,3E2,2.98E2,5.97E2,8.26E2,9.71E2,6.73E2,1.045E3,4.5E2,1.045E3,8.88E2,8.31E2,3.76E2,1.261E3,6.74E2,8.21E2,1.27E3,7.5E1,8.99E2,7.47E2,1.044E3,1.049E3,8.96E2,3.75E2,7.5E1,7.4E1,7.4E1,7.7E1,2.24E2,7.6E1,7.5E1,2.23E2,2.24E2,3.73E2,6.76E2,1.5E2,6.7E2,3.01E2,2.97E2,3.76E2,7.5E1,9.7E2,1.5E2,3E2,7.4E1,9.71E2,8.23E2,6.5E1,6.07E2,2.24E2,1.4E2,2.36E2,7.47E2,5.14E2,3E2,3.74E2,1.48E2,6.73E2,1.047E3,2.23E2,5.23E2,3.76E2,6.71E2,7.6E1,6.73E2,3.71E2,5.26E2,5.23E2,3.73E2,5.23E2],"tree_param":{"num_deleted":"0","num_feature":"1","num_nodes":"103","size_leaf_vector":"1"}},{"base_weights":[9.5254836E-5,-3.7165967E-1,3.5502473E-1,-6.8550974E-1,-2.2912912E-1,2.0274128E-1,5.9349835E-1,-8.4811765E-1,-5.45932E-1,-3.2873514E-1,-1.1448891E-1,9.094622E-2,2.938273E-1,5.515819E-1,1.0808768E0,-9.379312E-1,-7.569105E-1,-6.256773E-1,-5.05501E-1,-3.6823812E-1,-2.723093E-1,-1.5751265E-1,-4.3430712E-2,3.4749005E-2,1.22524664E-1,2.2739922E-1,3.2470605E-1,4.834983E-1,6.712045E-1,9.1589934E-1,1.2365724E0,-9.861346E-1,-2.689886E-1,-8.0930346E-1,-7.287906E-1,-6.0905296E-1,-2.1519075E-1,-5.285137E-1,-4.7357178E-1,-4.0989143E-1,-3.5337433E-1,-2.603022E-1,-1.4436617E-1,-1.5172094E-1,-9.242411E-2,-3.1145854E-2,-5.9972264E-2,4.5029595E-2,2.5857044E-2,8.1206724E-2,1.0744939E-1,2.0806964E-1,2.6167747E-1,3.0284327E-1,3.6196947E-1,4.4082808E-1,5.25662E-1,6.027002E-1,7.0784575E-1,2.5014815E-1,2.9605615E-1,3.3200824E-1,4.036806E-1,-2.8179637E-1,-3.3303607E-1,-2.1240821E-1,-2.5618526E-1,-1.8913548E-1,-2.2387582E-1,-1.9073898E-1,-1.4061862E-1,-1.5004832E-1,-2.1285766E-1,-1.3580291E-1,-1.6971199E-1,-1.1078384E-1,-1.5241036E-1,-5.307884E-2,-1.0865144E-1,-8.864421E-2,-5.683316E-2,-4.8091788E-2,1.3370255E-2,-1.9522512E-2,1.1483936E-3,-1.912713E-2,1.3427463E-2,1.3077722E-2,4.162705E-2,7.023974E-2,-1.2818043E-4,1.0511227E-1,6.041499E-2,9.41292E-2,6.267472E-2,1.0648887E-1,1.1712703E-1,1.3752316E-1,1.1728738E-1,1.4787285E-1,1.6242693E-1,2.1463093E-1,1.6318417E-1,2.0182279E-1,2.2433649E-1],"categories":[],"categories_nodes":[],"categories_segments":[],"categories_sizes":[],"default_left":[0,0,0,0,0,0,0,0,0,0,0,0,0,0,0,0,0,0,0,0,0,0,0,0,0,0,0,0,0,0,0,0,0,0,0,0,0,0,0,0,0,0,0,0,0,0,0,0,0,0,0,0,0,0,0,0,0,0,0,0,0,0,0,0,0,0,0,0,0,0,0,0,0,0,0,0,0,0,0,0,0,0,0,0,0,0,0,0,0,0,0,0,0,0,0,0,0,0,0,0,0,0,0,0,0],"id":3,"left_children":[1,3,5,7,9,11,13,15,17,19,21,23,25,27,29,31,33,35,37,39,41,43,45,47,49,51,53,55,57,59,61,63,-1,65,67,69,-1,71,73,75,77,79,-1,81,-1,83,-1,-1,85,-1,87,89,91,93,95,97,99,101,103,-1,-1,-1,-1,-1,-1,-1,-1,-1,-1,-1,-1,-1,-1,-1,-1,-1,-1,-1,-1,-1,-1,-1,-1,-1,-1,-1,-1,-1,-1,-1,-1,-1,-1,-1,-1,-1,-1,-1,-1,-1,-1,-1,-1,-1,-1],"loss_changes":[2.5245374E3,4.17875E2,3.5533667E2,6.5765015E1,7.336273E1,6.0816513E1,7.732056E1,1.0316101E1,4.7553406E0,7.5652466E0,9.134155E0,4.7588234E0,6.6787415E0,2.82948E1,6.598999E0,4.5770264E-1,4.0170288E-1,3.6279297E-1,5.2053833E-1,1.1057739E0,3.4366913E0,1.5770035E0,2.1640453E0,9.879559E-1,3.8082733E0,6.39946E-1,1.7193756E0,3.803711E0,2.7661743E0,5.063629E-2,6.632385E-1,7.043152E-1,0E0,4.172821E-1,2.9882812E-1,1.3945007E0,0E0,2.729538E0,6.083298E-1,1.9049301E0,2.2580109E0,3.2966843E0,0E0,3.0319633E0,0E0,1.2438412E0,0E0,0E0,1.5255902E0,0E0,3.1147003E0,3.668064E0,1.9295521E0,1.3920441E0,2.5886536E-2,8.037262E-1,3.128662E-1,2.5914612E0,6.508789E-1,0E0,0E0,0E0,0E0,0E0,0E0,0E0,0E0,0E0,0E0,0E0,0E0,0E0,0E0,0E0,0E0,0E0,0E0,0E0,0E0,0E0,0E0,0E0,0E0,0E0,0E0,0E0,0E0,0E0,0E0,0E0,0E0,0E0,0E0,0E0,0E0,0E0,0E0,0E0,0E0,0E0,0E0,0E0,0E0,0E0,0E0],"parents":[2147483647,0,0,1,1,2,2,3,3,4,4,5,5,6,6,7,7,8,8,9,9,10,10,11,11,12,12,13,13,14,14,15,15,16,16,17,17,18,18,19,19,20,20,21,21,22,22,23,23,24,24,25,25,26,26,27,27,28,28,29,29,30,30,31,31,33,33,34,34,35,35,37,37,38,38,39,39,40,40,41,41,43,43,45,45,48,48,50,50,51,51,52,52,53,53,54,54,55,55,56,56,57,57,58,58],"right_children":[2,4,6,8,10,12,14,16,18,20,22,24,26,28,30,32,34,36,38,40,42,44,46,48,50,52,54,56,58,60,62,64,-1,66,68,70,-1,72,74,76,78,80,-1,82,-1,84,-1,-1,86,-1,88,90,92,94,96,98,100,102,104,-1,-1,-1,-1,-1,-1,-1,-1,-1,-1,-1,-1,-1,-1,-1,-1,-1,-1,-1,-1,-1,-1,-1,-1,-1,-1,-1,-1,-1,-1,-1,-1,-1,-1,-1,-1,-1,-1,-1,-1,-1,-1,-1,-1,-1,-1],"split_conditions":[6.250741E0,5.037495E0,7.43734E0,4.4951053E0,5.615069E0,6.809208E0,8.803467E0,4.19294E0,4.686742E0,5.4068756E0,6.000251E0,6.4515986E0,7.007393E0,7.9841676E0,9.34837E0,3.903788E0,4.3198442E0,4.661184E0,4.884327E0,5.189156E0,5.602676E0,5.9840784E0,6.233444E0,6.2681346E0,6.487588E0,6.9359703E0,7.2785034E0,7.6841655E0,8.145945E0,9.001547E0,9.825134E0,3.816887E0,-2.689886E-1,4.233922E0,4.3527446E0,4.637087E0,-2.1519075E-1,4.8592234E0,5.010396E0,5.1523757E0,5.2092957E0,5.5295286E0,-1.4436617E-1,5.968052E0,-9.242411E-2,6.120547E0,-5.9972264E-2,4.5029595E-2,6.3056135E0,8.1206724E-2,6.594356E0,6.9188867E0,6.966405E0,7.2515135E0,7.4067383E0,7.6164846E0,7.776885E0,8.032379E0,8.392666E0,2.5014815E-1,2.9605615E-1,3.3200824E-1,4.036806E-1,-2.8179637E-1,-3.3303607E-1,-2.1240821E-1,-2.5618526E-1,-1.8913548E-1,-2.2387582E-1,-1.9073898E-1,-1.4061862E-1,-1.5004832E-1,-2.1285766E-1,-1.3580291E-1,-1.6971199E-1,-1.1078384E-1,-1.5241036E-1,-5.307884E-2,-1.0865144E-1,-8.864421E-2,-5.683316E-2,-4.8091788E-2,1.3370255E-2,-1.9522512E-2,1.1483936E-3,-1.912713E-2,1.3427463E-2,1.3077722E-2,4.162705E-2,7.023974E-2,-1.2818043E-4,1.0511227E-1,6.041499E-2,9.41292E-2,6.267472E-2,1.0648887E-1,1.1712703E-1,1.3752316E-1,1.1728738E-1,1.4787285E-1,1.6242693E-1,2.1463093E-1,1.6318417E-1,2.0182279E-1,2.2433649E-1],"split_indices":[0,0,0,0,0,0,0,0,0,0,0,0,0,0,0,0,0,0,0,0,0,0,0,0,0,0,0,0,0,0,0,0,0,0,0,0,0,0,0,0,0,0,0,0,0,0,0,0,0,0,0,0,0,0,0,0,0,0,0,0,0,0,0,0,0,0,0,0,0,0,0,0,0,0,0,0,0,0,0,0,0,0,0,0,0,0,0,0,0,0,0,0,0,0,0,0,0,0,0,0,0,0,0,0,0],"split_type":[0,0,0,0,0,0,0,0,0,0,0,0,0,0,0,0,0,0,0,0,0,0,0,0,0,0,0,0,0,0,0,0,0,0,0,0,0,0,0,0,0,0,0,0,0,0,0,0,0,0,0,0,0,0,0,0,0,0,0,0,0,0,0,0,0,0,0,0,0,0,0,0,0,0,0,0,0,0,0,0,0,0,0,0,0,0,0,0,0,0,0,0,0,0,0,0,0,0,0,0,0,0,0,0,0],"sum_hessian":[1.9131E4,9.344E3,9.787E3,2.917E3,6.427E3,5.974E3,3.813E3,1.345E3,1.572E3,3.438E3,2.989E3,2.683E3,3.291E3,3.513E3,3E2,6.73E2,6.72E2,5.24E2,1.048E3,2.019E3,1.419E3,1.861E3,1.128E3,9.66E2,1.717E3,1.047E3,2.244E3,2.242E3,1.271E3,1.49E2,1.51E2,3E2,3.73E2,2.25E2,4.47E2,4.5E2,7.4E1,6E2,4.48E2,5.24E2,1.495E3,1.344E3,7.5E1,1.794E3,6.7E1,1.047E3,8.1E1,6.8E1,8.98E2,1.57E2,1.56E3,6.74E2,3.73E2,1.42E3,8.24E2,1.12E3,1.122E3,4.49E2,8.22E2,7.5E1,7.4E1,7.4E1,7.7E1,2.24E2,7.6E1,7.4E1,1.51E2,7.3E1,3.74E2,3.75E2,7.5E1,5.22E2,7.8E1,3.7E2,7.8E1,3.74E2,1.5E2,7.2E1,1.423E3,8.96E2,4.48E2,1.719E3,7.5E1,5.31E2,5.16E2,1.56E2,7.42E2,5.14E2,1.046E3,5.99E2,7.5E1,1.49E2,2.24E2,1.27E3,1.5E2,6.72E2,1.52E2,8.22E2,2.98E2,3.75E2,7.47E2,1.5E2,2.99E2,4.47E2,3.75E2],"tree_param":{"num_deleted":"0","num_feature":"1","num_nodes":"105","size_leaf_vector":"1"}},{"base_weights":[4.279216E-5,-2.6057908E-1,2.4886905E-1,-4.902991E-1,-1.6397329E-1,1.4516015E-1,4.2209262E-1,-6.083932E-1,-3.9994952E-1,-2.3863399E-1,-8.575495E-2,7.403765E-2,2.1958584E-1,3.9166325E-1,7.608725E-1,-6.578631E-1,-5.43601E-1,-4.4970036E-1,-3.6212116E-1,-2.8831723E-1,-2.1834143E-1,-1.294058E-1,-4.7739018E-2,5.246766E-2,1.27664E-1,1.8804629E-1,2.4522799E-1,3.4450144E-1,4.769053E-1,6.44771E-1,8.704406E-1,-6.923368E-1,-6.2835926E-1,-5.816658E-1,-5.27071E-1,-1.0835423E-1,-4.6001583E-1,-3.5039192E-1,-1.458005E-1,-2.7613637E-1,-1.06148005E-1,-2.37541E-1,-1.9337146E-1,-1.1954683E-1,-2.1707657E-1,-8.059061E-2,-3.047074E-2,2.4365133E-2,7.38241E-2,1.6466466E-1,1.15122736E-1,2.0046498E-1,-6.634219E-3,2.3064472E-1,2.6244688E-1,3.0272684E-1,3.661736E-1,1.9108228E-1,4.6578267E-1,1.7609109E-1,2.0842366E-1,2.3373379E-1,2.8412896E-1,-1.9763316E-1,-2.344228E-1,-1.6840704E-1,-1.929046E-1,-1.4953542E-1,-1.9713743E-1,-1.4821514E-1,-1.7190059E-1,-1.7971045E-1,-1.317045E-1,-1.09228596E-1,-6.387028E-2,-8.77105E-2,-6.0159348E-2,-4.8553824E-2,-7.7738166E-2,4.188532E-3,-6.282008E-2,-4.5112826E-2,-2.1297183E-2,-9.737745E-2,-3.2436017E-2,1.57119E-2,-2.9994192E-2,-3.7718655E-3,-3.0697342E-2,2.412909E-2,4.433039E-3,5.699888E-2,1.717984E-2,2.9877918E-2,8.804398E-2,2.2237366E-2,4.06098E-2,5.6025464E-2,7.911879E-2,7.919225E-2,6.1933428E-2,8.154512E-2,5.3178757E-2,9.971415E-2,8.5641695E-3,1.0468252E-1,1.13489285E-1,1.0558103E-1,1.4808932E-1],"categories":[],"categories_nodes":[],"categories_segments":[],"categories_sizes":[],"default_left":[0,0,0,0,0,0,0,0,0,0,0,0,0,0,0,0,0,0,0,0,0,0,0,0,0,0,0,0,0,0,0,0,0,0,0,0,0,0,0,0,0,0,0,0,0,0,0,0,0,0,0,0,0,0,0,0,0,0,0,0,0,0,0,0,0,0,0,0,0,0,0,0,0,0,0,0,0,0,0,0,0,0,0,0,0,0,0,0,0,0,0,0,0,0,0,0,0,0,0,0,0,0,0,0,0,0,0,0,0],"id":4,"left_children":[1,3,5,7,9,11,13,15,17,19,21,23,25,27,29,31,33,35,37,39,41,43,45,47,49,51,53,55,57,59,61,63,65,67,69,-1,71,73,-1,75,-1,77,79,81,83,85,87,89,91,93,95,97,-1,99,101,103,105,-1,107,-1,-1,-1,-1,-1,-1,-1,-1,-1,-1,-1,-1,-1,-1,-1,-1,-1,-1,-1,-1,-1,-1,-1,-1,-1,-1,-1,-1,-1,-1,-1,-1,-1,-1,-1,-1,-1,-1,-1,-1,-1,-1,-1,-1,-1,-1,-1,-1,-1,-1],"loss_changes":[1.2407668E3,2.0730652E2,1.7577844E2,2.9269226E1,3.840564E1,3.240016E1,3.7483948E1,3.479065E0,2.7919006E0,3.330658E0,5.328884E0,3.6173038E0,2.373642E0,1.3363586E1,3.267807E0,2.505188E-1,2.3132324E-2,4.492798E-1,1.1330643E0,6.7871857E-1,1.1017838E0,1.267107E0,9.7328377E-1,1.3401809E0,3.9774704E-1,3.5173798E0,3.530426E-1,1.8537292E0,1.8322144E0,2.5489807E-2,3.2621765E-1,3.8497925E-1,6.30188E-3,6.080704E-1,2.871704E-1,0E0,1.4887238E0,1.4730911E0,0E0,9.5383453E-1,0E0,2.1622849E0,3.4790993E0,2.0057182E0,1.7220731E0,1.5315118E0,1.4506387E0,5.1864326E-1,2.4320607E0,1.8567696E0,5.493431E-1,1.0534286E0,0E0,6.7141724E-1,5.4885864E-1,6.063942E0,1.6551208E-1,0E0,3.3834991E0,0E0,0E0,0E0,0E0,0E0,0E0,0E0,0E0,0E0,0E0,0E0,0E0,0E0,0E0,0E0,0E0,0E0,0E0,0E0,0E0,0E0,0E0,0E0,0E0,0E0,0E0,0E0,0E0,0E0,0E0,0E0,0E0,0E0,0E0,0E0,0E0,0E0,0E0,0E0,0E0,0E0,0E0,0E0,0E0,0E0,0E0,0E0,0E0,0E0,0E0],"parents":[2147483647,0,0,1,1,2,2,3,3,4,4,5,5,6,6,7,7,8,8,9,9,10,10,11,11,12,12,13,13,14,14,15,15,16,16,17,17,18,18,19,19,20,20,21,21,22,22,23,23,24,24,25,25,26,26,27,27,28,28,29,29,30,30,31,31,32,32,33,33,34,34,36,36,37,37,39,39,41,41,42,42,43,43,44,44,45,45,46,46,47,47,48,48,49,49,50,50,51,51,53,53,54,54,55,55,56,56,58,58],"right_children":[2,4,6,8,10,12,14,16,18,20,22,24,26,28,30,32,34,36,38,40,42,44,46,48,50,52,54,56,58,60,62,64,66,68,70,-1,72,74,-1,76,-1,78,80,82,84,86,88,90,92,94,96,98,-1,100,102,104,106,-1,108,-1,-1,-1,-1,-1,-1,-1,-1,-1,-1,-1,-1,-1,-1,-1,-1,-1,-1,-1,-1,-1,-1,-1,-1,-1,-1,-1,-1,-1,-1,-1,-1,-1,-1,-1,-1,-1,-1,-1,-1,-1,-1,-1,-1,-1,-1,-1,-1,-1,-1],"split_conditions":[6.250741E0,4.9898577E0,7.4702425E0,4.4370127E0,5.579558E0,6.8901887E0,8.803467E0,4.19294E0,4.686742E0,5.2669754E0,5.869306E0,6.723138E0,7.1484175E0,8.008736E0,9.34837E0,3.903788E0,4.2851315E0,4.4670763E0,4.9628515E0,5.231195E0,5.4254155E0,5.8429656E0,6.000251E0,6.4515986E0,6.77036E0,7.1336894E0,7.3208914E0,7.6339626E0,8.032379E0,9.001547E0,9.825134E0,3.816887E0,3.990305E0,4.233922E0,4.3802524E0,-1.0835423E-1,4.4951053E0,4.933512E0,-1.458005E-1,5.189156E0,-1.06148005E-1,5.334567E0,5.4347444E0,5.737123E0,5.856317E0,5.8857336E0,6.203115E0,6.286142E0,6.487588E0,6.7559624E0,6.809208E0,7.092396E0,-6.634219E-3,7.222018E0,7.4563107E0,7.6164846E0,7.776885E0,1.9108228E-1,8.119214E0,1.7609109E-1,2.0842366E-1,2.3373379E-1,2.8412896E-1,-1.9763316E-1,-2.344228E-1,-1.6840704E-1,-1.929046E-1,-1.4953542E-1,-1.9713743E-1,-1.4821514E-1,-1.7190059E-1,-1.7971045E-1,-1.317045E-1,-1.09228596E-1,-6.387028E-2,-8.77105E-2,-6.0159348E-2,-4.8553824E-2,-7.7738166E-2,4.188532E-3,-6.282008E-2,-4.5112826E-2,-2.1297183E-2,-9.737745E-2,-3.2436017E-2,1.57119E-2,-2.9994192E-2,-3.7718655E-3,-3.0697342E-2,2.412909E-2,4.433039E-3,5.699888E-2,1.717984E-2,2.9877918E-2,8.804398E-2,2.2237366E-2,4.06098E-2,5.6025464E-2,7.911879E-2,7.919225E-2,6.1933428E-2,8.154512E-2,5.3178757E-2,9.971415E-2,8.5641695E-3,1.0468252E-1,1.13489285E-1,1.0558103E-1,1.4808932E-1],"split_indices":[0,0,0,0,0,0,0,0,0,0,0,0,0,0,0,0,0,0,0,0,0,0,0,0,0,0,0,0,0,0,0,0,0,0,0,0,0,0,0,0,0,0,0,0,0,0,0,0,0,0,0,0,0,0,0,0,0,0,0,0,0,0,0,0,0,0,0,0,0,0,0,0,0,0,0,0,0,0,0,0,0,0,0,0,0,0,0,0,0,0,0,0,0,0,0,0,0,0,0,0,0,0,0,0,0,0,0,0,0],"split_type":[0,0,0,0,0,0,0,0,0,0,0,0,0,0,0,0,0,0,0,0,0,0,0,0,0,0,0,0,0,0,0,0,0,0,0,0,0,0,0,0,0,0,0,0,0,0,0,0,0,0,0,0,0,0,0,0,0,0,0,0,0,0,0,0,0,0,0,0,0,0,0,0,0,0,0,0,0,0,0,0,0,0,0,0,0,0,0,0,0,0,0,0,0,0,0,0,0,0,0,0,0,0,0,0,0,0,0,0,0],"sum_hessian":[1.9131E4,9.344E3,9.787E3,2.765E3,6.579E3,6.123E3,3.664E3,1.196E3,1.569E3,3.365E3,3.214E3,3.132E3,2.991E3,3.364E3,3E2,6.73E2,5.23E2,6.73E2,8.96E2,9.72E2,2.393E3,1.495E3,1.719E3,2.235E3,8.97E2,1.345E3,1.646E3,2.169E3,1.195E3,1.49E2,1.51E2,3E2,3.73E2,1.48E2,3.75E2,7.4E1,5.99E2,8.22E2,7.4E1,8.24E2,1.48E2,1.348E3,1.045E3,1.346E3,1.49E2,5.91E2,1.128E3,9.66E2,1.269E3,2.24E2,6.73E2,1.27E3,7.5E1,8.99E2,7.47E2,7.46E2,1.423E3,7.4E1,1.121E3,7.5E1,7.4E1,7.4E1,7.7E1,2.24E2,7.6E1,7.4E1,2.99E2,7.4E1,7.4E1,2.25E2,1.5E2,7.5E1,5.24E2,7.46E2,7.6E1,6.76E2,1.48E2,3.01E2,1.047E3,7.5E1,9.7E2,8.22E2,5.24E2,7.4E1,7.5E1,7.5E1,5.16E2,9.04E2,2.24E2,1.4E2,8.26E2,1.57E2,1.112E3,1.5E2,7.4E1,2.24E2,4.49E2,1.047E3,2.23E2,3.74E2,5.25E2,6.71E2,7.6E1,6.73E2,7.3E1,6E2,8.23E2,2.23E2,8.98E2],"tree_param":{"num_deleted":"0","num_feature":"1","num_nodes":"109","size_leaf_vector":"1"}},{"base_weights":[2.6670555E-6,-1.7748325E-1,1.804632E-1,-3.4400433E-1,-1.1051989E-1,1.0526841E-1,2.9228145E-1,-4.148104E-1,-2.6899734E-1,-1.7338862E-1,-5.991901E-2,5.9038565E-2,1.5128236E-1,2.586921E-1,4.4782093E-1,-4.52783E-1,-3.6209658E-1,-2.9861265E-1,-2.538403E-1,-1.9345145E-1,-1.499988E-1,-9.1032654E-2,-2.7593302E-2,3.9562915E-2,8.289269E-2,1.3172786E-1,1.687517E-1,2.3046501E-1,2.9999635E-1,3.8339624E-1,5.744038E-1,-4.860711E-1,-1.2981622E-1,-3.5136774E-1,-3.9167187E-1,-2.8257513E-1,-1.1250978E-1,-2.4548464E-1,-1.0264352E-1,-1.8162827E-1,-7.3663615E-2,-1.3748395E-1,-2.5512466E-1,-8.75658E-2,-5.2863847E-2,-4.6455532E-2,-7.126777E-3,6.379764E-2,3.2113522E-2,6.2025223E-2,7.484925E-2,1.4043179E-1,-4.6701366E-3,1.5770036E-1,1.7757577E-1,2.1050562E-1,2.485894E-1,2.7293587E-1,3.1449607E-1,1.3910723E-1,3.658867E-1,1.5668392E-1,1.9998303E-1,-1.3860668E-1,-1.6500935E-1,-1.1094027E-1,-7.628142E-2,-1.2650672E-1,-1.06950335E-1,-9.074662E-2,-5.999664E-2,-7.650387E-2,-4.4957995E-2,-5.8815677E-2,-1.9034939E-2,-4.4824958E-2,1.5678935E-2,-9.8518446E-2,-5.3242777E-2,-2.783653E-2,1.1060384E-2,-7.307928E-3,-9.445763E-2,4.661312E-2,-6.567365E-3,1.3194128E-2,4.203061E-2,-1.3853338E-2,1.2938633E-2,-1.5206098E-3,2.5868198E-2,3.9233852E-2,5.5489127E-2,5.3493313E-2,2.5539873E-2,5.8862224E-2,4.6507217E-2,6.821108E-2,6.029689E-3,8.080372E-2,6.031771E-2,9.385015E-2,6.954907E-2,1.3452186E-1,9.0189084E-2,1.05804615E-1,1.2395883E-1],"categories":[],"categories_nodes":[],"categories_segments":[],"categories_sizes":[],"default_left":[0,0,0,0,0,0,0,0,0,0,0,0,0,0,0,0,0,0,0,0,0,0,0,0,0,0,0,0,0,0,0,0,0,0,0,0,0,0,0,0,0,0,0,0,0,0,0,0,0,0,0,0,0,0,0,0,0,0,0,0,0,0,0,0,0,0,0,0,0,0,0,0,0,0,0,0,0,0,0,0,0,0,0,0,0,0,0,0,0,0,0,0,0,0,0,0,0,0,0,0,0,0,0,0,0,0,0],"id":5,"left_children":[1,3,5,7,9,11,13,15,17,19,21,23,25,27,29,31,33,35,37,39,41,43,45,47,49,51,53,55,57,59,61,63,-1,65,67,69,-1,71,-1,73,-1,75,77,79,-1,81,83,85,87,-1,89,91,-1,93,95,97,99,101,103,-1,105,-1,-1,-1,-1,-1,-1,-1,-1,-1,-1,-1,-1,-1,-1,-1,-1,-1,-1,-1,-1,-1,-1,-1,-1,-1,-1,-1,-1,-1,-1,-1,-1,-1,-1,-1,-1,-1,-1,-1,-1,-1,-1,-1,-1,-1,-1],"loss_changes":[6.128147E2,1.07522705E2,7.9737305E1,1.4578491E1,2.187954E1,1.2060902E1,1.9810272E1,2.6804352E0,5.28389E-1,1.4106903E0,3.833498E0,1.312397E0,9.489517E-1,3.590622E0,5.2926025E0,3.386383E-1,5.2764893E-2,4.4554138E-1,5.7785416E-1,9.7042847E-1,1.8344421E0,5.583515E-1,7.223438E-1,2.7976465E-1,1.251749E0,1.7278175E0,1.1808014E-1,6.237793E-1,4.1286469E-1,4.6440887E-1,7.380295E-1,2.0885468E-1,0E0,7.113762E-1,9.080887E-3,5.5787086E-1,0E0,7.1164703E-1,0E0,2.2836647E0,0E0,2.8878326E0,7.951174E-1,1.2180309E0,0E0,5.768712E0,2.1603525E0,5.4728174E-1,1.0334203E0,0E0,1.0879741E0,5.2213097E-1,0E0,9.928951E-1,3.1623077E-1,2.8726044E0,9.067497E-1,6.671295E-1,1.3896027E0,0E0,8.853912E-2,0E0,0E0,0E0,0E0,0E0,0E0,0E0,0E0,0E0,0E0,0E0,0E0,0E0,0E0,0E0,0E0,0E0,0E0,0E0,0E0,0E0,0E0,0E0,0E0,0E0,0E0,0E0,0E0,0E0,0E0,0E0,0E0,0E0,0E0,0E0,0E0,0E0,0E0,0E0,0E0,0E0,0E0,0E0,0E0,0E0,0E0],"parents":[2147483647,0,0,1,1,2,2,3,3,4,4,5,5,6,6,7,7,8,8,9,9,10,10,11,11,12,12,13,13,14,14,15,15,16,16,17,17,18,18,19,19,20,20,21,21,22,22,23,23,24,24,25,25,26,26,27,27,28,28,29,29,30,30,31,31,33,33,34,34,35,35,37,37,39,39,41,41,42,42,43,43,45,45,46,46,47,47,48,48,50,50,51,51,53,53,54,54,55,55,56,56,57,57,58,58,60,60],"right_children":[2,4,6,8,10,12,14,16,18,20,22,24,26,28,30,32,34,36,38,40,42,44,46,48,50,52,54,56,58,60,62,64,-1,66,68,70,-1,72,-1,74,-1,76,78,80,-1,82,84,86,88,-1,90,92,-1,94,96,98,100,102,104,-1,106,-1,-1,-1,-1,-1,-1,-1,-1,-1,-1,-1,-1,-1,-1,-1,-1,-1,-1,-1,-1,-1,-1,-1,-1,-1,-1,-1,-1,-1,-1,-1,-1,-1,-1,-1,-1,-1,-1,-1,-1,-1,-1,-1,-1,-1,-1],"split_conditions":[6.3198767E0,4.9898577E0,7.43734E0,4.5283E0,5.5295286E0,6.8901887E0,8.392666E0,4.2851315E0,4.686742E0,5.3582444E0,5.899693E0,6.6474037E0,7.1484175E0,7.877265E0,9.001547E0,3.903788E0,4.4670763E0,4.661184E0,4.9628515E0,5.3483276E0,5.5089984E0,5.8857336E0,6.120547E0,6.3939843E0,6.6628337E0,7.1336894E0,7.2785034E0,7.6339626E0,8.008736E0,8.441284E0,9.825134E0,3.816887E0,-1.2981622E-1,4.4370127E0,4.4951053E0,4.637087E0,-1.1250978E-1,4.933512E0,-1.0264352E-1,5.317933E0,-7.3663615E-2,5.498558E0,5.5193944E0,5.869306E0,-5.2863847E-2,6.104991E0,6.135884E0,6.3774114E0,6.4242578E0,6.2025223E-2,6.6938577E0,7.092396E0,-4.6701366E-3,7.2515135E0,7.363634E0,7.6164846E0,7.793664E0,7.9432545E0,8.032379E0,1.3910723E-1,8.803467E0,1.5668392E-1,1.9998303E-1,-1.3860668E-1,-1.6500935E-1,-1.1094027E-1,-7.628142E-2,-1.2650672E-1,-1.06950335E-1,-9.074662E-2,-5.999664E-2,-7.650387E-2,-4.4957995E-2,-5.8815677E-2,-1.9034939E-2,-4.4824958E-2,1.5678935E-2,-9.8518446E-2,-5.3242777E-2,-2.783653E-2,1.1060384E-2,-7.307928E-3,-9.445763E-2,4.661312E-2,-6.567365E-3,1.3194128E-2,4.203061E-2,-1.3853338E-2,1.2938633E-2,-1.5206098E-3,2.5868198E-2,3.9233852E-2,5.5489127E-2,5.3493313E-2,2.5539873E-2,5.8862224E-2,4.6507217E-2,6.821108E-2,6.029689E-3,8.080372E-2,6.031771E-2,9.385015E-2,6.954907E-2,1.3452186E-1,9.0189084E-2,1.05804615E-1,1.2395883E-1],"split_indices":[0,0,0,0,0,0,0,0,0,0,0,0,0,0,0,0,0,0,0,0,0,0,0,0,0,0,0,0,0,0,0,0,0,0,0,0,0,0,0,0,0,0,0,0,0,0,0,0,0,0,0,0,0,0,0,0,0,0,0,0,0,0,0,0,0,0,0,0,0,0,0,0,0,0,0,0,0,0,0,0,0,0,0,0,0,0,0,0,0,0,0,0,0,0,0,0,0,0,0,0,0,0,0,0,0,0,0],"split_type":[0,0,0,0,0,0,0,0,0,0,0,0,0,0,0,0,0,0,0,0,0,0,0,0,0,0,0,0,0,0,0,0,0,0,0,0,0,0,0,0,0,0,0,0,0,0,0,0,0,0,0,0,0,0,0,0,0,0,0,0,0,0,0,0,0,0,0,0,0,0,0,0,0,0,0,0,0,0,0,0,0,0,0,0,0,0,0,0,0,0,0,0,0,0,0,0,0,0,0,0,0,0,0,0,0,0,0],"sum_hessian":[1.9131E4,9.645E3,9.486E3,2.765E3,6.88E3,5.673E3,3.813E3,1.42E3,1.345E3,3.067E3,3.813E3,2.831E3,2.842E3,3.138E3,6.75E2,8.21E2,5.99E2,4.49E2,8.96E2,1.647E3,1.42E3,1.942E3,1.871E3,1.56E3,1.271E3,1.345E3,1.497E3,1.868E3,1.27E3,4.5E2,2.25E2,3E2,5.21E2,4.49E2,1.5E2,3.75E2,7.4E1,8.22E2,7.4E1,1.346E3,3.01E2,1.271E3,1.49E2,1.868E3,7.4E1,9.73E2,8.98E2,3.65E2,1.195E3,7.6E1,1.195E3,1.27E3,7.5E1,6.73E2,8.24E2,8.95E2,9.73E2,4.5E2,8.2E2,7.6E1,3.74E2,1.48E2,7.7E1,2.24E2,7.6E1,3.75E2,7.4E1,7.5E1,7.5E1,3E2,7.5E1,7.46E2,7.6E1,1.199E3,1.47E2,1.196E3,7.5E1,7.5E1,7.4E1,1.793E3,7.5E1,9E2,7.3E1,7.4E1,8.24E2,2.91E2,7.4E1,1.47E2,1.048E3,1.49E2,1.046E3,1.047E3,2.23E2,5.23E2,1.5E2,4.47E2,3.77E2,8.22E2,7.3E1,6.74E2,2.99E2,2.25E2,2.25E2,7.4E1,7.46E2,2.99E2,7.5E1],"tree_param":{"num_deleted":"0","num_feature":"1","num_nodes":"107","size_leaf_vector":"1"}},{"base_weights":[-1.3391605E-6,-1.4022124E-1,1.1242283E-1,-2.506322E-1,-9.508389E-2,5.8564533E-2,2.0275584E-1,-3.1461853E-1,-2.1388006E-1,-1.2516145E-1,-5.732252E-2,1.8733166E-2,9.5818445E-2,1.7669964E-1,3.017447E-1,-1.0933139E-1,-3.0423513E-1,-2.4643733E-1,-1.937463E-1,-1.4799026E-1,-1.112803E-1,-5.3757634E-2,-5.934216E-2,-5.6172274E-3,3.1956315E-2,7.4090615E-2,1.0974575E-1,1.5351519E-1,2.0213862E-1,2.7121654E-1,4.351278E-1,-7.20055E-2,-3.1101477E-1,-5.6465477E-2,-2.541888E-1,-1.8277717E-1,-9.4794266E-2,-1.4227834E-1,-5.6991167E-2,-6.457974E-2,-1.1907545E-1,-6.0230806E-2,1.2732835E-2,8.941092E-2,-2.1449473E-2,2.3554798E-2,4.3035425E-2,5.4325856E-2,6.772367E-2,1.13202736E-1,1.9064829E-2,1.5622616E-1,2.837226E-2,1.1569748E-1,1.9231024E-1,2.5829712E-1,9.4387926E-2,1.1817002E-1,1.407574E-1,-1.16149455E-1,-9.021199E-2,-8.1819125E-2,-7.1797185E-2,-5.696566E-2,-3.1018836E-2,-4.539254E-2,-2.4706488E-2,-3.3269167E-2,2.3125943E-2,-5.1484685E-2,-3.1537913E-2,-1.7005088E-2,-5.4078646E-2,1.8511236E-2,-2.677303E-2,1.08406395E-2,4.389637E-2,-6.650327E-2,-1.483231E-3,1.195418E-2,-7.312675E-3,4.2106777E-2,1.0237544E-2,7.869791E-3,2.2970086E-2,3.2052726E-2,4.8413187E-2,4.574198E-2,6.816249E-2,1.6989774E-5,6.0771402E-2,8.3753966E-2,6.1268725E-2],"categories":[],"categories_nodes":[],"categories_segments":[],"categories_sizes":[],"default_left":[0,0,0,0,0,0,0,0,0,0,0,0,0,0,0,0,0,0,0,0,0,0,0,0,0,0,0,0,0,0,0,0,0,0,0,0,0,0,0,0,0,0,0,0,0,0,0,0,0,0,0,0,0,0,0,0,0,0,0,0,0,0,0,0,0,0,0,0,0,0,0,0,0,0,0,0,0,0,0,0,0,0,0,0,0,0,0,0,0,0,0,0,0],"id":6,"left_children":[1,3,5,7,9,11,13,15,17,19,21,23,25,27,29,-1,31,33,35,37,39,41,-1,43,45,47,49,51,53,55,57,-1,59,-1,61,63,-1,65,-1,67,69,71,73,75,77,79,81,-1,83,85,-1,87,-1,-1,89,91,-1,-1,-1,-1,-1,-1,-1,-1,-1,-1,-1,-1,-1,-1,-1,-1,-1,-1,-1,-1,-1,-1,-1,-1,-1,-1,-1,-1,-1,-1,-1,-1,-1,-1,-1,-1,-1],"loss_changes":[3.0161462E2,4.240703E1,5.1651474E1,5.7412567E0,6.858555E0,9.871904E0,1.0176086E1,3.5417175E-1,9.8269653E-1,1.0495529E0,1.3325443E0,1.0360178E0,1.0322456E0,1.8220901E0,3.241333E0,0E0,2.518692E-1,2.2157288E-1,1.2508698E0,2.7725792E-1,7.5533485E-1,1.1271358E0,0E0,1.7065266E0,1.9306087E-1,9.046788E-1,3.2705688E-1,2.4855042E-1,2.622364E0,2.9673386E-1,2.8650284E-2,0E0,4.1342926E-1,0E0,7.915497E-2,4.8708153E-1,0E0,5.9413147E-1,0E0,1.9901587E0,1.2974892E0,1.005249E0,1.1690873E0,4.8588407E-1,3.2112072E0,9.2868555E-1,7.739136E-1,0E0,4.6470976E-1,5.7902336E-1,0E0,3.84655E-1,0E0,0E0,2.8032417E0,5.3575516E-1,0E0,0E0,0E0,0E0,0E0,0E0,0E0,0E0,0E0,0E0,0E0,0E0,0E0,0E0,0E0,0E0,0E0,0E0,0E0,0E0,0E0,0E0,0E0,0E0,0E0,0E0,0E0,0E0,0E0,0E0,0E0,0E0,0E0,0E0,0E0,0E0,0E0],"parents":[2147483647,0,0,1,1,2,2,3,3,4,4,5,5,6,6,7,7,8,8,9,9,10,10,11,11,12,12,13,13,14,14,16,16,17,17,18,18,19,19,20,20,21,21,23,23,24,24,25,25,26,26,27,27,28,28,29,29,30,30,32,32,34,34,35,35,37,37,39,39,40,40,41,41,42,42,43,43,44,44,45,45,46,46,48,48,49,49,51,51,54,54,55,55],"right_children":[2,4,6,8,10,12,14,16,18,20,22,24,26,28,30,-1,32,34,36,38,40,42,-1,44,46,48,50,52,54,56,58,-1,60,-1,62,64,-1,66,-1,68,70,72,74,76,78,80,82,-1,84,86,-1,88,-1,-1,90,92,-1,-1,-1,-1,-1,-1,-1,-1,-1,-1,-1,-1,-1,-1,-1,-1,-1,-1,-1,-1,-1,-1,-1,-1,-1,-1,-1,-1,-1,-1,-1,-1,-1,-1,-1,-1,-1],"split_conditions":[6.0726624E0,4.884327E0,7.4067383E0,4.3198442E0,5.5295286E0,6.7559624E0,8.294095E0,3.671245E0,4.554587E0,5.2669754E0,6.058856E0,6.3198767E0,7.007393E0,7.776885E0,9.34837E0,-1.0933139E-1,3.816887E0,4.3527446E0,4.8592234E0,5.231195E0,5.334567E0,6.000251E0,-5.934216E-2,6.104991E0,6.564212E0,6.77036E0,7.3786983E0,7.7620606E0,7.793664E0,8.803467E0,9.825134E0,-7.20055E-2,3.903788E0,-5.6465477E-2,4.4370127E0,4.837637E0,-9.4794266E-2,5.189156E0,-5.6991167E-2,5.317933E0,5.3582444E0,5.9840784E0,6.040202E0,6.0898747E0,6.120547E0,6.50256E0,6.5806947E0,5.4325856E-2,6.809208E0,7.336871E0,1.9064829E-2,7.745851E0,2.837226E-2,1.1569748E-1,7.80702E0,8.575985E0,9.4387926E-2,1.1817002E-1,1.407574E-1,-1.16149455E-1,-9.021199E-2,-8.1819125E-2,-7.1797185E-2,-5.696566E-2,-3.1018836E-2,-4.539254E-2,-2.4706488E-2,-3.3269167E-2,2.3125943E-2,-5.1484685E-2,-3.1537913E-2,-1.7005088E-2,-5.4078646E-2,1.8511236E-2,-2.677303E-2,1.08406395E-2,4.389637E-2,-6.650327E-2,-1.483231E-3,1.195418E-2,-7.312675E-3,4.2106777E-2,1.0237544E-2,7.869791E-3,2.2970086E-2,3.2052726E-2,4.8413187E-2,4.574198E-2,6.816249E-2,1.6989774E-5,6.0771402E-2,8.3753966E-2,6.1268725E-2],"split_indices":[0,0,0,0,0,0,0,0,0,0,0,0,0,0,0,0,0,0,0,0,0,0,0,0,0,0,0,0,0,0,0,0,0,0,0,0,0,0,0,0,0,0,0,0,0,0,0,0,0,0,0,0,0,0,0,0,0,0,0,0,0,0,0,0,0,0,0,0,0,0,0,0,0,0,0,0,0,0,0,0,0,0,0,0,0,0,0,0,0,0,0,0,0],"split_type":[0,0,0,0,0,0,0,0,0,0,0,0,0,0,0,0,0,0,0,0,0,0,0,0,0,0,0,0,0,0,0,0,0,0,0,0,0,0,0,0,0,0,0,0,0,0,0,0,0,0,0,0,0,0,0,0,0,0,0,0,0,0,0,0,0,0,0,0,0,0,0,0,0,0,0,0,0,0,0,0,0,0,0,0,0,0,0,0,0,0,0,0,0],"sum_hessian":[1.9131E4,8.513E3,1.0618E4,2.469E3,6.044E3,6.653E3,3.965E3,8.98E2,1.571E3,3.363E3,2.681E3,3.216E3,3.437E3,3.141E3,8.24E2,1.49E2,7.49E2,5.96E2,9.75E2,1.268E3,2.095E3,2.616E3,6.5E1,1.132E3,2.084E3,1.345E3,2.092E3,1.647E3,1.494E3,6.73E2,1.51E2,7.5E1,6.74E2,7.3E1,5.23E2,8.97E2,7.8E1,1.12E3,1.48E2,3.01E2,1.794E3,2.384E3,2.32E2,1.61E2,9.71E2,1.187E3,8.97E2,7.4E1,1.271E3,1.945E3,1.47E2,1.573E3,7.4E1,7.4E1,1.42E3,5.24E2,1.49E2,7.4E1,7.7E1,7.6E1,5.98E2,2.25E2,2.98E2,8.22E2,7.5E1,9.72E2,1.48E2,2.27E2,7.4E1,3.74E2,1.42E3,2.317E3,6.7E1,1.57E2,7.5E1,8.4E1,7.7E1,7.3E1,8.98E2,8.86E2,3.01E2,7.4E1,8.23E2,2.24E2,1.047E3,1.721E3,2.24E2,1.497E3,7.6E1,7.2E1,1.348E3,3.75E2,1.49E2],"tree_param":{"num_deleted":"0","num_feature":"1","num_nodes":"93","size_leaf_vector":"1"}},{"base_weights":[-5.8411742E-6,-9.828873E-2,7.879447E-2,-1.757585E-1,-6.661815E-2,4.587167E-2,1.5208903E-1,-2.2066428E-1,-1.4996584E-1,-8.310069E-2,-3.1539135E-2,1.3126814E-2,7.147204E-2,1.4216088E-1,2.8610516E-1,-2.3266861E-1,-1.9604217E-1,-1.7592739E-1,-1.368917E-1,-9.79166E-2,-6.97834E-2,3.0903565E-2,-3.6947623E-2,9.74783E-4,2.8504437E-2,7.36629E-2,-1.23998765E-2,1.0294091E-1,1.3700666E-1,7.832453E-2,9.907149E-2,-2.2248796E-1,-9.02493E-2,-1.7109093E-1,-2.1937536E-1,-4.2704087E-2,-1.8880087E-1,-1.2303514E-1,-1.863086E-1,-1.1563028E-1,-8.999896E-2,-1.28860045E-2,-7.88035E-2,-9.42247E-2,-2.595992E-2,6.2925726E-2,-5.1565715E-3,1.0862301E-1,1.8459117E-2,5.7801254E-2,9.071116E-2,1.17250346E-1,1.7779845E-1,-7.060579E-2,-4.3016415E-2,-6.168747E-2,-4.0144593E-2,-7.365651E-2,-5.7426646E-2,-6.322699E-2,-5.1968105E-2,-4.366647E-2,-1.876072E-2,-7.75125E-2,-4.5000464E-2,-3.1355303E-2,-5.6795724E-2,2.8957527E-2,-3.036581E-2,-1.808214E-2,3.941179E-2,-4.8890494E-2,-2.012706E-2,-1.6262481E-2,-6.4549126E-2,1.520322E-2,-1.0241151E-2,7.626775E-3,3.089634E-2,-4.6821967E-2,5.961847E-4,2.9121796E-2,3.5292815E-2,-5.07357E-3,8.719796E-3,1.8466027E-2,-1.277676E-2,2.5236467E-2,3.8084432E-2,1.753454E-2,3.8209222E-2,6.502405E-2,4.8017006E-2],"categories":[],"categories_nodes":[],"categories_segments":[],"categories_sizes":[],"default_left":[0,0,0,0,0,0,0,0,0,0,0,0,0,0,0,0,0,0,0,0,0,0,0,0,0,0,0,0,0,0,0,0,0,0,0,0,0,0,0,0,0,0,0,0,0,0,0,0,0,0,0,0,0,0,0,0,0,0,0,0,0,0,0,0,0,0,0,0,0,0,0,0,0,0,0,0,0,0,0,0,0,0,0,0,0,0,0,0,0,0,0,0,0],"id":7,"left_children":[1,3,5,7,9,11,13,15,17,19,21,23,25,27,29,31,33,35,37,39,41,-1,43,45,47,49,-1,-1,51,-1,-1,53,-1,55,57,-1,59,61,63,65,67,69,71,73,75,77,79,81,83,85,87,89,91,-1,-1,-1,-1,-1,-1,-1,-1,-1,-1,-1,-1,-1,-1,-1,-1,-1,-1,-1,-1,-1,-1,-1,-1,-1,-1,-1,-1,-1,-1,-1,-1,-1,-1,-1,-1,-1,-1,-1,-1],"loss_changes":[1.4817978E2,2.0877495E1,2.5617332E1,2.8277588E0,3.492546E0,6.1428194E0,4.338112E0,2.2010422E-1,5.094948E-1,8.0449677E-1,1.4112115E0,6.01131E-1,1.0195312E0,3.1289787E0,1.6336632E-1,3.4873962E-1,1.377058E-1,1.9921684E-1,6.96064E-1,2.6224136E-1,1.1121588E0,0E0,1.168133E0,6.8328255E-1,1.1408348E0,1.0858746E0,0E0,0E0,2.3895836E0,0E0,0E0,5.004921E-1,0E0,1.6557503E-1,6.409454E-2,0E0,9.171677E-2,1.1121788E0,5.5780935E-1,4.6908188E-1,2.830966E0,2.0450757E0,1.8345737E0,1.4353616E0,9.80608E-1,2.4077928E-1,1.7652031E0,5.0406456E-3,4.7433853E-1,7.910161E-1,4.5328426E-1,1.1926708E0,6.3835526E-1,0E0,0E0,0E0,0E0,0E0,0E0,0E0,0E0,0E0,0E0,0E0,0E0,0E0,0E0,0E0,0E0,0E0,0E0,0E0,0E0,0E0,0E0,0E0,0E0,0E0,0E0,0E0,0E0,0E0,0E0,0E0,0E0,0E0,0E0,0E0,0E0,0E0,0E0,0E0,0E0],"parents":[2147483647,0,0,1,1,2,2,3,3,4,4,5,5,6,6,7,7,8,8,9,9,10,10,11,11,12,12,13,13,14,14,15,15,16,16,17,17,18,18,19,19,20,20,22,22,23,23,24,24,25,25,28,28,31,31,33,33,34,34,36,36,37,37,38,38,39,39,40,40,41,41,42,42,43,43,44,44,45,45,46,46,47,47,48,48,49,49,50,50,51,51,52,52],"right_children":[2,4,6,8,10,12,14,16,18,20,22,24,26,28,30,32,34,36,38,40,42,-1,44,46,48,50,-1,-1,52,-1,-1,54,-1,56,58,-1,60,62,64,66,68,70,72,74,76,78,80,82,84,86,88,90,92,-1,-1,-1,-1,-1,-1,-1,-1,-1,-1,-1,-1,-1,-1,-1,-1,-1,-1,-1,-1,-1,-1,-1,-1,-1,-1,-1,-1,-1,-1,-1,-1,-1,-1,-1,-1,-1,-1,-1,-1],"split_conditions":[6.0726624E0,4.884327E0,7.548217E0,4.3198442E0,5.6612244E0,6.7559624E0,9.001547E0,4.150543E0,4.5283E0,5.3582444E0,5.674205E0,6.4515986E0,7.5335484E0,7.567007E0,9.825134E0,4.1082487E0,4.233922E0,4.3802524E0,4.8184233E0,5.086412E0,5.38244E0,3.0903565E-2,5.737123E0,6.104991E0,6.487588E0,7.1484175E0,-1.23998765E-2,1.0294091E-1,8.119214E0,7.832453E-2,9.907149E-2,4.0487504E0,-9.02493E-2,4.19294E0,4.2851315E0,-4.2704087E-2,4.4370127E0,4.7437534E0,4.837637E0,5.062043E0,5.1076636E0,5.375633E0,5.4068756E0,5.722289E0,5.764737E0,6.0898747E0,6.120547E0,6.467809E0,6.5486374E0,7.1336894E0,7.4702425E0,7.6339626E0,8.248764E0,-7.060579E-2,-4.3016415E-2,-6.168747E-2,-4.0144593E-2,-7.365651E-2,-5.7426646E-2,-6.322699E-2,-5.1968105E-2,-4.366647E-2,-1.876072E-2,-7.75125E-2,-4.5000464E-2,-3.1355303E-2,-5.6795724E-2,2.8957527E-2,-3.036581E-2,-1.808214E-2,3.941179E-2,-4.8890494E-2,-2.012706E-2,-1.6262481E-2,-6.4549126E-2,1.520322E-2,-1.0241151E-2,7.626775E-3,3.089634E-2,-4.6821967E-2,5.961847E-4,2.9121796E-2,3.5292815E-2,-5.07357E-3,8.719796E-3,1.8466027E-2,-1.277676E-2,2.5236467E-2,3.8084432E-2,1.753454E-2,3.8209222E-2,6.502405E-2,4.8017006E-2],"split_indices":[0,0,0,0,0,0,0,0,0,0,0,0,0,0,0,0,0,0,0,0,0,0,0,0,0,0,0,0,0,0,0,0,0,0,0,0,0,0,0,0,0,0,0,0,0,0,0,0,0,0,0,0,0,0,0,0,0,0,0,0,0,0,0,0,0,0,0,0,0,0,0,0,0,0,0,0,0,0,0,0,0,0,0,0,0,0,0,0,0,0,0,0,0],"split_type":[0,0,0,0,0,0,0,0,0,0,0,0,0,0,0,0,0,0,0,0,0,0,0,0,0,0,0,0,0,0,0,0,0,0,0,0,0,0,0,0,0,0,0,0,0,0,0,0,0,0,0,0,0,0,0,0,0,0,0,0,0,0,0,0,0,0,0,0,0,0,0,0,0,0,0,0,0,0,0,0,0,0,0,0,0,0,0,0,0,0,0,0,0],"sum_hessian":[1.9131E4,8.513E3,1.0618E4,2.469E3,6.044E3,7.328E3,3.29E3,8.98E2,1.571E3,4.111E3,1.933E3,3.216E3,4.112E3,3.065E3,2.25E2,5.98E2,3E2,5.22E2,1.049E3,1.943E3,2.168E3,7.4E1,1.859E3,1.797E3,1.419E3,4.034E3,7.8E1,7.5E1,2.99E3,1.48E2,7.7E1,5.24E2,7.4E1,1.49E2,1.51E2,1.48E2,3.74E2,8.22E2,2.27E2,5.96E2,1.347E3,2.97E2,1.871E3,2.98E2,1.561E3,1.61E2,1.636E3,1.57E2,1.262E3,2.092E3,1.942E3,2.017E3,9.73E2,4.49E2,7.5E1,7.5E1,7.4E1,7.4E1,7.7E1,1.5E2,2.24E2,5.98E2,2.24E2,7.4E1,1.53E2,5.2E2,7.6E1,7.6E1,1.271E3,2.24E2,7.3E1,2.27E2,1.644E3,2.25E2,7.3E1,1.5E2,1.411E3,8.4E1,7.7E1,7.3E1,1.563E3,7.4E1,8.3E1,2.91E2,9.71E2,2.017E3,7.5E1,1.646E3,2.96E2,2.97E2,1.72E3,3.01E2,6.72E2],"tree_param":{"num_deleted":"0","num_feature":"1","num_nodes":"93","size_leaf_vector":"1"}},{"base_weights":[-2.4763873E-5,-6.1304945E-2,6.2282465E-2,-1.17679074E-1,-3.6849454E-2,3.873766E-2,1.0659874E-1,-1.4346638E-1,-9.3138725E-2,-5.326443E-2,-1.2243776E-2,2.0149425E-2,5.6816455E-2,9.2016034E-2,1.6287355E-1,-1.6136909E-1,-1.2714301E-1,-8.836893E-2,-5.3308584E-2,-5.1416907E-2,-4.5446116E-2,-8.559167E-3,-6.978001E-2,2.4101878E-2,-4.0559236E-2,5.9013583E-2,-8.727062E-3,7.246494E-2,8.7507345E-2,1.4661047E-1,6.539216E-2,-5.5710133E-2,-1.5410991E-1,-1.20459236E-1,-1.5277052E-1,-9.392589E-2,3.7614787E-3,-5.3289916E-2,1.3523683E-2,-1.2823517E-2,6.387451E-2,-3.8181484E-2,-1.8702847E-3,1.9380232E-2,1.1249656E-1,1.101788E-1,5.635957E-2,4.097257E-2,9.36481E-2,1.7130725E-1,1.2737039E-1,-2.9785056E-2,-4.8908103E-2,-3.8798332E-2,-1.7067501E-2,-5.2412946E-2,-3.864633E-2,-2.6895834E-2,-4.9543668E-2,2.3528337E-3,-1.6333627E-2,-2.8861174E-3,-3.0893905E-2,2.6786769E-2,1.1693221E-2,6.751199E-3,-5.0741322E-3,4.1382838E-2,2.5875088E-2,1.6713677E-2,4.874369E-2,1.5447472E-3,1.8186606E-2,2.1042492E-2,-1.4481251E-2,2.9578423E-2,1.4512694E-2,5.8899533E-2,4.722358E-2,2.8701685E-2,4.7465812E-2],"categories":[],"categories_nodes":[],"categories_segments":[],"categories_sizes":[],"default_left":[0,0,0,0,0,0,0,0,0,0,0,0,0,0,0,0,0,0,0,0,0,0,0,0,0,0,0,0,0,0,0,0,0,0,0,0,0,0,0,0,0,0,0,0,0,0,0,0,0,0,0,0,0,0,0,0,0,0,0,0,0,0,0,0,0,0,0,0,0,0,0,0,0,0,0,0,0,0,0,0,0],"id":8,"left_children":[1,3,5,7,9,11,13,15,17,19,21,23,25,27,29,31,33,35,-1,37,-1,39,41,43,-1,45,-1,-1,47,49,-1,-1,51,53,55,57,-1,59,-1,61,63,-1,-1,65,67,69,71,73,75,77,79,-1,-1,-1,-1,-1,-1,-1,-1,-1,-1,-1,-1,-1,-1,-1,-1,-1,-1,-1,-1,-1,-1,-1,-1,-1,-1,-1,-1,-1,-1],"loss_changes":[7.305359E1,1.3294193E1,9.894779E0,1.8332329E0,2.7172012E0,2.0813751E0,2.6857338E0,3.9474678E-1,5.884657E-1,7.246189E-1,5.705265E-1,1.88026E0,5.94574E-1,1.7425728E0,5.7380867E-1,9.0429306E-2,1.09721184E-1,7.974243E-1,0E0,7.186661E-1,0E0,7.832186E-1,5.9104854E-1,1.2424123E0,0E0,4.097252E-1,0E0,0E0,7.222767E-1,2.2764301E-1,0E0,0E0,2.4048138E-1,3.2976437E-1,5.6833982E-2,3.9482307E-1,0E0,2.750721E-1,0E0,6.900636E-1,8.5737884E-2,0E0,0E0,3.2145536E-1,8.8950634E-2,4.1823912E-1,6.3576126E-1,7.7912354E-1,4.977665E-1,4.802847E-2,2.7724123E-1,0E0,0E0,0E0,0E0,0E0,0E0,0E0,0E0,0E0,0E0,0E0,0E0,0E0,0E0,0E0,0E0,0E0,0E0,0E0,0E0,0E0,0E0,0E0,0E0,0E0,0E0,0E0,0E0,0E0,0E0],"parents":[2147483647,0,0,1,1,2,2,3,3,4,4,5,5,6,6,7,7,8,8,9,9,10,10,11,11,12,12,13,13,14,14,15,15,16,16,17,17,19,19,21,21,22,22,23,23,25,25,28,28,29,29,32,32,33,33,34,34,35,35,37,37,39,39,40,40,43,43,44,44,45,45,46,46,47,47,48,48,49,49,50,50],"right_children":[2,4,6,8,10,12,14,16,18,20,22,24,26,28,30,32,34,36,-1,38,-1,40,42,44,-1,46,-1,-1,48,50,-1,-1,52,54,56,58,-1,60,-1,62,64,-1,-1,66,68,70,72,74,76,78,80,-1,-1,-1,-1,-1,-1,-1,-1,-1,-1,-1,-1,-1,-1,-1,-1,-1,-1,-1,-1,-1,-1,-1,-1,-1,-1,-1,-1,-1,-1],"split_conditions":[6.3198767E0,5.037495E0,7.548217E0,4.5283E0,5.737123E0,6.9359703E0,8.392666E0,4.19294E0,5.010396E0,5.722289E0,6.286142E0,6.9188867E0,7.5335484E0,7.567007E0,9.34837E0,3.671245E0,4.4670763E0,4.9898577E0,-5.3308584E-2,5.706563E0,-4.5446116E-2,6.250741E0,6.3056135E0,6.8901887E0,-4.0559236E-2,6.966405E0,-8.727062E-3,7.246494E-2,7.6339626E0,8.575985E0,6.539216E-2,-5.5710133E-2,3.816887E0,4.4370127E0,4.4951053E0,4.9628515E0,3.7614787E-3,5.062043E0,1.3523683E-2,6.233444E0,6.2681346E0,-3.8181484E-2,-1.8702847E-3,6.8519535E0,6.9055734E0,6.9479237E0,7.007393E0,7.6164846E0,8.248764E0,8.441284E0,8.803467E0,-2.9785056E-2,-4.8908103E-2,-3.8798332E-2,-1.7067501E-2,-5.2412946E-2,-3.864633E-2,-2.6895834E-2,-4.9543668E-2,2.3528337E-3,-1.6333627E-2,-2.8861174E-3,-3.0893905E-2,2.6786769E-2,1.1693221E-2,6.751199E-3,-5.0741322E-3,4.1382838E-2,2.5875088E-2,1.6713677E-2,4.874369E-2,1.5447472E-3,1.8186606E-2,2.1042492E-2,-1.4481251E-2,2.9578423E-2,1.4512694E-2,5.8899533E-2,4.722358E-2,2.8701685E-2,4.7465812E-2],"split_indices":[0,0,0,0,0,0,0,0,0,0,0,0,0,0,0,0,0,0,0,0,0,0,0,0,0,0,0,0,0,0,0,0,0,0,0,0,0,0,0,0,0,0,0,0,0,0,0,0,0,0,0,0,0,0,0,0,0,0,0,0,0,0,0,0,0,0,0,0,0,0,0,0,0,0,0,0,0,0,0,0,0],"split_type":[0,0,0,0,0,0,0,0,0,0,0,0,0,0,0,0,0,0,0,0,0,0,0,0,0,0,0,0,0,0,0,0,0,0,0,0,0,0,0,0,0,0,0,0,0,0,0,0,0,0,0,0,0,0,0,0,0,0,0,0,0,0,0,0,0,0,0,0,0,0,0,0,0,0,0,0,0,0,0,0,0],"sum_hessian":[1.9131E4,9.645E3,9.486E3,2.917E3,6.728E3,6.196E3,3.29E3,1.42E3,1.497E3,4.035E3,2.693E3,3.056E3,3.14E3,2.615E3,6.75E2,6.73E2,7.47E2,1.419E3,7.8E1,3.962E3,7.3E1,2.532E3,1.61E2,2.981E3,7.5E1,3.062E3,7.8E1,7.5E1,2.54E3,5.24E2,1.51E2,1.49E2,5.24E2,5.97E2,1.5E2,1.345E3,7.4E1,3.887E3,7.5E1,2.392E3,1.4E2,8.4E1,7.7E1,2.831E3,1.5E2,1.49E2,2.913E3,2.97E2,2.243E3,2.26E2,2.98E2,7.5E1,4.49E2,5.23E2,7.4E1,7.5E1,7.5E1,1.271E3,7.4E1,7.2E1,3.815E3,2.311E3,8.1E1,6.8E1,7.2E1,2.607E3,2.24E2,7.4E1,7.6E1,7.4E1,7.5E1,2.24E2,2.689E3,2.24E2,7.3E1,2.021E3,2.22E2,7.6E1,1.5E2,1.49E2,1.49E2],"tree_param":{"num_deleted":"0","num_feature":"1","num_nodes":"81","size_leaf_vector":"1"}},{"base_weights":[-1.7967386E-5,-4.8764553E-2,3.9065607E-2,-9.569841E-2,-3.5549343E-2,2.0106867E-2,7.0863985E-2,-1.150844E-1,-8.649407E-2,-5.203886E-2,-2.4306793E-2,2.8207751E-3,3.02978E-2,6.022238E-2,1.1130649E-1,-1.0794452E-1,-4.9058747E-2,-8.3185166E-2,-4.1458555E-2,-2.6409099E-2,-5.5216838E-2,6.0154837E-2,-2.7607836E-2,5.8252257E-3,-2.7556963E-2,2.1459585E-2,3.6453627E-2,6.391707E-2,-2.8146334E-2,1.0173605E-1,1.5301156E-1,-1.1703936E-1,-1.5801946E-2,-8.773022E-2,-4.4794274E-3,-6.0149822E-2,7.507685E-3,-9.4790556E-2,-4.9461436E-2,3.6561408E-3,3.2581817E-2,-9.80302E-2,-2.3112614E-2,3.3101896E-3,2.5063805E-2,2.6831716E-2,-2.855155E-2,7.756155E-2,3.3776615E-2,5.9240658E-2,7.3457874E-2,1.1126433E-1,8.941373E-2,1.4980067E-1,9.567834E-2,-3.302462E-2,-4.4948433E-2,-2.4361983E-2,-5.2588522E-2,-5.251362E-3,-3.0432763E-2,1.0598802E-2,-6.014004E-3,-2.2347908E-2,-4.5420025E-2,-1.3205557E-2,-1.9702505E-2,-4.0757507E-2,-2.3352189E-2,8.509241E-3,-8.344572E-3,9.740586E-3,-1.1579692E-3,6.458595E-3,2.375791E-2,1.1766445E-2,3.4312982E-2,1.0833213E-3,1.1100993E-2,1.5947152E-2,2.0801354E-2,2.9017285E-2,3.6114648E-2,1.4127163E-2,3.093722E-2,4.0651593E-2,4.8533782E-2],"categories":[],"categories_nodes":[],"categories_segments":[],"categories_sizes":[],"default_left":[0,0,0,0,0,0,0,0,0,0,0,0,0,0,0,0,0,0,0,0,0,0,0,0,0,0,0,0,0,0,0,0,0,0,0,0,0,0,0,0,0,0,0,0,0,0,0,0,0,0,0,0,0,0,0,0,0,0,0,0,0,0,0,0,0,0,0,0,0,0,0,0,0,0,0,0,0,0,0,0,0,0,0,0,0,0,0],"id":9,"left_children":[1,3,5,7,9,11,13,15,17,19,21,23,25,27,29,31,-1,33,-1,35,37,39,41,43,-1,45,47,49,-1,51,53,55,-1,57,-1,59,61,63,65,-1,-1,67,69,71,-1,73,-1,75,77,79,-1,81,83,85,-1,-1,-1,-1,-1,-1,-1,-1,-1,-1,-1,-1,-1,-1,-1,-1,-1,-1,-1,-1,-1,-1,-1,-1,-1,-1,-1,-1,-1,-1,-1,-1,-1],"loss_changes":[3.645201E1,5.2773266E0,6.400316E0,3.2372093E-1,1.2306128E0,1.1720927E0,1.7001572E0,1.8953562E-1,2.0611E-1,2.1788883E-1,1.1038027E0,7.0285034E-1,2.2696352E-1,1.7942419E0,3.1371975E-1,2.577443E-1,0E0,3.703308E-1,0E0,3.4262025E-1,5.4080343E-1,3.449663E-1,1.2022612E0,4.6768007E-1,0E0,1.080862E0,2.687552E-1,2.5823622E0,0E0,6.918621E-2,3.320098E-2,8.616114E-2,0E0,6.272669E-1,0E0,2.6236522E-1,1.1569944E-1,3.3687878E-1,1.818142E-1,0E0,0E0,1.635561E-1,8.669368E-1,4.851642E-1,0E0,4.553492E-1,0E0,2.0723766E-1,2.2539139E-1,1.8016338E-1,0E0,3.8203716E-2,1.6864324E-1,3.9350986E-3,0E0,0E0,0E0,0E0,0E0,0E0,0E0,0E0,0E0,0E0,0E0,0E0,0E0,0E0,0E0,0E0,0E0,0E0,0E0,0E0,0E0,0E0,0E0,0E0,0E0,0E0,0E0,0E0,0E0,0E0,0E0,0E0,0E0],"parents":[2147483647,0,0,1,1,2,2,3,3,4,4,5,5,6,6,7,7,8,8,9,9,10,10,11,11,12,12,13,13,14,14,15,15,17,17,19,19,20,20,21,21,22,22,23,23,25,25,26,26,27,27,29,29,30,30,31,31,33,33,35,35,36,36,37,37,38,38,41,41,42,42,43,43,45,45,47,47,48,48,49,49,51,51,52,52,53,53],"right_children":[2,4,6,8,10,12,14,16,18,20,22,24,26,28,30,32,-1,34,-1,36,38,40,42,44,-1,46,48,50,-1,52,54,56,-1,58,-1,60,62,64,66,-1,-1,68,70,72,-1,74,-1,76,78,80,-1,82,84,86,-1,-1,-1,-1,-1,-1,-1,-1,-1,-1,-1,-1,-1,-1,-1,-1,-1,-1,-1,-1,-1,-1,-1,-1,-1,-1,-1,-1,-1,-1,-1,-1,-1],"split_conditions":[6.0726624E0,4.686742E0,7.4067383E0,4.150543E0,5.369115E0,6.594356E0,8.294095E0,4.1082487E0,4.661184E0,4.7877393E0,5.38244E0,6.5806947E0,6.9359703E0,8.248764E0,9.34837E0,4.0487504E0,-4.9058747E-2,4.637087E0,-4.1458555E-2,4.7437534E0,4.884327E0,5.375633E0,5.4068756E0,6.564212E0,-2.7556963E-2,6.9188867E0,6.966405E0,8.211064E0,-2.8146334E-2,8.575985E0,1.1498201E1,3.990305E0,-1.5801946E-2,4.6090474E0,-4.4794274E-3,4.713845E0,4.7665405E0,4.8592234E0,5.334567E0,3.6561408E-3,3.2581817E-2,5.3897486E0,5.445224E0,6.169617E0,2.5063805E-2,6.8901887E0,-2.855155E-2,6.9479237E0,7.007393E0,7.8296623E0,7.3457874E-2,8.392666E0,8.676638E0,9.825134E0,9.567834E-2,-3.302462E-2,-4.4948433E-2,-2.4361983E-2,-5.2588522E-2,-5.251362E-3,-3.0432763E-2,1.0598802E-2,-6.014004E-3,-2.2347908E-2,-4.5420025E-2,-1.3205557E-2,-1.9702505E-2,-4.0757507E-2,-2.3352189E-2,8.509241E-3,-8.344572E-3,9.740586E-3,-1.1579692E-3,6.458595E-3,2.375791E-2,1.1766445E-2,3.4312982E-2,1.0833213E-3,1.1100993E-2,1.5947152E-2,2.0801354E-2,2.9017285E-2,3.6114648E-2,1.4127163E-2,3.093722E-2,4.0651593E-2,4.8533782E-2],"split_indices":[0,0,0,0,0,0,0,0,0,0,0,0,0,0,0,0,0,0,0,0,0,0,0,0,0,0,0,0,0,0,0,0,0,0,0,0,0,0,0,0,0,0,0,0,0,0,0,0,0,0,0,0,0,0,0,0,0,0,0,0,0,0,0,0,0,0,0,0,0,0,0,0,0,0,0,0,0,0,0,0,0,0,0,0,0,0,0],"split_type":[0,0,0,0,0,0,0,0,0,0,0,0,0,0,0,0,0,0,0,0,0,0,0,0,0,0,0,0,0,0,0,0,0,0,0,0,0,0,0,0,0,0,0,0,0,0,0,0,0,0,0,0,0,0,0,0,0,0,0,0,0,0,0,0,0,0,0,0,0,0,0,0,0,0,0,0,0,0,0,0,0,0,0,0,0,0,0],"sum_hessian":[1.9131E4,8.513E3,1.0618E4,1.869E3,6.644E3,6.653E3,3.965E3,5.98E2,1.271E3,2.692E3,3.952E3,2.468E3,4.185E3,3.141E3,8.24E2,5.24E2,7.4E1,1.197E3,7.4E1,2.98E2,2.394E3,1.48E2,3.804E3,2.393E3,7.5E1,1.72E3,2.465E3,3.068E3,7.3E1,6.73E2,1.51E2,4.49E2,7.5E1,1.122E3,7.5E1,1.49E2,1.49E2,3.02E2,2.092E3,7.5E1,7.3E1,2.27E2,3.577E3,2.319E3,7.4E1,1.645E3,7.5E1,1.49E2,2.316E3,2.992E3,7.6E1,3.75E2,2.98E2,1.5E2,1E0,3.74E2,7.5E1,1.046E3,7.6E1,7.4E1,7.5E1,7.4E1,7.5E1,2.24E2,7.8E1,1.569E3,5.23E2,7.7E1,1.5E2,2.99E2,3.278E3,4.57E2,1.862E3,1.495E3,1.5E2,7.4E1,7.5E1,2.24E2,2.092E3,1.871E3,1.121E3,1.49E2,2.26E2,7.4E1,2.24E2,7.4E1,7.6E1],"tree_param":{"num_deleted":"0","num_feature":"1","num_nodes":"87","size_leaf_vector":"1"}},{"base_weights":[-1.1654671E-5,-3.7302025E-2,2.551508E-2,-5.6150932E-2,-2.2323893E-2,1.1514003E-2,4.8178222E-2,-5.3869095E-2,-4.616152E-2,2.2865802E-2,-2.4006514E-2,1.2008421E-3,2.0183234E-2,3.937889E-2,7.332664E-2,-5.72887E-2,2.0848181E-2,-2.1756522E-2,-2.1297269E-2,1.8034866E-2,-1.7087142E-3,2.1191012E-2,1.9152578E-2,4.2402968E-2,3.6998115E-2,6.611925E-2,1.0164036E-1,-5.4022998E-2,-5.6940723E-2,2.8646626E-2,-1.6524833E-2,1.44670615E-2,-2.4181811E-2,-3.9490115E-2,1.5573996E-3,-1.8305795E-2,2.0711923E-2,5.0721695E-3,4.035282E-2,1.0026222E-1,5.455547E-2,9.968242E-2,8.132658E-2,-1.7340206E-2,2.9129783E-2,-5.43957E-3,3.4012508E-2,-1.6213033E-2,-6.2534465E-3,1.5226337E-2,-3.248214E-4,-2.5326794E-3,-8.417029E-3,3.413445E-2,5.600171E-3,5.7527376E-3,-2.8626595E-3,1.737883E-2,1.111266E-2,1.877572E-2,5.170676E-2,-1.9816417E-2,2.0801943E-2,2.7503522E-2,3.416284E-2],"categories":[],"categories_nodes":[],"categories_segments":[],"categories_sizes":[],"default_left":[0,0,0,0,0,0,0,0,0,0,0,0,0,0,0,0,0,0,0,0,0,0,0,0,0,0,0,0,0,0,0,0,0,0,0,0,0,0,0,0,0,0,0,0,0,0,0,0,0,0,0,0,0,0,0,0,0,0,0,0,0,0,0,0,0],"id":10,"left_children":[1,3,5,7,9,11,13,15,-1,-1,17,19,21,23,25,27,29,-1,31,-1,33,-1,35,-1,37,39,41,43,-1,-1,-1,45,47,-1,49,51,53,55,57,59,61,63,-1,-1,-1,-1,-1,-1,-1,-1,-1,-1,-1,-1,-1,-1,-1,-1,-1,-1,-1,-1,-1,-1,-1],"loss_changes":[1.821273E1,2.1937962E0,3.6034327E0,7.592163E-1,7.2045445E-1,6.277929E-1,9.5684433E-1,8.609638E-1,0E0,0E0,5.58651E-1,5.5001044E-1,1.9702744E-1,7.752247E-1,2.2244787E-1,1.3823376E0,8.440541E-1,0E0,4.1692472E-1,0E0,1.2978667E0,0E0,2.188344E-1,0E0,3.3641768E-1,3.490796E-1,4.7957182E-2,1.7993574E0,0E0,0E0,0E0,9.7579324E-1,3.7125778E-1,0E0,3.8763776E-1,1.4189985E-2,6.8123627E-1,6.2017627E-2,1.6334486E-1,6.030822E-1,1.2046342E0,1.512146E-2,0E0,0E0,0E0,0E0,0E0,0E0,0E0,0E0,0E0,0E0,0E0,0E0,0E0,0E0,0E0,0E0,0E0,0E0,0E0,0E0,0E0,0E0,0E0],"parents":[2147483647,0,0,1,1,2,2,3,3,4,4,5,5,6,6,7,7,10,10,11,11,12,12,13,13,14,14,15,15,16,16,18,18,20,20,22,22,24,24,25,25,26,26,27,27,31,31,32,32,34,34,35,35,36,36,37,37,38,38,39,39,40,40,41,41],"right_children":[2,4,6,8,10,12,14,16,-1,-1,18,20,22,24,26,28,30,-1,32,-1,34,-1,36,-1,38,40,42,44,-1,-1,-1,46,48,-1,50,52,54,56,58,60,62,64,-1,-1,-1,-1,-1,-1,-1,-1,-1,-1,-1,-1,-1,-1,-1,-1,-1,-1,-1,-1,-1,-1,-1],"split_conditions":[5.899693E0,5.189156E0,7.336871E0,5.174437E0,5.2092957E0,6.594356E0,8.145945E0,5.1301036E0,-4.616152E-2,2.2865802E-2,5.2669754E0,5.9342284E0,6.609738E0,7.3487806E0,9.001547E0,5.1076636E0,5.1523757E0,-2.1756522E-2,5.334567E0,1.8034866E-2,5.95154E0,2.1191012E-2,6.6474037E0,4.2402968E-2,7.4067383E0,8.248764E0,1.1498201E1,5.086412E0,-5.6940723E-2,2.8646626E-2,-1.6524833E-2,5.317933E0,5.3582444E0,-3.9490115E-2,5.9840784E0,6.628765E0,6.6628337E0,7.3786983E0,7.502837E0,8.211064E0,8.294095E0,9.825134E0,8.132658E-2,-1.7340206E-2,2.9129783E-2,-5.43957E-3,3.4012508E-2,-1.6213033E-2,-6.2534465E-3,1.5226337E-2,-3.248214E-4,-2.5326794E-3,-8.417029E-3,3.413445E-2,5.600171E-3,5.7527376E-3,-2.8626595E-3,1.737883E-2,1.111266E-2,1.877572E-2,5.170676E-2,-1.9816417E-2,2.0801943E-2,2.7503522E-2,3.416284E-2],"split_indices":[0,0,0,0,0,0,0,0,0,0,0,0,0,0,0,0,0,0,0,0,0,0,0,0,0,0,0,0,0,0,0,0,0,0,0,0,0,0,0,0,0,0,0,0,0,0,0,0,0,0,0,0,0,0,0,0,0,0,0,0,0,0,0,0,0],"split_type":[0,0,0,0,0,0,0,0,0,0,0,0,0,0,0,0,0,0,0,0,0,0,0,0,0,0,0,0,0,0,0,0,0,0,0,0,0,0,0,0,0,0,0,0,0,0,0,0,0,0,0,0,0,0,0,0,0,0,0,0,0,0,0,0,0],"sum_hessian":[1.9131E4,7.774E3,1.1357E4,3.441E3,4.333E3,7.021E3,4.336E3,3.364E3,7.7E1,7.2E1,4.261E3,3.207E3,3.814E3,3.214E3,1.122E3,3.217E3,1.47E2,2.24E2,4.037E3,1.5E2,3.057E3,7.5E1,3.739E3,7.2E1,3.142E3,8.97E2,2.25E2,3.141E3,7.6E1,7.4E1,7.3E1,3.01E2,3.736E3,7.4E1,2.983E3,1.49E2,3.59E3,2.99E2,2.843E3,2.25E2,6.72E2,2.24E2,1E0,3.065E3,7.6E1,2.27E2,7.4E1,3.74E2,3.362E3,1.51E2,2.832E3,7.5E1,7.4E1,7.6E1,3.514E3,1.52E2,1.47E2,4.48E2,2.395E3,1.49E2,7.6E1,7.3E1,5.99E2,1.48E2,7.6E1],"tree_param":{"num_deleted":"0","num_feature":"1","num_nodes":"65","size_leaf_vector":"1"}},{"base_weights":[5.4161096E-6,-2.3841623E-2,2.0093417E-2,-5.3966217E-2,-1.7629862E-2,1.3578986E-2,4.274621E-2,-7.1952805E-2,-4.9390543E-2,-1.6610358E-2,-3.489749E-2,3.1145595E-2,1.2730549E-2,5.3376146E-2,3.8211323E-2,-6.0374327E-2,-3.1455472E-2,-3.1462794E-3,-5.194927E-2,-2.4473801E-2,-4.603289E-3,1.9348004E-3,1.9960389E-2,-2.8052608E-2,4.2618755E-2,-8.0332786E-2,-6.0564713E-3,-2.6507752E-2,-4.925414E-2,-2.1851761E-2,-9.755294E-2,2.5672374E-2,-7.0441472E-3,3.510844E-2,3.069453E-4,5.3250026E-2,1.8306855E-2,3.9213605E-2,7.178078E-2,-2.159053E-2,-2.6385197E-2,-5.990142E-3,-1.5448713E-2,-7.330478E-3,3.549015E-2,-4.4898823E-2,-1.3034294E-2,-2.5683334E-2,-1.4475278E-3,-9.574352E-3,3.0767076E-2,-3.0607088E-2,8.6364726E-4,9.058949E-3,2.9505929E-2,-2.0511743E-2,5.93128E-3,9.704182E-3,1.3814018E-2,2.1015475E-2,6.912761E-2],"categories":[],"categories_nodes":[],"categories_segments":[],"categories_sizes":[],"default_left":[0,0,0,0,0,0,0,0,0,0,0,0,0,0,0,0,0,0,0,0,0,0,0,0,0,0,0,0,0,0,0,0,0,0,0,0,0,0,0,0,0,0,0,0,0,0,0,0,0,0,0,0,0,0,0,0,0,0,0,0,0],"id":11,"left_children":[1,3,5,7,9,11,13,15,17,19,-1,-1,21,-1,23,25,-1,-1,27,29,31,33,35,-1,37,39,-1,-1,41,43,45,-1,47,49,51,53,55,57,59,-1,-1,-1,-1,-1,-1,-1,-1,-1,-1,-1,-1,-1,-1,-1,-1,-1,-1,-1,-1,-1,-1],"loss_changes":[9.16546E0,1.6360335E0,1.5319343E0,1.19485855E-1,7.279668E-1,6.1630905E-1,1.4147482E0,1.0832596E-1,1.18407965E-1,6.7789495E-1,0E0,0E0,6.238271E-1,0E0,1.307313E0,1.7884004E-1,0E0,0E0,1.0565066E-1,8.292918E-1,6.2637943E-1,1.7317325E-1,2.6252806E-1,0E0,2.1296692E-1,3.2280087E-3,0E0,0E0,6.7640305E-2,1.5198226E0,4.164101E-1,0E0,4.823466E-1,6.813624E-1,8.0510366E-1,2.3202151E-1,5.80294E-1,8.990741E-2,4.5856595E-2,0E0,0E0,0E0,0E0,0E0,0E0,0E0,0E0,0E0,0E0,0E0,0E0,0E0,0E0,0E0,0E0,0E0,0E0,0E0,0E0,0E0,0E0],"parents":[2147483647,0,0,1,1,2,2,3,3,4,4,5,5,6,6,7,7,8,8,9,9,12,12,14,14,15,15,18,18,19,19,20,20,21,21,22,22,24,24,25,25,28,28,29,29,30,30,32,32,33,33,34,34,35,35,36,36,37,37,38,38],"right_children":[2,4,6,8,10,12,14,16,18,20,-1,-1,22,-1,24,26,-1,-1,28,30,32,34,36,-1,38,40,-1,-1,42,44,46,-1,48,50,52,54,56,58,60,-1,-1,-1,-1,-1,-1,-1,-1,-1,-1,-1,-1,-1,-1,-1,-1,-1,-1,-1,-1,-1,-1],"split_conditions":[6.120547E0,4.554587E0,7.776885E0,3.903788E0,6.104991E0,6.135884E0,7.793664E0,3.816887E0,3.990305E0,5.5295286E0,-3.489749E-2,3.1145595E-2,6.809208E0,5.3376146E-2,7.80702E0,3.671245E0,-3.1455472E-2,-3.1462794E-3,4.0487504E0,5.5089984E0,5.540414E0,6.169617E0,6.8519535E0,-2.8052608E-2,9.001547E0,3.4135842E0,-6.0564713E-3,-2.6507752E-2,4.1082487E0,5.498558E0,5.5193944E0,2.5672374E-2,5.55584E0,6.1550317E0,6.187219E0,6.8374987E0,6.8679733E0,8.119214E0,1.1498201E1,-2.159053E-2,-2.6385197E-2,-5.990142E-3,-1.5448713E-2,-7.330478E-3,3.549015E-2,-4.4898823E-2,-1.3034294E-2,-2.5683334E-2,-1.4475278E-3,-9.574352E-3,3.0767076E-2,-3.0607088E-2,8.6364726E-4,9.058949E-3,2.9505929E-2,-2.0511743E-2,5.93128E-3,9.704182E-3,1.3814018E-2,2.1015475E-2,6.912761E-2],"split_indices":[0,0,0,0,0,0,0,0,0,0,0,0,0,0,0,0,0,0,0,0,0,0,0,0,0,0,0,0,0,0,0,0,0,0,0,0,0,0,0,0,0,0,0,0,0,0,0,0,0,0,0,0,0,0,0,0,0,0,0,0,0],"split_type":[0,0,0,0,0,0,0,0,0,0,0,0,0,0,0,0,0,0,0,0,0,0,0,0,0,0,0,0,0,0,0,0,0,0,0,0,0,0,0,0,0,0,0,0,0,0,0,0,0,0,0,0,0,0,0,0,0,0,0,0,0],"sum_hessian":[1.9131E4,8.747E3,1.0384E4,1.494E3,7.253E3,8.066E3,2.318E3,3E2,1.194E3,7.18E3,7.3E1,7.4E1,7.992E3,7.4E1,2.244E3,2.24E2,7.6E1,7.4E1,1.12E3,4.338E3,2.842E3,3.206E3,4.786E3,7.2E1,2.172E3,1.49E2,7.5E1,7.5E1,1.045E3,4.189E3,1.49E2,7.4E1,2.768E3,1.49E2,3.057E3,2.25E2,4.561E3,1.947E3,2.25E2,7.6E1,7.3E1,7.5E1,9.7E2,4.114E3,7.5E1,7.5E1,7.4E1,7.5E1,2.693E3,7.5E1,7.4E1,7.4E1,2.983E3,1.5E2,7.5E1,7.5E1,4.486E3,9.74E2,9.73E2,2.24E2,1E0],"tree_param":{"num_deleted":"0","num_feature":"1","num_nodes":"61","size_leaf_vector":"1"}},{"base_weights":[2.896863E-6,-1.5382956E-2,1.5646612E-2,-3.545987E-2,-1.0553432E-2,9.62013E-3,2.698981E-2,-4.4270404E-2,-2.7274547E-2,-1.569346E-2,-3.5422312E-3,1.088908E-2,-4.0917307E-2,4.1244313E-2,2.4370305E-2,-4.1196287E-2,-5.9107035E-2,-1.9364411E-2,-5.3299315E-2,-1.2546642E-2,-5.94504E-2,4.2705234E-2,-6.98885E-3,9.178417E-3,5.5310078E-2,-8.2244035E-3,-1.591422E-2,-1.80448E-2,2.6325002E-2,-4.577092E-2,1.3911724E-4,-2.3453139E-2,-1.20037915E-2,-2.8162811E-2,1.5549554E-2,-2.971181E-2,-2.9464092E-2,-1.5626084E-2,7.4454196E-2,-8.438865E-2,-3.174643E-3,1.0228374E-2,-2.0791732E-2,7.911889E-2,2.6488095E-3,2.5648E-2,2.4811648E-2,-1.2340082E-2,-1.8508919E-2,-1.3872703E-3,-1.0773399E-2,1.8473938E-2,-9.574646E-3,4.15051E-3,-2.1884305E-2,-3.4162686E-3,-9.4608655E-3,1.4827471E-2,2.955115E-2,-2.2674106E-2,-2.7561663E-2,3.1340405E-2,-1.7615531E-3,2.7776908E-3,2.5325995E-2,2.0856598E-2,2.6407914E-2,-7.0924195E-3,8.182929E-3],"categories":[],"categories_nodes":[],"categories_segments":[],"categories_sizes":[],"default_left":[0,0,0,0,0,0,0,0,0,0,0,0,0,0,0,0,0,0,0,0,0,0,0,0,0,0,0,0,0,0,0,0,0,0,0,0,0,0,0,0,0,0,0,0,0,0,0,0,0,0,0,0,0,0,0,0,0,0,0,0,0,0,0,0,0,0,0,0,0],"id":12,"left_children":[1,3,5,7,9,11,13,15,17,19,21,23,25,-1,27,29,31,33,35,37,-1,-1,39,41,43,-1,-1,-1,45,47,-1,-1,-1,49,51,-1,53,55,57,59,61,63,-1,65,-1,-1,67,-1,-1,-1,-1,-1,-1,-1,-1,-1,-1,-1,-1,-1,-1,-1,-1,-1,-1,-1,-1,-1,-1],"loss_changes":[4.6051583E0,9.3492055E-1,6.4826775E-1,1.3365126E-1,2.8021008E-1,3.9785582E-1,9.491706E-1,3.85679E-2,1.990633E-1,2.5740118E0,1.6558334E0,4.589241E-1,2.3441494E-2,0E0,5.328996E-1,1.4257455E-1,5.2219987E-2,2.2990662E-1,2.4347252E-1,1.1831999E0,0E0,0E0,9.49156E-1,4.8055345E-1,2.4719125E-1,0E0,0E0,0E0,2.7940035E-1,4.723823E-2,0E0,0E0,0E0,1.0872027E-1,3.3187428E-1,0E0,2.8342944E-1,2.8705072E-1,8.602524E-2,3.0097961E-3,8.90777E-1,4.1255265E-1,0E0,6.5318346E-3,0E0,0E0,3.6692452E-1,0E0,0E0,0E0,0E0,0E0,0E0,0E0,0E0,0E0,0E0,0E0,0E0,0E0,0E0,0E0,0E0,0E0,0E0,0E0,0E0,0E0,0E0],"parents":[2147483647,0,0,1,1,2,2,3,3,4,4,5,5,6,6,7,7,8,8,9,9,10,10,11,11,12,12,14,14,15,15,16,16,17,17,18,18,19,19,22,22,23,23,24,24,28,28,29,29,33,33,34,34,36,36,37,37,38,38,39,39,40,40,41,41,43,43,46,46],"right_children":[2,4,6,8,10,12,14,16,18,20,22,24,26,-1,28,30,32,34,36,38,-1,-1,40,42,44,-1,-1,-1,46,48,-1,-1,-1,50,52,-1,54,56,58,60,62,64,-1,66,-1,-1,68,-1,-1,-1,-1,-1,-1,-1,-1,-1,-1,-1,-1,-1,-1,-1,-1,-1,-1,-1,-1,-1,-1],"split_conditions":[6.3198767E0,4.686742E0,7.548217E0,4.3198442E0,5.615069E0,7.51775E0,7.567007E0,4.233922E0,4.6090474E0,5.602676E0,5.629328E0,7.4702425E0,7.5335484E0,4.1244313E-2,7.5825624E0,4.19294E0,4.2851315E0,4.554587E0,4.637087E0,5.579558E0,-5.94504E-2,4.2705234E-2,5.6612244E0,7.4563107E0,7.502837E0,-8.2244035E-3,-1.591422E-2,-1.80448E-2,7.6007943E0,4.1082487E0,1.3911724E-4,-2.3453139E-2,-1.20037915E-2,4.3802524E0,4.5844936E0,-2.971181E-2,4.661184E0,5.445224E0,5.5923223E0,5.6447363E0,5.674205E0,7.43734E0,-2.0791732E-2,7.488344E0,2.6488095E-3,2.5648E-2,7.6339626E0,-1.2340082E-2,-1.8508919E-2,-1.3872703E-3,-1.0773399E-2,1.8473938E-2,-9.574646E-3,4.15051E-3,-2.1884305E-2,-3.4162686E-3,-9.4608655E-3,1.4827471E-2,2.955115E-2,-2.2674106E-2,-2.7561663E-2,3.1340405E-2,-1.7615531E-3,2.7776908E-3,2.5325995E-2,2.0856598E-2,2.6407914E-2,-7.0924195E-3,8.182929E-3],"split_indices":[0,0,0,0,0,0,0,0,0,0,0,0,0,0,0,0,0,0,0,0,0,0,0,0,0,0,0,0,0,0,0,0,0,0,0,0,0,0,0,0,0,0,0,0,0,0,0,0,0,0,0,0,0,0,0,0,0,0,0,0,0,0,0,0,0,0,0,0,0],"split_type":[0,0,0,0,0,0,0,0,0,0,0,0,0,0,0,0,0,0,0,0,0,0,0,0,0,0,0,0,0,0,0,0,0,0,0,0,0,0,0,0,0,0,0,0,0,0,0,0,0,0,0,0,0,0,0,0,0,0,0,0,0,0,0,0,0,0,0,0,0],"sum_hessian":[1.9131E4,9.645E3,9.486E3,1.869E3,7.776E3,6.196E3,3.29E3,8.98E2,9.71E2,4.486E3,3.29E3,6.045E3,1.51E2,7.5E1,3.215E3,7.47E2,1.51E2,7.46E2,2.25E2,4.411E3,7.5E1,7.5E1,3.215E3,5.822E3,2.23E2,7.3E1,7.8E1,7.2E1,3.143E3,6.73E2,7.4E1,7.4E1,7.7E1,5.96E2,1.5E2,7.6E1,1.49E2,4.261E3,1.5E2,1.5E2,3.065E3,5.746E3,7.6E1,1.47E2,7.6E1,7.7E1,3.066E3,5.24E2,1.49E2,1.48E2,4.48E2,7.6E1,7.4E1,7.5E1,7.4E1,3.366E3,8.95E2,7.5E1,7.5E1,7.4E1,7.6E1,7.4E1,2.991E3,5.673E3,7.3E1,7.5E1,7.2E1,1.48E2,2.918E3],"tree_param":{"num_deleted":"0","num_feature":"1","num_nodes":"69","size_leaf_vector":"1"}},{"base_weights":[-4.4538364E-8,-1.2953793E-2,9.459307E-3,-2.0392999E-2,-6.540535E-3,2.8288843E-2,8.871393E-3,-3.1062882E-2,-1.7008275E-2,-4.869539E-3,-5.284246E-2,-3.0702228E-2,9.563364E-3,-4.429496E-2,-2.837505E-2,-1.5010249E-2,-1.2048921E-2,-6.747723E-3,4.5388583E-2,-2.685111E-2,-4.93416E-3,2.9013017E-2,8.894845E-3,-1.1543565E-2,-1.4924578E-2,-6.101037E-4,-3.1298857E-2,-1.727918E-2,1.9279817E-2,-3.2125495E-3,-3.5069283E-2,1.2150635E-2,1.4940054E-2,7.803861E-5,1.4931281E-2,-1.8487431E-2,-8.204485E-3,-4.4189095E-3,-2.9307956E-2,-1.9257804E-3,2.0965103E-2,-4.160534E-2,-4.2591225E-3,4.5104246E-4,-2.4334976E-2,3.7694143E-3,9.29917E-3],"categories":[],"categories_nodes":[],"categories_segments":[],"categories_sizes":[],"default_left":[0,0,0,0,0,0,0,0,0,0,0,0,0,0,0,0,0,0,0,0,0,0,0,0,0,0,0,0,0,0,0,0,0,0,0,0,0,0,0,0,0,0,0,0,0,0,0],"id":13,"left_children":[1,3,5,7,9,-1,11,13,15,17,19,-1,21,23,25,27,-1,29,31,-1,-1,-1,33,-1,-1,-1,35,37,-1,39,41,-1,-1,43,45,-1,-1,-1,-1,-1,-1,-1,-1,-1,-1,-1,-1],"loss_changes":[2.3444443E0,3.8512135E-1,5.507005E-1,1.3446796E-1,3.3537522E-1,0E0,8.4618187E-1,3.0716717E-2,1.307866E-1,3.9562836E-1,2.0000651E-1,0E0,6.3509774E-1,2.843827E-3,5.7699144E-2,4.7165686E-1,0E0,4.0417844E-1,1.2381077E-3,0E0,0E0,0E0,5.766069E-1,0E0,0E0,0E0,7.91828E-2,5.201167E-1,0E0,8.421753E-1,9.6691054E-1,0E0,0E0,5.09831E-1,2.4412453E-1,0E0,0E0,0E0,0E0,0E0,0E0,0E0,0E0,0E0,0E0,0E0,0E0],"parents":[2147483647,0,0,1,1,2,2,3,3,4,4,6,6,7,7,8,8,9,9,10,10,12,12,13,13,14,14,15,15,17,17,18,18,22,22,26,26,27,27,29,29,30,30,33,33,34,34],"right_children":[2,4,6,8,10,-1,12,14,16,18,20,-1,22,24,26,28,-1,30,32,-1,-1,-1,34,-1,-1,-1,36,38,-1,40,42,-1,-1,44,46,-1,-1,-1,-1,-1,-1,-1,-1,-1,-1,-1,-1],"split_conditions":[5.968052E0,5.2669754E0,5.9840784E0,4.3198442E0,5.9342284E0,2.8288843E-2,6.000251E0,3.671245E0,5.2092957E0,5.899693E0,5.95154E0,-3.0702228E-2,6.0199566E0,3.4135842E0,3.816887E0,5.189156E0,-1.2048921E-2,5.812642E0,5.916629E0,-2.685111E-2,-4.93416E-3,2.9013017E-2,6.9359703E0,-1.1543565E-2,-1.4924578E-2,-6.101037E-4,3.903788E0,5.174437E0,1.9279817E-2,5.7792263E0,5.826962E0,1.2150635E-2,1.4940054E-2,6.9188867E0,8.294095E0,-1.8487431E-2,-8.204485E-3,-4.4189095E-3,-2.9307956E-2,-1.9257804E-3,2.0965103E-2,-4.160534E-2,-4.2591225E-3,4.5104246E-4,-2.4334976E-2,3.7694143E-3,9.29917E-3],"split_indices":[0,0,0,0,0,0,0,0,0,0,0,0,0,0,0,0,0,0,0,0,0,0,0,0,0,0,0,0,0,0,0,0,0,0,0,0,0,0,0,0,0,0,0,0,0,0,0],"split_type":[0,0,0,0,0,0,0,0,0,0,0,0,0,0,0,0,0,0,0,0,0,0,0,0,0,0,0,0,0,0,0,0,0,0,0,0,0,0,0,0,0,0,0,0,0,0,0],"sum_hessian":[1.9131E4,8.074E3,1.1057E4,3.737E3,4.337E3,7.5E1,1.0982E4,8.98E2,2.839E3,4.187E3,1.5E2,6.7E1,1.0915E4,1.49E2,7.49E2,2.615E3,2.24E2,4.037E3,1.5E2,7.4E1,7.6E1,8.2E1,1.0833E4,7.6E1,7.3E1,7.5E1,6.74E2,2.543E3,7.2E1,3.59E3,4.47E2,7.6E1,7.4E1,4.403E3,6.43E3,7.6E1,5.98E2,2.466E3,7.7E1,3.44E3,1.5E2,7.4E1,3.73E2,4.328E3,7.5E1,5.606E3,8.24E2],"tree_param":{"num_deleted":"0","num_feature":"1","num_nodes":"47","size_leaf_vector":"1"}},{"base_weights":[-5.059622E-6,-7.3877824E-3,8.623739E-3,-1.53649E-2,-3.7681388E-3,6.7142315E-2,7.5557E-3,-1.28292525E-2,-3.558989E-2,2.4656208E-2,-4.68593E-3,1.7730927E-2,2.2056267E-2,-6.889289E-3,9.683294E-3,-1.5239675E-2,2.4994796E-2,-3.9967317E-3,-2.0033471E-2,-8.039015E-4,-2.3453508E-2,7.3288656E-3,1.9210996E-2,-1.3772284E-2,-2.1606673E-2,-4.719279E-2,-3.0360897E-3,-8.810736E-3,2.2815406E-2,-2.1856915E-2,-6.881644E-3,8.3374595E-3,-1.8735101E-2,4.07932E-2,1.3038924E-2,-4.6134465E-3,1.5182148E-2,-7.14627E-3,-2.0628326E-2,-1.1158875E-3,1.6759716E-2,-6.3553383E-3,-2.1781582E-4,7.847891E-4,-7.6609123E-3,2.1412694E-3,1.1422491E-2,-9.094058E-3,1.2190745E-3,-1.842788E-2,5.1517035E-3],"categories":[],"categories_nodes":[],"categories_segments":[],"categories_sizes":[],"default_left":[0,0,0,0,0,0,0,0,0,0,0,0,0,0,0,0,0,0,0,0,0,0,0,0,0,0,0,0,0,0,0,0,0,0,0,0,0,0,0,0,0,0,0,0,0,0,0,0,0,0,0],"id":14,"left_children":[1,3,5,7,9,11,13,15,-1,-1,17,-1,-1,19,21,23,-1,25,-1,27,29,31,33,35,-1,37,39,41,-1,-1,43,45,47,-1,49,-1,-1,-1,-1,-1,-1,-1,-1,-1,-1,-1,-1,-1,-1,-1,-1],"loss_changes":[1.2188492E0,2.9766518E-1,5.508688E-1,8.4111595E-1,5.6002504E-1,3.756702E-3,2.6636878E-1,7.294302E-1,0E0,0E0,3.0014643E-1,0E0,0E0,1.1217119E-1,1.692903E-1,2.5447387E-1,0E0,2.8800455E-1,0E0,5.0219434E-1,2.442893E-1,1.5940863E-1,1.0763795E0,3.0989933E-1,0E0,7.447991E-2,2.737441E-1,7.391244E-2,0E0,0E0,3.9931245E-2,2.0786077E-1,5.978103E-2,0E0,4.3874058E-1,0E0,0E0,0E0,0E0,0E0,0E0,0E0,0E0,0E0,0E0,0E0,0E0,0E0,0E0,0E0,0E0],"parents":[2147483647,0,0,1,1,2,2,3,3,4,4,5,5,6,6,7,7,10,10,13,13,14,14,15,15,17,17,19,19,20,20,21,21,22,22,23,23,25,25,26,26,27,27,30,30,31,31,32,32,34,34],"right_children":[2,4,6,8,10,12,14,16,-1,-1,18,-1,-1,20,22,24,-1,26,-1,28,30,32,34,36,-1,38,40,42,-1,-1,44,46,48,-1,50,-1,-1,-1,-1,-1,-1,-1,-1,-1,-1,-1,-1,-1,-1,-1,-1],"split_conditions":[6.4515986E0,5.1301036E0,6.487588E0,5.1076636E0,5.1523757E0,6.467809E0,6.723138E0,5.086412E0,-3.558989E-2,2.4656208E-2,6.4386535E0,1.7730927E-2,2.2056267E-2,6.6628337E0,8.008736E0,5.062043E0,2.4994796E-2,5.189156E0,-2.0033471E-2,6.6474037E0,6.6811886E0,7.9432545E0,8.032379E0,5.037495E0,-2.1606673E-2,5.174437E0,6.4242578E0,6.5486374E0,2.2815406E-2,-2.1856915E-2,6.7109437E0,7.877265E0,7.9841676E0,4.07932E-2,8.06155E0,-4.6134465E-3,1.5182148E-2,-7.14627E-3,-2.0628326E-2,-1.1158875E-3,1.6759716E-2,-6.3553383E-3,-2.1781582E-4,7.847891E-4,-7.6609123E-3,2.1412694E-3,1.1422491E-2,-9.094058E-3,1.2190745E-3,-1.842788E-2,5.1517035E-3],"split_indices":[0,0,0,0,0,0,0,0,0,0,0,0,0,0,0,0,0,0,0,0,0,0,0,0,0,0,0,0,0,0,0,0,0,0,0,0,0,0,0,0,0,0,0,0,0,0,0,0,0,0,0],"split_type":[0,0,0,0,0,0,0,0,0,0,0,0,0,0,0,0,0,0,0,0,0,0,0,0,0,0,0,0,0,0,0,0,0,0,0,0,0,0,0,0,0,0,0,0,0,0,0,0,0,0,0],"sum_hessian":[1.9131E4,1.031E4,8.821E3,3.217E3,7.093E3,1.57E2,8.664E3,3.141E3,7.6E1,7.4E1,7.019E3,7.4E1,8.3E1,1.112E3,7.552E3,3.065E3,7.6E1,6.943E3,7.6E1,8.14E2,2.98E2,6.057E3,1.495E3,2.989E3,7.6E1,1.5E2,6.793E3,7.38E2,7.6E1,7.4E1,2.24E2,5.832E3,2.25E2,7.4E1,1.421E3,2.917E3,7.2E1,7.3E1,7.7E1,6.716E3,7.7E1,2.91E2,4.47E2,1.49E2,7.5E1,5.607E3,2.25E2,1.49E2,7.6E1,7.4E1,1.347E3],"tree_param":{"num_deleted":"0","num_feature":"1","num_nodes":"51","size_leaf_vector":"1"}},{"base_weights":[-2.0060147E-6,-7.6859053E-3,4.384378E-3,-6.8415073E-3,-2.582648E-2,5.9152942E-2,3.6965609E-3,-7.5010955E-3,1.569232E-2,6.751901E-4,3.4583077E-2,-2.0252565E-2,4.148915E-3,-6.7023756E-3,-4.26533E-2,5.0165825E-2,3.5599524E-3,-7.650098E-3,2.2963943E-2,-1.892981E-2,-6.655309E-3,9.479281E-3,2.0280078E-2,-2.895984E-2,4.1995733E-3,-1.9513967E-3,-1.6914947E-2,2.7293429E-2,1.0900188E-3],"categories":[],"categories_nodes":[],"categories_segments":[],"categories_sizes":[],"default_left":[0,0,0,0,0,0,0,0,0,0,0,0,0,0,0,0,0,0,0,0,0,0,0,0,0,0,0,0,0],"id":15,"left_children":[1,3,5,7,-1,9,11,13,-1,-1,-1,-1,15,17,19,21,23,25,-1,-1,-1,-1,-1,-1,27,-1,-1,-1,-1],"loss_changes":[6.448688E-1,4.5971924E-1,4.5861095E-1,2.6880977E-1,0E0,4.819718E-1,3.8776535E-1,1.9077656E-1,0E0,0E0,0E0,0E0,3.2382867E-1,5.256438E-1,6.1795086E-2,4.67467E-2,7.5617856E-1,3.6699063E-1,0E0,0E0,0E0,0E0,0E0,0E0,5.7603765E-1,0E0,0E0,0E0,0E0],"parents":[2147483647,0,0,1,1,2,2,3,3,5,5,6,6,7,7,12,12,13,13,14,14,15,15,16,16,17,17,24,24],"right_children":[2,4,6,8,-1,10,12,14,-1,-1,-1,-1,16,18,20,22,24,26,-1,-1,-1,-1,-1,-1,28,-1,-1,-1,-1],"split_conditions":[5.737123E0,5.722289E0,5.764737E0,5.706563E0,-2.582648E-2,5.750777E0,5.7792263E0,5.674205E0,1.569232E-2,6.751901E-4,3.4583077E-2,-2.0252565E-2,5.812642E0,5.6612244E0,5.688312E0,5.795664E0,5.826962E0,5.629328E0,2.2963943E-2,-1.892981E-2,-6.655309E-3,9.479281E-3,2.0280078E-2,-2.895984E-2,5.8429656E0,-1.9513967E-3,-1.6914947E-2,2.7293429E-2,1.0900188E-3],"split_indices":[0,0,0,0,0,0,0,0,0,0,0,0,0,0,0,0,0,0,0,0,0,0,0,0,0,0,0,0,0],"split_type":[0,0,0,0,0,0,0,0,0,0,0,0,0,0,0,0,0,0,0,0,0,0,0,0,0,0,0,0,0],"sum_hessian":[1.9131E4,6.952E3,1.2179E4,6.879E3,7.3E1,1.5E2,1.2029E4,6.804E3,7.5E1,7.5E1,7.5E1,7.5E1,1.1954E4,6.654E3,1.5E2,1.5E2,1.1804E4,6.58E3,7.4E1,7.4E1,7.6E1,7.4E1,7.6E1,7.4E1,1.173E4,6.43E3,1.5E2,7.5E1,1.1655E4],"tree_param":{"num_deleted":"0","num_feature":"1","num_nodes":"29","size_leaf_vector":"1"}},{"base_weights":[-8.140215E-7,-3.5543733E-3,6.1184466E-3,-1.441011E-2,-2.3627826E-3,4.8949413E-2,5.1837424E-3,-1.166006E-2,-1.6618619E-2,1.1341077E-2,-2.6406222E-3,1.0260083E-2,1.8858124E-2,-1.6351778E-2,5.8496105E-3,-1.5246319E-2,2.7208552E-3,-1.3535173E-2,-2.3403282E-3,5.2386383E-3,3.2557238E-2,-1.2850503E-2,-2.6935944E-2,4.9401983E-3,-3.9894064E-3,-1.8161966E-3,-2.054482E-2,-1.3468067E-2,5.6691943E-3,3.033577E-2,5.5199865E-2,-4.7757705E-3,4.46955E-3,-1.2139262E-2,-4.074801E-3,-3.0294564E-4,-2.0635463E-3,-7.2960724E-4,2.504388E-2,-1.5069556E-2,-3.1411988E-3,-1.8030373E-4,-7.898132E-3,1.6775684E-2,1.5246861E-3,7.2349496E-3,1.0799861E-2],"categories":[],"categories_nodes":[],"categories_segments":[],"categories_sizes":[],"default_left":[0,0,0,0,0,0,0,0,0,0,0,0,0,0,0,0,0,0,0,0,0,0,0,0,0,0,0,0,0,0,0,0,0,0,0,0,0,0,0,0,0,0,0,0,0,0,0],"id":16,"left_children":[1,3,5,7,9,11,13,15,-1,-1,17,-1,-1,-1,19,21,23,-1,25,27,29,31,33,-1,35,37,39,41,43,45,-1,-1,-1,-1,-1,-1,-1,-1,-1,-1,-1,-1,-1,-1,-1,-1,-1],"loss_changes":[4.1605008E-1,1.565384E-1,2.8114718E-1,1.3426983E-1,1.2183106E-1,2.8626472E-2,2.737674E-1,5.7958722E-2,0E0,0E0,1.3808721E-1,0E0,0E0,0E0,1.1087082E-1,2.4831414E-2,2.0820238E-2,0E0,1.026202E-1,5.3669587E-2,4.5554742E-2,6.393253E-2,2.6908658E-2,0E0,1.3015112E-3,5.4958814E-1,8.949466E-2,2.4802871E-2,1.9156092E-1,4.4507235E-3,0E0,0E0,0E0,0E0,0E0,0E0,0E0,0E0,0E0,0E0,0E0,0E0,0E0,0E0,0E0,0E0,0E0],"parents":[2147483647,0,0,1,1,2,2,3,3,4,4,5,5,6,6,7,7,10,10,14,14,15,15,16,16,18,18,19,19,20,20,21,21,22,22,24,24,25,25,26,26,27,27,28,28,29,29],"right_children":[2,4,6,8,10,12,14,16,-1,-1,18,-1,-1,-1,20,22,24,-1,26,28,30,32,34,-1,36,38,40,42,44,46,-1,-1,-1,-1,-1,-1,-1,-1,-1,-1,-1,-1,-1,-1,-1,-1,-1],"split_conditions":[6.8244104E0,4.4370127E0,6.8519535E0,4.406062E0,4.4670763E0,6.8374987E0,6.8679733E0,4.3198442E0,-1.6618619E-2,1.1341077E-2,4.4951053E0,1.0260083E-2,1.8858124E-2,-1.6351778E-2,9.34837E0,4.233922E0,4.3527446E0,-1.3535173E-2,6.77036E0,6.8901887E0,1.1498201E1,4.19294E0,4.2851315E0,4.9401983E-3,4.3802524E0,6.7559624E0,6.783497E0,6.877933E0,6.9055734E0,9.825134E0,5.5199865E-2,-4.7757705E-3,4.46955E-3,-1.2139262E-2,-4.074801E-3,-3.0294564E-4,-2.0635463E-3,-7.2960724E-4,2.504388E-2,-1.5069556E-2,-3.1411988E-3,-1.8030373E-4,-7.898132E-3,1.6775684E-2,1.5246861E-3,7.2349496E-3,1.0799861E-2],"split_indices":[0,0,0,0,0,0,0,0,0,0,0,0,0,0,0,0,0,0,0,0,0,0,0,0,0,0,0,0,0,0,0,0,0,0,0,0,0,0,0,0,0,0,0,0,0,0,0],"split_type":[0,0,0,0,0,0,0,0,0,0,0,0,0,0,0,0,0,0,0,0,0,0,0,0,0,0,0,0,0,0,0,0,0,0,0,0,0,0,0,0,0,0,0,0,0,0,0],"sum_hessian":[1.9131E4,1.2103E4,7.028E3,1.196E3,1.0907E4,1.49E2,6.879E3,1.122E3,7.4E1,7.4E1,1.0833E4,7.4E1,7.5E1,7.5E1,6.804E3,8.98E2,2.24E2,7.5E1,1.0758E4,6.653E3,1.51E2,7.47E2,1.51E2,7.3E1,1.51E2,1.0458E4,3E2,1.49E2,6.504E3,1.5E2,1E0,6.73E2,7.4E1,7.4E1,7.7E1,7.5E1,7.6E1,1.0384E4,7.4E1,7.5E1,2.25E2,7.5E1,7.4E1,7.4E1,6.43E3,7.4E1,7.6E1],"tree_param":{"num_deleted":"0","num_feature":"1","num_nodes":"47","size_leaf_vector":"1"}},{"base_weights":[3.0949616E-6,-3.813268E-3,3.0629414E-3,-2.9486679E-3,-3.4331217E-2,4.1288376E-2,2.4705161E-3,-3.7132269E-3,2.4026994E-2,4.4714366E-3,2.0853117E-2,-2.3958445E-2,3.0569483E-3,-3.1484736E-3,-2.1403782E-2,5.363648E-2,-1.1353714E-2,2.253794E-2,2.5324335E-3,-3.8094802E-3,2.013747E-2,2.0637803E-2,1.0913576E-2,8.933627E-4,8.959982E-3,-9.561249E-4,-1.09349415E-2,5.558108E-4,-1.5109253E-2,7.980487E-3,2.050101E-3],"categories":[],"categories_nodes":[],"categories_segments":[],"categories_sizes":[],"default_left":[0,0,0,0,0,0,0,0,0,0,0,0,0,0,0,0,0,0,0,0,0,0,0,0,0,0,0,0,0,0,0],"id":17,"left_children":[1,3,5,7,-1,9,11,13,15,-1,-1,-1,17,19,-1,21,-1,-1,23,25,-1,-1,-1,27,29,-1,-1,-1,-1,-1,-1],"loss_changes":[2.234253E-1,8.139893E-1,2.4037284E-1,1.7434546E-1,0E0,1.1958882E-1,5.051786E-1,3.1363016E-1,4.2889032E-1,0E0,0E0,0E0,3.923785E-1,3.7883258E-1,0E0,3.882456E-2,0E0,0E0,1.08620495E-1,1.6392948E-1,0E0,0E0,0E0,4.041511E-1,7.84051E-2,0E0,0E0,0E0,0E0,0E0,0E0],"parents":[2147483647,0,0,1,1,2,2,3,3,5,5,6,6,7,7,8,8,12,12,13,13,15,15,18,18,19,19,23,23,24,24],"right_children":[2,4,6,8,-1,10,12,14,16,-1,-1,-1,18,20,-1,22,-1,-1,24,26,-1,-1,-1,28,30,-1,-1,-1,-1,-1,-1],"split_conditions":[6.0726624E0,6.058856E0,6.104991E0,6.000251E0,-3.4331217E-2,6.0898747E0,6.120547E0,5.9840784E0,6.040202E0,4.4714366E-3,2.0853117E-2,-2.3958445E-2,6.135884E0,5.968052E0,-2.1403782E-2,6.0199566E0,-1.1353714E-2,2.253794E-2,7.8296623E0,5.9342284E0,2.013747E-2,2.0637803E-2,1.0913576E-2,7.793664E0,7.899199E0,-9.561249E-4,-1.09349415E-2,5.558108E-4,-1.5109253E-2,7.980487E-3,2.050101E-3],"split_indices":[0,0,0,0,0,0,0,0,0,0,0,0,0,0,0,0,0,0,0,0,0,0,0,0,0,0,0,0,0,0,0],"split_type":[0,0,0,0,0,0,0,0,0,0,0,0,0,0,0,0,0,0,0,0,0,0,0,0,0,0,0,0,0,0,0],"sum_hessian":[1.9131E4,8.513E3,1.0618E4,8.448E3,6.5E1,1.61E2,1.0457E4,8.216E3,2.32E2,8.4E1,7.7E1,7.3E1,1.0384E4,8.149E3,6.7E1,1.57E2,7.5E1,7.4E1,1.031E4,8.074E3,7.5E1,8.2E1,7.5E1,8.216E3,2.094E3,7.924E3,1.5E2,8.066E3,1.5E2,2.24E2,1.87E3],"tree_param":{"num_deleted":"0","num_feature":"1","num_nodes":"31","size_leaf_vector":"1"}},{"base_weights":[1.6295322E-6,-1.6020719E-3,5.0136284E-3,-1.0980206E-3,-4.9476333E-2,1.2901245E-2,4.3882336E-3,-1.4536182E-3,1.9705366E-2,-2.208736E-2,-7.4031404E-3,-1.4532167E-2,5.043363E-3,-1.0889029E-3,-2.1140262E-2,2.9577727E-3,-1.1433555E-2,4.2938635E-2,3.7271748E-3,-1.5379433E-3,4.096948E-2,1.4635413E-3,2.4592416E-2,-1.4170877E-2,5.080097E-3,-2.271778E-3,-1.8334882E-4,8.4647E-3,1.5808295E-2,-1.2639645E-3,-7.3107597E-3,6.477904E-3,1.22435E-3],"categories":[],"categories_nodes":[],"categories_segments":[],"categories_sizes":[],"default_left":[0,0,0,0,0,0,0,0,0,0,0,0,0,0,0,0,0,0,0,0,0,0,0,0,0,0,0,0,0,0,0,0,0],"id":18,"left_children":[1,3,5,7,9,-1,11,13,-1,-1,-1,15,17,19,-1,-1,-1,21,23,25,27,-1,-1,29,31,-1,-1,-1,-1,-1,-1,-1,-1],"loss_changes":[1.5378627E-1,3.497257E-1,1.1000589E-1,3.4075654E-1,8.861041E-2,0E0,5.6645535E-2,3.5910526E-1,0E0,0E0,0E0,8.837242E-2,2.1989867E-1,2.6816735E-1,0E0,0E0,0E0,2.194866E-1,1.0334756E-1,7.855737E-2,2.0943642E-2,0E0,0E0,3.0362755E-2,6.533205E-2,0E0,0E0,0E0,0E0,0E0,0E0,0E0,0E0],"parents":[2147483647,0,0,1,1,2,2,3,3,4,4,6,6,7,7,11,11,12,12,13,13,17,17,18,18,19,19,20,20,23,23,24,24],"right_children":[2,4,6,8,10,-1,12,14,-1,-1,-1,16,18,20,-1,-1,-1,22,24,26,28,-1,-1,30,32,-1,-1,-1,-1,-1,-1,-1,-1],"split_conditions":[7.2785034E0,7.2515135E0,7.291955E0,7.2363415E0,7.2655287E0,1.2901245E-2,7.3208914E0,7.222018E0,1.9705366E-2,-2.208736E-2,-7.4031404E-3,7.305667E0,7.3487806E0,7.1923323E0,-2.1140262E-2,2.9577727E-3,-1.1433555E-2,7.336871E0,7.4067383E0,4.686742E0,7.20836E0,1.4635413E-3,2.4592416E-2,7.3786983E0,7.4563107E0,-2.271778E-3,-1.8334882E-4,8.4647E-3,1.5808295E-2,-1.2639645E-3,-7.3107597E-3,6.477904E-3,1.22435E-3],"split_indices":[0,0,0,0,0,0,0,0,0,0,0,0,0,0,0,0,0,0,0,0,0,0,0,0,0,0,0,0,0,0,0,0,0],"split_type":[0,0,0,0,0,0,0,0,0,0,0,0,0,0,0,0,0,0,0,0,0,0,0,0,0,0,0,0,0,0,0,0,0],"sum_hessian":[1.9131E4,1.4494E4,4.637E3,1.4344E4,1.5E2,7.4E1,4.563E3,1.4269E4,7.5E1,7.5E1,7.5E1,1.52E2,4.411E3,1.4195E4,7.4E1,7.5E1,7.7E1,1.47E2,4.264E3,1.4046E4,1.49E2,7.5E1,7.2E1,2.99E2,3.965E3,1.869E3,1.2177E4,7.3E1,7.6E1,1.52E2,1.47E2,2.25E2,3.74E3],"tree_param":{"num_deleted":"0","num_feature":"1","num_nodes":"33","size_leaf_vector":"1"}},{"base_weights":[2.3307186E-6,-3.2476548E-3,1.4276813E-3,-4.5144442E-4,-2.772543E-2,2.2904966E-2,1.0027159E-3,-3.4622923E-3,1.0096328E-1,-5.2964475E-2,-6.3715447E-3,-1.3247202E-2,1.2636209E-3,-1.0977477E-3,-3.2994233E-2,4.089555E-2,1.928388E-2,2.4675522E-2,-2.1127932E-2,3.168592E-2,5.5338495E-4,-2.7109522E-3,3.0001193E-2,-2.1620184E-2,-2.2725262E-2,-5.877285E-2,-2.1095625E-3,3.7482532E-3,5.9228722E-2,-3.9818324E-2,1.3461228E-3,-9.872221E-4,9.6381735E-3,-3.0523317E-3,-1.7874988E-2,-1.6026942E-2,-1.9044477E-2,1.4376094E-2,-1.5737671E-2,1.0701995E-2,-8.856517E-3,1.2469386E-2,2.2834051E-2,3.209385E-2,2.1419389E-4],"categories":[],"categories_nodes":[],"categories_segments":[],"categories_sizes":[],"default_left":[0,0,0,0,0,0,0,0,0,0,0,0,0,0,0,0,0,0,0,0,0,0,0,0,0,0,0,0,0,0,0,0,0,0,0,0,0,0,0,0,0,0,0,0,0],"id":19,"left_children":[1,3,5,7,9,-1,11,13,15,-1,17,-1,19,21,23,-1,-1,-1,25,27,29,31,-1,-1,33,35,37,39,41,-1,43,-1,-1,-1,-1,-1,-1,-1,-1,-1,-1,-1,-1,-1,-1],"loss_changes":[8.8631116E-2,3.992272E-1,4.2338675E-1,1.5991323E0,1.8992865E0,0E0,1.5589091E-1,3.5511708E-1,1.8707836E-1,0E0,6.8700373E-1,0E0,2.8413627E-1,7.6846147E-1,1.4962974E-1,0E0,0E0,0E0,3.2205123E-1,2.3062244E-1,1.3580824E0,9.376737E-2,0E0,0E0,1.3817337E-1,4.1240454E-4,7.5820524E-1,1.6037506E-1,4.18728E-2,0E0,8.531131E-1,0E0,0E0,0E0,0E0,0E0,0E0,0E0,0E0,0E0,0E0,0E0,0E0,0E0,0E0],"parents":[2147483647,0,0,1,1,2,2,3,3,4,4,6,6,7,7,8,8,10,10,12,12,13,13,14,14,18,18,19,19,20,20,21,21,24,24,25,25,26,26,27,27,28,28,30,30],"right_children":[2,4,6,8,10,-1,12,14,16,-1,18,-1,20,22,24,-1,-1,-1,26,28,30,32,-1,-1,34,36,38,40,42,-1,44,-1,-1,-1,-1,-1,-1,-1,-1,-1,-1,-1,-1,-1,-1],"split_conditions":[5.5295286E0,5.445224E0,5.540414E0,5.4254155E0,5.4541264E0,2.2904966E-2,5.55584E0,5.38244E0,5.4347444E0,-5.2964475E-2,5.4648657E0,-1.3247202E-2,5.602676E0,5.375633E0,5.3897486E0,4.089555E-2,1.928388E-2,2.4675522E-2,5.484243E0,5.579558E0,5.615069E0,5.369115E0,3.0001193E-2,-2.1620184E-2,5.4150434E0,5.4747868E0,5.5089984E0,5.568429E0,5.5923223E0,-3.9818324E-2,5.629328E0,-9.872221E-4,9.6381735E-3,-3.0523317E-3,-1.7874988E-2,-1.6026942E-2,-1.9044477E-2,1.4376094E-2,-1.5737671E-2,1.0701995E-2,-8.856517E-3,1.2469386E-2,2.2834051E-2,3.209385E-2,2.1419389E-4],"split_indices":[0,0,0,0,0,0,0,0,0,0,0,0,0,0,0,0,0,0,0,0,0,0,0,0,0,0,0,0,0,0,0,0,0,0,0,0,0,0,0,0,0,0,0,0,0],"split_type":[0,0,0,0,0,0,0,0,0,0,0,0,0,0,0,0,0,0,0,0,0,0,0,0,0,0,0,0,0,0,0,0,0,0,0,0,0,0,0,0,0,0,0,0,0],"sum_hessian":[1.9131E4,5.832E3,1.3299E4,5.235E3,5.97E2,7.4E1,1.3225E4,5.085E3,1.5E2,7.4E1,5.23E2,7.5E1,1.315E4,4.709E3,3.76E2,7.5E1,7.5E1,7.4E1,4.49E2,2.99E2,1.2851E4,4.636E3,7.3E1,7.7E1,2.99E2,1.5E2,2.99E2,1.49E2,1.5E2,7.5E1,1.2776E4,4.561E3,7.5E1,2.24E2,7.5E1,7.6E1,7.4E1,1.5E2,1.49E2,7.6E1,7.3E1,7.5E1,7.5E1,7.5E1,1.2701E4],"tree_param":{"num_deleted":"0","num_feature":"1","num_nodes":"45","size_leaf_vector":"1"}},{"base_weights":[3.2383093E-6,-7.452191E-4,5.4299566E-3,-5.186355E-4,-1.5392623E-2,3.2040708E-2,2.040932E-3,-7.150754E-4,1.2600228E-2,-2.0650947E-2,4.4210567E-3,-3.926323E-4,-1.464409E-2,4.280684E-3,4.6396494E-2,-7.030507E-4,2.001628E-2,-2.6852345E-2,-6.368432E-3,2.6771165E-3,1.4278023E-2,-1.1571327E-4,-2.0973668E-2,-3.2072163E-3,-1.2736605E-2,-8.968727E-5,-2.7787117E-3,1.3477921E-3,-5.462144E-3,3.4786598E-3,6.5688607E-3],"categories":[],"categories_nodes":[],"categories_segments":[],"categories_sizes":[],"default_left":[0,0,0,0,0,0,0,0,0,0,0,0,0,0,0,0,0,0,0,0,0,0,0,0,0,0,0,0,0,0,0],"id":20,"left_children":[1,3,5,7,-1,-1,9,11,-1,-1,13,15,17,19,-1,21,-1,23,25,27,29,-1,-1,-1,-1,-1,-1,-1,-1,-1,-1],"loss_changes":[7.7711865E-2,1.926091E-1,7.964827E-1,1.3985097E-1,0E0,0E0,3.7902927E-1,7.483753E-2,0E0,0E0,4.5163717E-2,3.3937943E-1,3.79178E-2,3.4781992E-2,0E0,3.5607833E-1,0E0,3.787595E-2,3.966852E-3,7.1098216E-2,5.876817E-3,0E0,0E0,0E0,0E0,0E0,0E0,0E0,0E0,0E0,0E0],"parents":[2147483647,0,0,1,1,2,2,3,3,6,6,7,7,10,10,11,11,12,12,13,13,15,15,17,17,18,18,19,19,20,20],"right_children":[2,4,6,8,-1,-1,10,12,-1,-1,14,16,18,20,-1,22,-1,24,26,28,30,-1,-1,-1,-1,-1,-1,-1,-1,-1,-1],"split_conditions":[7.776885E0,7.7620606E0,7.793664E0,7.745851E0,-1.5392623E-2,3.2040708E-2,7.80702E0,7.651967E0,1.2600228E-2,-2.0650947E-2,1.1498201E1,7.6339626E0,7.6841655E0,8.803467E0,4.6396494E-2,7.6164846E0,2.001628E-2,7.6672754E0,7.7058287E0,8.575985E0,9.825134E0,-1.1571327E-4,-2.0973668E-2,-3.2072163E-3,-1.2736605E-2,-8.968727E-5,-2.7787117E-3,1.3477921E-3,-5.462144E-3,3.4786598E-3,6.5688607E-3],"split_indices":[0,0,0,0,0,0,0,0,0,0,0,0,0,0,0,0,0,0,0,0,0,0,0,0,0,0,0,0,0,0,0],"split_type":[0,0,0,0,0,0,0,0,0,0,0,0,0,0,0,0,0,0,0,0,0,0,0,0,0,0,0,0,0,0,0],"sum_hessian":[1.9131E4,1.6813E4,2.318E3,1.6739E4,7.4E1,7.4E1,2.244E3,1.6663E4,7.6E1,7.2E1,2.172E3,1.6287E4,3.76E2,2.171E3,1E0,1.6213E4,7.4E1,1.51E2,2.25E2,1.872E3,2.99E2,1.614E4,7.3E1,7.5E1,7.6E1,7.3E1,1.52E2,1.723E3,1.49E2,2.23E2,7.6E1],"tree_param":{"num_deleted":"0","num_feature":"1","num_nodes":"31","size_leaf_vector":"1"}},{"base_weights":[4.5325387E-6,-1.0490576E-3,2.746524E-3,-6.0210493E-4,-2.4564223E-2,1.7129403E-2,1.6534866E-3,-1.0604295E-3,2.7071929E-2,1.1956337E-2,1.1098369E-2,-1.4911868E-2,2.4452459E-3,-5.377736E-4,-3.195049E-2,1.0168637E-2,3.9191754E-3,9.34552E-3,5.9305024E-3,1.384248E-2,1.7511422E-3,-1.1355684E-3,3.4049414E-2,-2.6501313E-2,-3.732004E-3,2.4597177E-3,3.4501173E-3,-1.5577355E-2,2.6163233E-3,-2.0571005E-4,-1.1890494E-2,6.50613E-3,1.7306896E-2,9.387007E-4,-3.1099005E-3,7.683246E-4,3.9437056E-2],"categories":[],"categories_nodes":[],"categories_segments":[],"categories_sizes":[],"default_left":[0,0,0,0,0,0,0,0,0,0,0,0,0,0,0,0,0,0,0,0,0,0,0,0,0,0,0,0,0,0,0,0,0,0,0,0,0],"id":21,"left_children":[1,3,5,7,-1,9,11,13,15,17,-1,-1,19,21,23,-1,-1,25,-1,-1,27,29,31,-1,33,-1,-1,-1,35,-1,-1,-1,-1,-1,-1,-1,-1],"loss_changes":[5.5273984E-2,4.993109E-1,8.346604E-2,1.7439137E-1,0E0,3.8094096E-2,2.0088229E-1,2.1832608E-1,2.096802E-2,5.9135742E-3,0E0,0E0,1.47413E-1,2.7503002E-1,3.5768172E-1,0E0,0E0,4.6403334E-4,0E0,0E0,2.224866E-1,2.2642742E-1,6.4796954E-2,0E0,6.9056824E-3,0E0,0E0,0E0,3.32073E-2,0E0,0E0,0E0,0E0,0E0,0E0,0E0,0E0],"parents":[2147483647,0,0,1,1,2,2,3,3,5,5,6,6,7,7,8,8,9,9,12,12,13,13,14,14,17,17,20,20,21,21,22,22,24,24,28,28],"right_children":[2,4,6,8,-1,10,12,14,16,18,-1,-1,20,22,24,-1,-1,26,-1,-1,28,30,32,-1,34,-1,-1,-1,36,-1,-1,-1,-1,-1,-1,-1,-1],"split_conditions":[7.1484175E0,7.1336894E0,7.222018E0,7.092396E0,-2.4564223E-2,7.20836E0,7.2363415E0,7.0466886E0,7.118737E0,7.1923323E0,1.1098369E-2,-1.4911868E-2,7.2515135E0,7.007393E0,7.062301E0,1.0168637E-2,3.9191754E-3,7.174373E0,5.9305024E-3,1.384248E-2,7.2655287E0,6.9804006E0,7.0323753E0,-2.6501313E-2,7.0778613E0,2.4597177E-3,3.4501173E-3,-1.5577355E-2,1.1498201E1,-2.0571005E-4,-1.1890494E-2,6.50613E-3,1.7306896E-2,9.387007E-4,-3.1099005E-3,7.683246E-4,3.9437056E-2],"split_indices":[0,0,0,0,0,0,0,0,0,0,0,0,0,0,0,0,0,0,0,0,0,0,0,0,0,0,0,0,0,0,0,0,0,0,0,0,0],"split_type":[0,0,0,0,0,0,0,0,0,0,0,0,0,0,0,0,0,0,0,0,0,0,0,0,0,0,0,0,0,0,0,0,0,0,0,0,0],"sum_hessian":[1.9131E4,1.3821E4,5.31E3,1.3746E4,7.5E1,3.74E2,4.936E3,1.3523E4,2.23E2,2.98E2,7.6E1,7.4E1,4.862E3,1.3299E4,2.24E2,1.49E2,7.4E1,2.25E2,7.3E1,7.5E1,4.787E3,1.3074E4,2.25E2,7.4E1,1.5E2,1.5E2,7.5E1,7.5E1,4.712E3,1.2924E4,1.5E2,1.49E2,7.6E1,7.4E1,7.6E1,4.711E3,1E0],"tree_param":{"num_deleted":"0","num_feature":"1","num_nodes":"37","size_leaf_vector":"1"}},{"base_weights":[4.046455E-6,-2.850646E-4,7.897713E-3,3.329293E-5,-2.6316296E-2,1.13795E-2,4.0301937E-3,-3.1720227E-4,2.4807166E-2,-2.5534803E-2,2.8670025E-3,3.6638393E-3,3.3521462E-2,-7.807475E-5,-1.6941236E-2,5.723454E-3,-4.2120386E-3,-1.9462744E-3,9.26174E-3,-3.6194563E-4,2.0703305E-2,9.588927E-3,-1.3545402E-2,7.3668296E-3,4.3961774E-3,-1.4276301E-6,-6.434358E-3,2.4827544E-3,3.232751E-3,-7.4178735E-3,-7.00034E-4,1.8986817E-3,2.803316E-3],"categories":[],"categories_nodes":[],"categories_segments":[],"categories_sizes":[],"default_left":[0,0,0,0,0,0,0,0,0,0,0,0,0,0,0,0,0,0,0,0,0,0,0,0,0,0,0,0,0,0,0,0,0],"id":22,"left_children":[1,3,5,7,9,-1,11,13,-1,-1,15,17,-1,19,-1,-1,-1,21,23,25,-1,27,29,31,-1,-1,-1,-1,-1,-1,-1,-1,-1],"loss_changes":[4.3664277E-2,1.5295845E-1,7.8369215E-2,5.2831197E-1,3.8290524E-1,0E0,2.3266185E-2,2.4383223E-1,0E0,0E0,4.1380536E-2,1.882954E-2,0E0,3.546756E-1,0E0,0E0,0E0,4.0269364E-2,2.957357E-3,1.3564423E-1,0E0,1.4615431E-4,1.8746166E-2,4.006168E-4,0E0,0E0,0E0,0E0,0E0,0E0,0E0,0E0,0E0],"parents":[2147483647,0,0,1,1,2,2,3,3,4,4,6,6,7,7,10,10,11,11,13,13,17,17,18,18,19,19,21,21,22,22,23,23],"right_children":[2,4,6,8,10,-1,12,14,-1,-1,16,18,-1,20,-1,-1,-1,22,24,26,-1,28,30,32,-1,-1,-1,-1,-1,-1,-1,-1,-1],"split_conditions":[8.392666E0,8.248764E0,8.441284E0,8.211064E0,8.294095E0,1.13795E-2,1.1498201E1,8.176717E0,2.4807166E-2,-2.5534803E-2,8.340355E0,8.803467E0,3.3521462E-2,8.145945E0,-1.6941236E-2,5.723454E-3,-4.2120386E-3,8.575985E0,9.825134E0,8.032379E0,2.0703305E-2,8.506942E0,8.676638E0,9.34837E0,4.3961774E-3,-1.4276301E-6,-6.434358E-3,2.4827544E-3,3.232751E-3,-7.4178735E-3,-7.00034E-4,1.8986817E-3,2.803316E-3],"split_indices":[0,0,0,0,0,0,0,0,0,0,0,0,0,0,0,0,0,0,0,0,0,0,0,0,0,0,0,0,0,0,0,0,0],"split_type":[0,0,0,0,0,0,0,0,0,0,0,0,0,0,0,0,0,0,0,0,0,0,0,0,0,0,0,0,0,0,0,0,0],"sum_hessian":[1.9131E4,1.8456E4,6.75E2,1.8234E4,2.22E2,7.6E1,5.99E2,1.8158E4,7.6E1,7.3E1,1.49E2,5.98E2,1E0,1.8082E4,7.6E1,7.6E1,7.3E1,2.99E2,2.99E2,1.8009E4,7.3E1,1.5E2,1.49E2,2.23E2,7.6E1,1.771E4,2.99E2,7.5E1,7.5E1,7.4E1,7.5E1,1.49E2,7.4E1],"tree_param":{"num_deleted":"0","num_feature":"1","num_nodes":"33","size_leaf_vector":"1"}},{"base_weights":[5.434098E-6,-1.7993621E-3,1.1820884E-3,-3.369511E-4,-4.4270396E-2,4.2424176E-2,6.372374E-4,-1.017978E-3,1.9798774E-2,1.454402E-3,2.3832642E-2,-2.1172263E-2,1.1074101E-3,-3.5268837E-4,-1.980229E-2,3.3941653E-2,6.649513E-4,-1.5745322E-3,2.8177118E-2,9.14604E-3,1.1110824E-2,-1.5356359E-2,1.0141785E-3,-3.0496018E-4,-8.198778E-3,2.4930231E-2,2.8747628E-3,4.9819993E-3,1.4074982E-4],"categories":[],"categories_nodes":[],"categories_segments":[],"categories_sizes":[],"default_left":[0,0,0,0,0,0,0,0,0,0,0,0,0,0,0,0,0,0,0,0,0,0,0,0,0,0,0,0,0],"id":23,"left_children":[1,3,5,7,-1,9,11,13,-1,-1,-1,-1,15,17,-1,19,21,23,25,-1,-1,-1,27,-1,-1,-1,-1,-1,-1],"loss_changes":[4.063125E-2,1.6096244E0,2.6022974E-1,3.3783656E-1,0E0,2.0965481E-1,3.8284063E-1,3.200165E-1,0E0,0E0,0E0,0E0,1.6498415E-1,2.554909E-1,0E0,4.851967E-4,2.03011E-1,1.0097229E-1,3.066096E-1,0E0,0E0,0E0,9.461004E-2,0E0,0E0,0E0,0E0,0E0,0E0],"parents":[2147483647,0,0,1,1,2,2,3,3,5,5,6,6,7,7,12,12,13,13,15,15,16,16,17,17,18,18,22,22],"right_children":[2,4,6,8,-1,10,12,14,-1,-1,-1,-1,16,18,-1,20,22,24,26,-1,-1,-1,28,-1,-1,-1,-1,-1,-1],"split_conditions":[5.856317E0,5.8429656E0,5.8857336E0,5.826962E0,-4.4270396E-2,5.869306E0,5.899693E0,5.812642E0,1.9798774E-2,1.454402E-3,2.3832642E-2,-2.1172263E-2,5.9342284E0,5.750777E0,-1.980229E-2,5.916629E0,5.95154E0,5.722289E0,5.764737E0,9.14604E-3,1.1110824E-2,-1.5356359E-2,6.040202E0,-3.0496018E-4,-8.198778E-3,2.4930231E-2,2.8747628E-3,4.9819993E-3,1.4074982E-4],"split_indices":[0,0,0,0,0,0,0,0,0,0,0,0,0,0,0,0,0,0,0,0,0,0,0,0,0,0,0,0,0],"split_type":[0,0,0,0,0,0,0,0,0,0,0,0,0,0,0,0,0,0,0,0,0,0,0,0,0,0,0,0,0],"sum_hessian":[1.9131E4,7.55E3,1.1581E4,7.476E3,7.4E1,1.5E2,1.1431E4,7.401E3,7.5E1,7.5E1,7.5E1,7.4E1,1.1357E4,7.327E3,7.4E1,1.5E2,1.1207E4,7.027E3,3E2,7.6E1,7.4E1,7.4E1,1.1133E4,6.879E3,1.48E2,7.5E1,2.25E2,3.75E2,1.0758E4],"tree_param":{"num_deleted":"0","num_feature":"1","num_nodes":"29","size_leaf_vector":"1"}},{"base_weights":[3.3106871E-6,-1.0867854E-2,1.7706903E-4,-5.160527E-3,-8.22119E-3,8.6565185E-3,6.2396546E-5,-1.5107256E-2,4.361724E-3,-7.7865687E-3,1.6822951E-4,-3.3334545E-3,-5.7182508E-3,6.6566863E-3,7.828199E-5,-1.2134326E-2,2.422711E-4,-3.5795238E-5,1.308149E-3],"categories":[],"categories_nodes":[],"categories_segments":[],"categories_sizes":[],"default_left":[0,0,0,0,0,0,0,0,0,0,0,0,0,0,0,0,0,0,0],"id":24,"left_children":[1,3,5,7,-1,-1,9,11,-1,-1,13,-1,-1,-1,15,-1,17,-1,-1],"loss_changes":[3.614142E-2,2.8266057E-2,6.192867E-2,4.4307645E-2,0E0,0E0,5.1654935E-2,2.157826E-3,0E0,0E0,3.7003856E-2,0E0,0E0,0E0,1.2367536E-1,0E0,2.7599555E-2,0E0,0E0],"parents":[2147483647,0,0,1,1,2,2,3,3,6,6,7,7,10,10,14,14,16,16],"right_children":[2,4,6,8,-1,-1,10,12,-1,-1,14,-1,-1,-1,16,-1,18,-1,-1],"split_conditions":[3.903788E0,3.816887E0,3.990305E0,3.671245E0,-8.22119E-3,8.6565185E-3,4.0487504E0,3.4135842E0,4.361724E-3,-7.7865687E-3,4.1082487E0,-3.3334545E-3,-5.7182508E-3,6.6566863E-3,4.150543E0,-1.2134326E-2,8.008736E0,-3.5795238E-5,1.308149E-3],"split_indices":[0,0,0,0,0,0,0,0,0,0,0,0,0,0,0,0,0,0,0],"split_type":[0,0,0,0,0,0,0,0,0,0,0,0,0,0,0,0,0,0,0],"sum_hessian":[1.9131E4,3E2,1.8831E4,2.24E2,7.6E1,7.4E1,1.8757E4,1.49E2,7.5E1,7.5E1,1.8682E4,7.6E1,7.3E1,7.5E1,1.8607E4,7.4E1,1.8533E4,1.7038E4,1.495E3],"tree_param":{"num_deleted":"0","num_feature":"1","num_nodes":"19","size_leaf_vector":"1"}},{"base_weights":[1.4188785E-6,-1.064952E-3,1.2477743E-3,-2.3522772E-4,-2.8657325E-2,3.9670393E-2,2.5590492E-4,-8.211159E-4,2.3218257E-2,-1.6139053E-2,-4.3111886E-3,4.6527155E-2,6.717865E-3,-3.3744223E-2,8.674746E-4,-4.9677776E-4,-1.3959539E-2,1.1580295E-2,-1.4317401E-2,1.2266827E-2,1.5302085E-2,-4.972323E-3,-1.49463145E-2,1.3295913E-2,5.2742276E-4,-9.852404E-4,1.7560486E-2,-7.3047285E-3,1.6378378E-2,-2.066538E-2,1.1745563E-3,3.4781315E-5,-4.805839E-3,-3.4092974E-3,-9.118443E-4,1.355448E-2,2.280835E-4],"categories":[],"categories_nodes":[],"categories_segments":[],"categories_sizes":[],"default_left":[0,0,0,0,0,0,0,0,0,0,0,0,0,0,0,0,0,0,0,0,0,0,0,0,0,0,0,0,0,0,0,0,0,0,0,0,0],"id":25,"left_children":[1,3,5,7,9,11,13,15,-1,-1,17,19,-1,21,23,25,-1,-1,-1,-1,-1,-1,-1,27,29,31,-1,33,-1,-1,35,-1,-1,-1,-1,-1,-1],"loss_changes":[2.5429232E-2,2.3605393E-1,3.3619827E-1,4.553854E-1,1.8399513E-1,2.5257945E-2,1.7887372E-1,1.4730005E-1,0E0,0E0,2.8873906E-1,1.9047856E-3,0E0,4.113172E-2,3.570533E-2,2.8459948E-1,0E0,0E0,0E0,0E0,0E0,0E0,0E0,1.9182414E-1,3.6958337E-1,1.6204572E-1,0E0,2.5800504E-3,0E0,0E0,1.4856777E-1,0E0,0E0,0E0,0E0,0E0,0E0],"parents":[2147483647,0,0,1,1,2,2,3,3,4,4,5,5,6,6,7,7,10,10,11,11,13,13,14,14,15,15,23,23,24,24,25,25,27,27,30,30],"right_children":[2,4,6,8,10,12,14,16,-1,-1,18,20,-1,22,24,26,-1,-1,-1,-1,-1,-1,-1,28,30,32,-1,34,-1,-1,36,-1,-1,-1,-1,-1,-1],"split_conditions":[6.4515986E0,6.3939843E0,6.50256E0,6.3774114E0,6.4242578E0,6.487588E0,6.533222E0,6.3625693E0,2.3218257E-2,-1.6139053E-2,6.4386535E0,6.467809E0,6.717865E-3,6.5165544E0,6.5806947E0,6.349139E0,-1.3959539E-2,1.1580295E-2,-1.4317401E-2,1.2266827E-2,1.5302085E-2,-4.972323E-3,-1.49463145E-2,6.564212E0,6.594356E0,6.203115E0,1.7560486E-2,6.5486374E0,1.6378378E-2,-2.066538E-2,6.609738E0,3.4781315E-5,-4.805839E-3,-3.4092974E-3,-9.118443E-4,1.355448E-2,2.280835E-4],"split_indices":[0,0,0,0,0,0,0,0,0,0,0,0,0,0,0,0,0,0,0,0,0,0,0,0,0,0,0,0,0,0,0,0,0,0,0,0,0],"split_type":[0,0,0,0,0,0,0,0,0,0,0,0,0,0,0,0,0,0,0,0,0,0,0,0,0,0,0,0,0,0,0,0,0,0,