{"learner":{"attributes":{"scikit_learn":"{\"_estimator_type\": \"regressor\"}"},"feature_names":[],"feature_types":[],"gradient_booster":{"model":{"gbtree_model_param":{"num_parallel_tree":"1","num_trees":"100"},"iteration_indptr":[0,1,2,3,4,5,6,7,8,9,10,11,12,13,14,15,16,17,18,19,20,21,22,23,24,25,26,27,28,29,30,31,32,33,34,35,36,37,38,39,40,41,42,43,44,45,46,47,48,49,50,51,52,53,54,55,56,57,58,59,60,61,62,63,64,65,66,67,68,69,70,71,72,73,74,75,76,77,78,79,80,81,82,83,84,85,86,87,88,89,90,91,92,93,94,95,96,97,98,99,100],"tree_info":[0,0,0,0,0,0,0,0,0,0,0,0,0,0,0,0,0,0,0,0,0,0,0,0,0,0,0,0,0,0,0,0,0,0,0,0,0,0,0,0,0,0,0,0,0,0,0,0,0,0,0,0,0,0,0,0,0,0,0,0,0,0,0,0,0,0,0,0,0,0,0,0,0,0,0,0,0,0,0,0,0,0,0,0,0,0,0,0,0,0,0,0,0,0,0,0,0,0,0,0],"trees":[{"base_weights":[-8.755102E-8,3.9935827E-1,-2.1300666E-1,6.756659E-1,2.7207136E-1,-1.2931198E-1,-6.64159E-1,-3.6001343E-2,8.3155936E-1,-7.6878615E-2,2.9962808E-1,-1.5772613E-2,-2.1347125E-1,-5.828369E-1,-4.6973577E-1,-2.5023028E-1,2.787062E-1,9.5856166E-1,6.625005E-1,5.1863855E-1,2.0825697E-1,-3.129248E-1,2.7960192E-3,-4.6904996E-1,-1.9637255E-1,-3.106066E-1,-5.606512E-1,-2.3970239E-2,-1.0004779E-1,1.8875705E-1,-2.5333872E-2,1.0437897E0,8.796107E-1,-3.1269617E-2,7.450614E-1,8.5484076E-1,4.7156742E-1,2.112676E-2,2.948369E-1,-4.9679456E-3,1.2752977E-1,-2.4680506E-1,-3.8546756E-1,-1.24703445E-1,-2.4303761E-1,-5.2189803E-1,-7.3739016E-1,2.9062155E-1,4.0973037E-1,1.2139341E-1,2.8685036E-1,4.0407524E-1,1.9824271E-1,2.1248434E-1,2.9030183E-1,-9.640506E-3,1.791349E-1,5.462506E-2,-4.9725637E-2,2.6506385E-1,4.9677584E-2,1.329318E-1,-3.6553806E-3,-8.9623466E-2,-1.4076208E-1,-5.657273E-2,6.585062E-3,-1.2985641E-1,-6.434329E-2,-1.9292654E-1,-1.429911E-1,-2.522621E-1,-1.8490493E-1],"categories":[],"categories_nodes":[],"categories_segments":[],"categories_sizes":[],"default_left":[0,0,0,0,0,0,0,0,0,0,0,0,0,0,0,0,0,0,0,0,0,0,0,0,0,0,0,0,0,0,0,0,0,0,0,0,0,0,0,0,0,0,0,0,0,0,0,0,0,0,0,0,0,0,0,0,0,0,0,0,0,0,0,0,0,0,0,0,0,0,0,0,0],"id":0,"left_children":[1,3,5,7,9,11,13,15,17,-1,19,21,23,25,-1,27,29,31,33,35,37,-1,39,41,43,-1,45,-1,-1,-1,-1,47,49,-1,51,53,55,57,59,61,-1,-1,63,65,67,69,71,-1,-1,-1,-1,-1,-1,-1,-1,-1,-1,-1,-1,-1,-1,-1,-1,-1,-1,-1,-1,-1,-1,-1,-1,-1,-1],"loss_changes":[4.494885E2,6.445926E1,1.300318E2,6.426666E1,1.842128E1,2.7783714E1,3.8608047E1,7.148784E0,9.563629E0,0E0,2.3865448E1,2.3637758E1,7.2058945E0,4.3990936E0,0E0,8.6682177E-1,5.5261345E0,8.91922E-1,1.3181198E1,5.1674347E0,1.3716629E1,0E0,3.995626E0,2.7568645E0,5.21043E0,0E0,2.8685303E0,0E0,0E0,0E0,0E0,1.6733704E0,4.9219513E0,0E0,8.5923E0,9.151459E-3,1.9686607E1,8.121545E0,4.3908466E1,3.8760123E0,0E0,0E0,4.8436737E-1,5.8117456E0,5.0464325E0,1.8491669E0,5.213585E-1,0E0,0E0,0E0,0E0,0E0,0E0,0E0,0E0,0E0,0E0,0E0,0E0,0E0,0E0,0E0,0E0,0E0,0E0,0E0,0E0,0E0,0E0,0E0,0E0,0E0,0E0],"parents":[2147483647,0,0,1,1,2,2,3,3,4,4,5,5,6,6,7,7,8,8,10,10,11,11,12,12,13,13,15,15,16,16,17,17,18,18,19,19,20,20,22,22,23,23,24,24,26,26,31,31,32,32,34,34,35,35,36,36,37,37,38,38,39,39,42,42,43,43,44,44,45,45,46,46],"right_children":[2,4,6,8,10,12,14,16,18,-1,20,22,24,26,-1,28,30,32,34,36,38,-1,40,42,44,-1,46,-1,-1,-1,-1,48,50,-1,52,54,56,58,60,62,-1,-1,64,66,68,70,72,-1,-1,-1,-1,-1,-1,-1,-1,-1,-1,-1,-1,-1,-1,-1,-1,-1,-1,-1,-1,-1,-1,-1,-1,-1,-1],"split_conditions":[-8.799985E-3,-5.8229543E-2,8.02853E-2,-1.0239383E-1,-5.517672E-2,2.5053732E-2,1.5297647E-1,-1.17065154E-1,-7.208198E-2,-7.6878615E-2,-3.812377E-2,-8.079328E-3,2.7120776E-2,8.1171006E-2,-4.6973577E-1,-1.4507061E-1,-1.0754729E-1,-8.515608E-2,-7.118998E-2,-5.3451903E-2,-2.802752E-2,-3.129248E-1,2.4639994E-2,2.5555387E-2,4.623113E-2,-3.106066E-1,1.233837E-1,-2.3970239E-2,-1.0004779E-1,1.8875705E-1,-2.5333872E-2,-8.645762E-2,-8.304417E-2,-3.1269617E-2,-6.9677964E-2,-5.460243E-2,-4.9419075E-2,-3.2685123E-2,-2.4627432E-2,-7.3940083E-3,1.2752977E-1,-2.4680506E-1,2.6435703E-2,4.049012E-2,4.885775E-2,8.812247E-2,1.331901E-1,2.9062155E-1,4.0973037E-1,1.2139341E-1,2.8685036E-1,4.0407524E-1,1.9824271E-1,2.1248434E-1,2.9030183E-1,-9.640506E-3,1.791349E-1,5.462506E-2,-4.9725637E-2,2.6506385E-1,4.9677584E-2,1.329318E-1,-3.6553806E-3,-8.9623466E-2,-1.4076208E-1,-5.657273E-2,6.585062E-3,-1.2985641E-1,-6.434329E-2,-1.9292654E-1,-1.429911E-1,-2.522621E-1,-1.8490493E-1],"split_indices":[0,0,0,0,0,0,0,0,0,0,0,0,0,0,0,0,0,0,0,0,0,0,0,0,0,0,0,0,0,0,0,0,0,0,0,0,0,0,0,0,0,0,0,0,0,0,0,0,0,0,0,0,0,0,0,0,0,0,0,0,0,0,0,0,0,0,0,0,0,0,0,0,0],"split_type":[0,0,0,0,0,0,0,0,0,0,0,0,0,0,0,0,0,0,0,0,0,0,0,0,0,0,0,0,0,0,0,0,0,0,0,0,0,0,0,0,0,0,0,0,0,0,0,0,0,0,0,0,0,0,0,0,0,0,0,0,0,0,0,0,0,0,0,0,0,0,0,0,0],"sum_hessian":[5.282E3,1.837E3,3.445E3,5.78E2,1.259E3,2.907E3,5.38E2,1.04E2,4.74E2,6.2E1,1.197E3,1.238E3,1.669E3,4.95E2,4.3E1,6.2E1,4.2E1,2.68E2,2.06E2,3.51E2,8.46E2,2.1E1,1.217E3,1.03E2,1.566E3,2.1E1,4.74E2,2.1E1,4.1E1,2.1E1,2.1E1,1.23E2,1.45E2,2E1,1.86E2,4.1E1,3.1E2,2.68E2,5.78E2,1.196E3,2.1E1,1.8E1,8.5E1,6.19E2,9.47E2,3.92E2,8.2E1,1.03E2,2E1,2.1E1,1.24E2,2.1E1,1.65E2,2.1E1,2E1,6.2E1,2.48E2,1.44E2,1.24E2,1.03E2,4.75E2,1.8E1,1.178E3,4.4E1,4.1E1,4.31E2,1.88E2,1.22E2,8.25E2,1.03E2,2.89E2,4.1E1,4.1E1],"tree_param":{"num_deleted":"0","num_feature":"1","num_nodes":"73","size_leaf_vector":"1"}},{"base_weights":[5.739114E-5,2.8098395E-1,-1.49781E-1,4.8818037E-1,1.9508645E-1,-9.078566E-2,-4.6779338E-1,-2.4825728E-2,6.1116993E-1,1.830926E-1,2.6521307E-1,-1.1086067E-2,-1.4986171E-1,-4.1017073E-1,-1.106726E0,-1.771299E-1,1.9889493E-1,6.5266156E-1,4.3051824E-1,2.857981E-1,1.1796518E-1,-2.2331451E-1,2.1681113E-3,-3.210386E-1,-1.3628298E-1,-2.216602E-1,-3.9408338E-1,-2.6568234E-1,-3.8103366E-1,-1.7106067E-2,-7.0748135E-2,1.3470393E-1,-1.807917E-2,2.3275532E-1,6.122252E-1,2.9437613E-1,1.6789542E-1,1.4878115E-2,3.567647E-1,-1.2729271E-1,1.7373031E-1,1.7343669E-1,-1.00242635E-2,-1.7666043E-1,-2.690213E-1,-5.1194024E-3,-1.6409223E-1,-1.6995858E-2,-4.095666E-1,8.7533526E-2,1.9145499E-1,1.0171483E-1,7.089665E-2,9.232402E-2,-5.4181132E-2,1.8310788E-1,9.764781E-2,1.9593537E-2,-1.7704996E-1,1.2163121E-1,2.3588605E-2,-4.8752774E-2,1.565532E-1,-7.321966E-2,5.8069294E-3,-6.333393E-2,-9.239064E-2,-2.8624035E-2,2.795684E-1,-1.0730067E-1,-4.187409E-2,-1.6540994E-1,-1.13048255E-1],"categories":[],"categories_nodes":[],"categories_segments":[],"categories_sizes":[],"default_left":[0,0,0,0,0,0,0,0,0,0,0,0,0,0,0,0,0,0,0,0,0,0,0,0,0,0,0,0,0,0,0,0,0,0,0,0,0,0,0,0,0,0,0,0,0,0,0,0,0,0,0,0,0,0,0,0,0,0,0,0,0,0,0,0,0,0,0,0,0,0,0,0,0],"id":1,"left_children":[1,3,5,7,9,11,13,15,17,19,-1,21,23,25,27,29,31,33,35,37,39,-1,41,43,45,-1,47,-1,-1,-1,-1,-1,-1,-1,49,51,-1,53,55,57,59,61,63,-1,65,67,69,-1,71,-1,-1,-1,-1,-1,-1,-1,-1,-1,-1,-1,-1,-1,-1,-1,-1,-1,-1,-1,-1,-1,-1,-1,-1],"loss_changes":[2.2242249E2,3.2616867E1,6.4608795E1,3.395996E1,1.05886345E1,1.3690184E1,1.9390411E1,3.6129572E0,2.9720612E0,8.528133E0,0E0,1.204374E1,3.8379326E0,2.3315964E0,4.6479416E-1,4.307096E-1,2.814333E0,1.273468E0,1.3120098E0,9.530922E0,1.0758433E1,0E0,2.5451305E0,1.541256E0,5.649231E0,0E0,2.4584427E0,0E0,0E0,0E0,0E0,0E0,0E0,0E0,2.0513763E0,3.1394005E-2,0E0,6.0096326E0,2.9179916E0,1.3054676E1,1.4070982E1,9.565531E0,7.829948E0,0E0,1.6954327E-1,2.3101963E1,6.0141068E0,0E0,1.8998871E0,0E0,0E0,0E0,0E0,0E0,0E0,0E0,0E0,0E0,0E0,0E0,0E0,0E0,0E0,0E0,0E0,0E0,0E0,0E0,0E0,0E0,0E0,0E0,0E0],"parents":[2147483647,0,0,1,1,2,2,3,3,4,4,5,5,6,6,7,7,8,8,9,9,11,11,12,12,13,13,14,14,15,15,16,16,17,17,18,18,19,19,20,20,22,22,23,23,24,24,26,26,34,34,35,35,37,37,38,38,39,39,40,40,41,41,42,42,44,44,45,45,46,46,48,48],"right_children":[2,4,6,8,10,12,14,16,18,20,-1,22,24,26,28,30,32,34,36,38,40,-1,42,44,46,-1,48,-1,-1,-1,-1,-1,-1,-1,50,52,-1,54,56,58,60,62,64,-1,66,68,70,-1,72,-1,-1,-1,-1,-1,-1,-1,-1,-1,-1,-1,-1,-1,-1,-1,-1,-1,-1,-1,-1,-1,-1,-1,-1],"split_conditions":[-8.799985E-3,-6.0862556E-2,8.02853E-2,-1.0239383E-1,-9.460434E-3,2.5053732E-2,1.5297647E-1,-1.17065154E-1,-6.695267E-2,-3.6302656E-2,2.6521307E-1,-8.079328E-3,2.7508393E-2,8.1171006E-2,1.6257444E-1,-1.4507061E-1,-1.0754729E-1,-8.887868E-2,-6.3218415E-2,-5.517672E-2,-3.1184874E-2,-2.2331451E-1,-5.3313226E-3,2.5555387E-2,3.5888746E-2,-2.216602E-1,8.2597375E-2,-2.6568234E-1,-3.8103366E-1,-1.7106067E-2,-7.0748135E-2,1.3470393E-1,-1.807917E-2,2.3275532E-1,-8.645762E-2,-6.531613E-2,1.6789542E-1,-5.8229543E-2,-5.3451903E-2,-3.2685123E-2,-2.4627432E-2,-6.625563E-3,-1.3393611E-3,-1.7666043E-1,2.6435703E-2,3.520082E-2,4.049012E-2,-1.6995858E-2,8.812247E-2,8.7533526E-2,1.9145499E-1,1.0171483E-1,7.089665E-2,9.232402E-2,-5.4181132E-2,1.8310788E-1,9.764781E-2,1.9593537E-2,-1.7704996E-1,1.2163121E-1,2.3588605E-2,-4.8752774E-2,1.565532E-1,-7.321966E-2,5.8069294E-3,-6.333393E-2,-9.239064E-2,-2.8624035E-2,2.795684E-1,-1.0730067E-1,-4.187409E-2,-1.6540994E-1,-1.13048255E-1],"split_indices":[0,0,0,0,0,0,0,0,0,0,0,0,0,0,0,0,0,0,0,0,0,0,0,0,0,0,0,0,0,0,0,0,0,0,0,0,0,0,0,0,0,0,0,0,0,0,0,0,0,0,0,0,0,0,0,0,0,0,0,0,0,0,0,0,0,0,0,0,0,0,0,0,0],"split_type":[0,0,0,0,0,0,0,0,0,0,0,0,0,0,0,0,0,0,0,0,0,0,0,0,0,0,0,0,0,0,0,0,0,0,0,0,0,0,0,0,0,0,0,0,0,0,0,0,0,0,0,0,0,0,0,0,0,0,0,0,0,0,0,0,0,0,0,0,0,0,0,0,0],"sum_hessian":[5.282E3,1.837E3,3.445E3,5.37E2,1.3E3,2.907E3,5.38E2,1.04E2,4.33E2,1.279E3,2.1E1,1.238E3,1.669E3,4.95E2,4.3E1,6.2E1,4.2E1,3.5E2,8.3E1,4.95E2,7.84E2,2.1E1,1.217E3,1.21E2,1.548E3,2.1E1,4.74E2,2.1E1,2.2E1,2.1E1,4.1E1,2.1E1,2.1E1,8.2E1,2.68E2,4.2E1,4.1E1,1.03E2,3.92E2,1.45E2,6.39E2,8E1,1.137E3,1.8E1,1.03E2,2.71E2,1.277E3,2.1E1,4.53E2,2.1E1,2.47E2,2.1E1,2.1E1,4.1E1,6.2E1,4.1E1,3.51E2,1.03E2,4.2E1,1.85E2,4.54E2,4.1E1,3.9E1,1.26E2,1.011E3,4.4E1,5.9E1,2.48E2,2.3E1,1.42E2,1.135E3,8.2E1,3.71E2],"tree_param":{"num_deleted":"0","num_feature":"1","num_nodes":"73","size_leaf_vector":"1"}},{"base_weights":[1.6590331E-5,1.974793E-1,-1.05304495E-1,3.4336394E-1,1.3700011E-1,-6.369222E-2,-3.2961473E-1,-1.7103944E-2,4.2978275E-1,-1.21860035E-1,1.4579809E-1,-7.907875E-3,-1.05041385E-1,-2.7695093E-1,-7.1615154E-1,-1.2538531E-1,1.4193863E-1,5.3667784E-1,3.8578027E-1,2.409585E-1,1.3420402E-1,-1.593654E-1,1.5508529E-3,-2.0190272E-1,-9.1425E-2,-1.5818478E-1,-2.642383E-1,-1.7859897E-1,-2.7169362E-1,-1.2207514E-2,-1.6676326E-1,9.6129574E-2,-1.290192E-2,4.797176E-1,2.3796313E-1,3.1805094E-2,4.056734E-1,1.2527649E-1,1.8926573E-1,1.0900726E-1,-4.179045E-3,-1.4887914E-1,-1.2507091E-1,6.834495E-2,-1.1498141E-1,-2.2110167E-1,-3.3800566E-1,-4.0787764E-2,-5.7327922E-2,1.6377003E-1,6.2467117E-2,1.445067E-1,1.037967E-1,-3.818481E-2,4.1606557E-2,-1.4662896E-1,1.7116728E-3,-6.472812E-2,8.960889E-2,-5.4545915E-3,1.9919254E-1,-7.533555E-2,-2.9322969E-2,-8.389795E-2,1.5148646E-1,-2.4768701E-1,-7.966612E-2],"categories":[],"categories_nodes":[],"categories_segments":[],"categories_sizes":[],"default_left":[0,0,0,0,0,0,0,0,0,0,0,0,0,0,0,0,0,0,0,0,0,0,0,0,0,0,0,0,0,0,0,0,0,0,0,0,0,0,0,0,0,0,0,0,0,0,0,0,0,0,0,0,0,0,0,0,0,0,0,0,0,0,0,0,0,0,0],"id":2,"left_children":[1,3,5,7,9,11,13,15,17,-1,19,21,23,25,27,29,31,33,35,-1,37,-1,39,41,43,-1,45,-1,-1,-1,47,-1,-1,49,-1,-1,51,53,-1,-1,55,57,-1,59,61,63,65,-1,-1,-1,-1,-1,-1,-1,-1,-1,-1,-1,-1,-1,-1,-1,-1,-1,-1,-1,-1],"loss_changes":[1.0989127E2,1.616961E1,3.214418E1,1.67667E1,6.276783E0,6.706867E0,1.0773815E1,1.8260384E0,1.834343E0,0E0,9.65587E0,6.133686E0,2.184105E0,1.3754768E0,9.2612076E-1,2.1399432E-1,1.4332726E0,1.4313889E0,1.6878242E0,0E0,5.5079803E0,0E0,2.526573E0,2.27495E0,5.5253086E0,0E0,1.3731117E0,0E0,0E0,0E0,5.4963827E-3,0E0,0E0,1.7550201E0,0E0,0E0,1.1490555E0,4.214552E0,0E0,0E0,5.750705E0,5.033559E0,0E0,9.752763E0,2.9746094E0,1.2471005E1,5.64534E0,0E0,0E0,0E0,0E0,0E0,0E0,0E0,0E0,0E0,0E0,0E0,0E0,0E0,0E0,0E0,0E0,0E0,0E0,0E0,0E0],"parents":[2147483647,0,0,1,1,2,2,3,3,4,4,5,5,6,6,7,7,8,8,10,10,11,11,12,12,13,13,14,14,15,15,16,16,17,17,18,18,20,20,22,22,23,23,24,24,26,26,30,30,33,33,36,36,37,37,40,40,41,41,43,43,44,44,45,45,46,46],"right_children":[2,4,6,8,10,12,14,16,18,-1,20,22,24,26,28,30,32,34,36,-1,38,-1,40,42,44,-1,46,-1,-1,-1,48,-1,-1,50,-1,-1,52,54,-1,-1,56,58,-1,60,62,64,66,-1,-1,-1,-1,-1,-1,-1,-1,-1,-1,-1,-1,-1,-1,-1,-1,-1,-1,-1,-1],"split_conditions":[-8.799985E-3,-6.0862556E-2,8.02853E-2,-1.0239383E-1,-5.9567854E-2,2.5053732E-2,1.4202215E-1,-1.17065154E-1,-8.515608E-2,-1.21860035E-1,-5.8229543E-2,-8.079328E-3,3.003861E-2,8.1171006E-2,1.6257444E-1,-1.4507061E-1,-1.0754729E-1,-8.645762E-2,-8.304417E-2,2.409585E-1,-9.460434E-3,-1.593654E-1,-7.3940083E-3,2.89938E-2,3.5888746E-2,-1.5818478E-1,1.0533271E-1,-1.7859897E-1,-2.7169362E-1,-1.2207514E-2,-1.2474626E-1,9.6129574E-2,-1.290192E-2,-8.887868E-2,2.3796313E-1,3.1805094E-2,-7.208198E-2,-5.517672E-2,1.8926573E-1,1.0900726E-1,-6.625563E-3,2.8181084E-2,-1.2507091E-1,3.520082E-2,4.049012E-2,1.02538235E-1,1.0711511E-1,-4.0787764E-2,-5.7327922E-2,1.6377003E-1,6.2467117E-2,1.445067E-1,1.037967E-1,-3.818481E-2,4.1606557E-2,-1.4662896E-1,1.7116728E-3,-6.472812E-2,8.960889E-2,-5.4545915E-3,1.9919254E-1,-7.533555E-2,-2.9322969E-2,-8.389795E-2,1.5148646E-1,-2.4768701E-1,-7.966612E-2],"split_indices":[0,0,0,0,0,0,0,0,0,0,0,0,0,0,0,0,0,0,0,0,0,0,0,0,0,0,0,0,0,0,0,0,0,0,0,0,0,0,0,0,0,0,0,0,0,0,0,0,0,0,0,0,0,0,0,0,0,0,0,0,0,0,0,0,0,0,0],"split_type":[0,0,0,0,0,0,0,0,0,0,0,0,0,0,0,0,0,0,0,0,0,0,0,0,0,0,0,0,0,0,0,0,0,0,0,0,0,0,0,0,0,0,0,0,0,0,0,0,0,0,0,0,0,0,0,0,0,0,0,0,0,0,0,0,0,0,0],"sum_hessian":[5.282E3,1.837E3,3.445E3,5.37E2,1.3E3,2.907E3,5.38E2,1.04E2,4.33E2,2E1,1.28E3,1.238E3,1.669E3,4.75E2,6.3E1,6.2E1,4.2E1,1.23E2,3.1E2,2.1E1,1.259E3,2.1E1,1.217E3,2.04E2,1.465E3,2.1E1,4.54E2,4.1E1,2.2E1,2.1E1,4.1E1,2.1E1,2.1E1,1.03E2,2E1,2.1E1,2.89E2,1.238E3,2.1E1,1.8E1,1.199E3,1.65E2,3.9E1,1.88E2,1.277E3,2.89E2,1.65E2,2.1E1,2E1,8.2E1,2.1E1,1.24E2,1.65E2,6.2E1,1.176E3,2.3E1,1.176E3,1.44E2,2.1E1,1.65E2,2.3E1,1.42E2,1.135E3,2.68E2,2.1E1,2E1,1.45E2],"tree_param":{"num_deleted":"0","num_feature":"1","num_nodes":"67","size_leaf_vector":"1"}},{"base_weights":[2.998171E-6,1.2045048E-1,-9.064222E-2,2.1361539E-1,5.330873E-2,-4.8745703E-2,-2.0142922E-1,-8.952096E-2,2.3488112E-1,2.7958184E-2,3.5574993E-1,-5.879898E-2,4.543504E-1,-1.754556E-1,-5.083419E-1,-8.711727E-3,-1.1907049E-1,3.018524E-1,1.8134363E-1,5.222441E-2,-1.2628615E-1,3.3860525E-1,1.414252E-1,-2.5272048E-1,-4.441939E-2,1.5917054E-1,1.09501705E-1,-1.5440091E-1,-1.6564518E-1,-1.2629502E-1,-1.9372933E-1,-2.9107653E-2,-4.0948566E-2,2.655336E-1,4.8787907E-1,8.894846E-2,3.3485734E-1,-1.0873616E-1,6.1005335E-2,-1.9335529E-1,-4.6786983E-2,8.0729626E-2,1.0057066E-1,-1.7114542E-1,-4.356335E-1,-1.8756159E-2,-1.6493195E-1,-1.298605E-1,-2.2121891E-1,9.198727E-2,-1.0669299E-1,2.0381354E-1,1.1278611E-1,4.516775E-2,-2.3801861E-2,3.2847637E-1,7.1006246E-2,1.6385478E-1,1.5119318E-2,1.4024138E-1,-3.7006456E-2,5.4535095E-2,-3.4758363E-2,-7.2727665E-2,4.8149575E-2,-1.5568201E-1,-9.7485654E-2,-1.0284006E-2,1.118524E-1,-2.3468664E-1,-3.7579805E-2,-4.613875E-2,1.0446631E-1,-1.8053366E-1,-5.678181E-2],"categories":[],"categories_nodes":[],"categories_segments":[],"categories_sizes":[],"default_left":[0,0,0,0,0,0,0,0,0,0,0,0,0,0,0,0,0,0,0,0,0,0,0,0,0,0,0,0,0,0,0,0,0,0,0,0,0,0,0,0,0,0,0,0,0,0,0,0,0,0,0,0,0,0,0,0,0,0,0,0,0,0,0,0,0,0,0,0,0,0,0,0,0,0,0],"id":3,"left_children":[1,3,5,7,9,11,13,15,17,19,21,23,25,27,29,-1,31,33,35,37,39,-1,41,43,45,-1,-1,-1,47,-1,-1,-1,-1,49,51,53,55,-1,57,-1,59,61,-1,63,65,67,69,71,73,-1,-1,-1,-1,-1,-1,-1,-1,-1,-1,-1,-1,-1,-1,-1,-1,-1,-1,-1,-1,-1,-1,-1,-1,-1,-1],"loss_changes":[5.769065E1,1.4181786E1,1.3984575E1,6.1451225E0,1.0110558E1,1.1098164E1,6.5033493E0,1.0913658E-1,3.1291618E0,4.5692234E0,1.6737587E1,5.9757094E0,9.9155426E-2,2.4572105E0,4.9646568E-1,0E0,2.889812E-3,2.525669E0,7.0054436E0,3.859999E0,6.8088737E0,0E0,9.257742E-1,2.1337729E0,6.18239E0,0E0,0E0,0E0,1.4508572E0,0E0,0E0,0E0,0E0,8.5576725E0,1.0949049E0,3.2365E0,1.3619307E1,0E0,5.2888823E0,0E0,5.767135E0,1.2726382E0,0E0,2.4974298E0,2.462902E-1,1.0043302E1,8.497308E0,5.260138E0,3.4117622E0,0E0,0E0,0E0,0E0,0E0,0E0,0E0,0E0,0E0,0E0,0E0,0E0,0E0,0E0,0E0,0E0,0E0,0E0,0E0,0E0,0E0,0E0,0E0,0E0,0E0,0E0],"parents":[2147483647,0,0,1,1,2,2,3,3,4,4,5,5,6,6,7,7,8,8,9,9,10,10,11,11,12,12,13,13,14,14,16,16,17,17,18,18,19,19,20,20,22,22,23,23,24,24,28,28,33,33,34,34,35,35,36,36,38,38,40,40,41,41,43,43,44,44,45,45,46,46,47,47,48,48],"right_children":[2,4,6,8,10,12,14,16,18,20,22,24,26,28,30,-1,32,34,36,38,40,-1,42,44,46,-1,-1,-1,48,-1,-1,-1,-1,50,52,54,56,-1,58,-1,60,62,-1,64,66,68,70,72,74,-1,-1,-1,-1,-1,-1,-1,-1,-1,-1,-1,-1,-1,-1,-1,-1,-1,-1,-1,-1,-1,-1,-1,-1,-1,-1],"split_conditions":[3.8787127E-3,-3.958884E-2,6.656707E-2,-1.17065154E-1,1.2966543E-3,6.493035E-2,1.4202215E-1,-1.4507061E-1,-6.695267E-2,-3.297411E-3,1.6562417E-3,7.620722E-3,6.5677546E-2,6.728774E-2,1.6257444E-1,-8.711727E-3,-1.2474626E-1,-7.118998E-2,-4.828912E-2,-3.8990043E-2,-2.629131E-3,3.3860525E-1,3.372565E-3,6.3215196E-3,5.3005926E-2,1.5917054E-1,1.09501705E-1,-1.5440091E-1,9.2830025E-2,-1.2629502E-1,-1.9372933E-1,-2.9107653E-2,-4.0948566E-2,-7.208198E-2,-6.9677964E-2,-5.3451903E-2,-4.7543824E-2,-1.0873616E-1,-3.812377E-2,-1.9335529E-1,-2.0252168E-3,2.7772337E-3,1.0057066E-1,5.810529E-3,7.035516E-3,5.1214457E-2,5.3795524E-2,9.114838E-2,9.4558395E-2,9.198727E-2,-1.0669299E-1,2.0381354E-1,1.1278611E-1,4.516775E-2,-2.3801861E-2,3.2847637E-1,7.1006246E-2,1.6385478E-1,1.5119318E-2,1.4024138E-1,-3.7006456E-2,5.4535095E-2,-3.4758363E-2,-7.2727665E-2,4.8149575E-2,-1.5568201E-1,-9.7485654E-2,-1.0284006E-2,1.118524E-1,-2.3468664E-1,-3.7579805E-2,-4.613875E-2,1.0446631E-1,-1.8053366E-1,-5.678181E-2],"split_indices":[0,0,0,0,0,0,0,0,0,0,0,0,0,0,0,0,0,0,0,0,0,0,0,0,0,0,0,0,0,0,0,0,0,0,0,0,0,0,0,0,0,0,0,0,0,0,0,0,0,0,0,0,0,0,0,0,0,0,0,0,0,0,0,0,0,0,0,0,0,0,0,0,0,0,0],"split_type":[0,0,0,0,0,0,0,0,0,0,0,0,0,0,0,0,0,0,0,0,0,0,0,0,0,0,0,0,0,0,0,0,0,0,0,0,0,0,0,0,0,0,0,0,0,0,0,0,0,0,0,0,0,0,0,0,0,0,0,0,0,0,0,0,0,0,0,0,0,0,0,0,0,0,0],"sum_hessian":[5.282E3,2.268E3,3.014E3,9.49E2,1.319E3,2.188E3,8.26E2,6.2E1,8.87E2,1.218E3,1.01E2,2.146E3,4.2E1,7.63E2,6.3E1,2.1E1,4.1E1,3.92E2,4.95E2,1.053E3,1.65E2,2.1E1,8E1,1.47E2,1.999E3,2E1,2.2E1,2E1,7.43E2,4.1E1,2.2E1,2.1E1,2E1,3.3E2,6.2E1,3.1E2,1.85E2,2.1E1,1.032E3,2.1E1,1.44E2,6.2E1,1.8E1,1.03E2,4.4E1,1.649E3,3.5E2,4.54E2,2.89E2,3.1E2,2E1,2.1E1,4.1E1,2.27E2,8.3E1,2E1,1.65E2,2.1E1,1.011E3,1.8E1,1.26E2,4.1E1,2.1E1,8.5E1,1.8E1,2.3E1,2.1E1,1.587E3,6.2E1,2E1,3.3E2,4.33E2,2.1E1,2.1E1,2.68E2],"tree_param":{"num_deleted":"0","num_feature":"1","num_nodes":"75","size_leaf_vector":"1"}},{"base_weights":[4.9341994E-5,1.23843014E-1,-4.5663547E-2,9.984434E-2,3.0525565E-1,-5.056359E-3,-1.1494281E-1,1.4617336E-1,-1.1049658E-1,2.4900483E-1,1.2082055E-1,-1.8930548E-1,1.5289168E-3,-4.4573936E-1,-9.957982E-2,-3.366214E-2,1.6634189E-1,-6.9479406E-2,-1.5345007E-1,1.6977035E-1,7.072995E-2,-2.6237625E-1,-1.1691442E-1,1.7981614E-1,-6.802942E-3,-6.961742E-2,-1.664213E-1,1.481088E-1,-1.0877566E-1,-1.104276E-2,-3.554909E-2,2.3603818E-1,1.2380347E-1,-1.4652088E-1,1.1016403E-1,9.602503E-2,9.275301E-2,-1.4303284E-2,1.3542858E-1,-3.555304E-2,-1.1812449E-1,-2.1607628E-2,-4.7558863E-2,-1.1962229E-2,8.799629E-2,-1.0485541E-1,-3.8785862E-3,-1.9614679E-1,-9.879087E-2,-1.9174503E-2,4.2259827E-2,6.333981E-2,1.0396218E-1,1.6023673E-2,5.813034E-2,-3.0822188E-3,-1.417922E-1,1.2797849E-1,-1.40801845E-2,3.346724E-2,2.3050152E-2,4.7161225E-2,3.2161236E-2,1.0558984E-1,-1.1804667E-1,-3.7433116E-3,3.0919183E-2,3.9639022E-2,-3.546648E-2],"categories":[],"categories_nodes":[],"categories_segments":[],"categories_sizes":[],"default_left":[0,0,0,0,0,0,0,0,0,0,0,0,0,0,0,0,0,0,0,0,0,0,0,0,0,0,0,0,0,0,0,0,0,0,0,0,0,0,0,0,0,0,0,0,0,0,0,0,0,0,0,0,0,0,0,0,0,0,0,0,0,0,0,0,0,0,0,0,0],"id":4,"left_children":[1,3,5,7,9,11,13,15,17,-1,19,21,23,25,27,29,31,33,-1,35,37,39,41,43,45,-1,-1,-1,47,49,-1,51,53,55,57,59,-1,-1,61,-1,-1,-1,-1,63,-1,-1,65,-1,67,-1,-1,-1,-1,-1,-1,-1,-1,-1,-1,-1,-1,-1,-1,-1,-1,-1,-1,-1,-1],"loss_changes":[2.9901976E1,6.1734924E0,1.0855696E1,1.2294712E1,1.5965902E1,2.953538E0,7.2025814E0,3.752308E0,3.7146144E0,0E0,2.920307E-1,4.136567E-1,3.4935493E0,1.3385963E0,7.4952354E0,2.0017715E-1,2.725048E0,2.8948607E0,0E0,6.077063E-1,4.8908776E-1,7.282362E-1,7.077652E-2,2.2891247E0,2.2506347E0,0E0,0E0,0E0,7.249696E0,6.836715E-1,0E0,8.92828E-1,2.8411522E0,6.4823294E0,3.151793E0,3.9482415E-3,0E0,0E0,8.345783E-3,0E0,0E0,0E0,0E0,5.6924286E0,0E0,0E0,2.0511E0,0E0,5.9428997E0,0E0,0E0,0E0,0E0,0E0,0E0,0E0,0E0,0E0,0E0,0E0,0E0,0E0,0E0,0E0,0E0,0E0,0E0,0E0,0E0],"parents":[2147483647,0,0,1,1,2,2,3,3,4,4,5,5,6,6,7,7,8,8,10,10,11,11,12,12,13,13,14,14,15,15,16,16,17,17,19,19,20,20,21,21,22,22,23,23,24,24,28,28,29,29,31,31,32,32,33,33,34,34,35,35,38,38,43,43,46,46,48,48],"right_children":[2,4,6,8,10,12,14,16,18,-1,20,22,24,26,28,30,32,34,-1,36,38,40,42,44,46,-1,-1,-1,48,50,-1,52,54,56,58,60,-1,-1,62,-1,-1,-1,-1,64,-1,-1,66,-1,68,-1,-1,-1,-1,-1,-1,-1,-1,-1,-1,-1,-1,-1,-1,-1,-1,-1,-1,-1,-1],"split_conditions":[-2.284795E-2,-2.802752E-2,4.747998E-2,-3.6302656E-2,-2.689585E-2,-1.9932583E-2,4.885775E-2,-1.0239383E-1,-2.854567E-2,2.4900483E-1,-2.4627432E-2,-2.1401212E-2,-1.6400062E-2,4.8001416E-2,4.9576595E-2,-1.0754729E-1,-6.695267E-2,-3.1184874E-2,-1.5345007E-1,-2.524545E-2,-2.3900531E-2,-2.212736E-2,-2.0709395E-2,-1.8518493E-2,-1.569958E-2,-6.961742E-2,-1.664213E-1,1.481088E-1,5.008284E-2,-1.17065154E-1,-3.554909E-2,-7.118998E-2,-4.9419075E-2,-3.2685123E-2,-3.0430764E-2,-2.6087664E-2,9.275301E-2,-1.4303284E-2,-2.330482E-2,-3.555304E-2,-1.1812449E-1,-2.1607628E-2,-4.7558863E-2,-1.9160077E-2,8.799629E-2,-1.0485541E-1,4.2899273E-2,-1.9614679E-1,5.3005926E-2,-1.9174503E-2,4.2259827E-2,6.333981E-2,1.0396218E-1,1.6023673E-2,5.813034E-2,-3.0822188E-3,-1.417922E-1,1.2797849E-1,-1.40801845E-2,3.346724E-2,2.3050152E-2,4.7161225E-2,3.2161236E-2,1.0558984E-1,-1.1804667E-1,-3.7433116E-3,3.0919183E-2,3.9639022E-2,-3.546648E-2],"split_indices":[0,0,0,0,0,0,0,0,0,0,0,0,0,0,0,0,0,0,0,0,0,0,0,0,0,0,0,0,0,0,0,0,0,0,0,0,0,0,0,0,0,0,0,0,0,0,0,0,0,0,0,0,0,0,0,0,0,0,0,0,0,0,0,0,0,0,0,0,0],"split_type":[0,0,0,0,0,0,0,0,0,0,0,0,0,0,0,0,0,0,0,0,0,0,0,0,0,0,0,0,0,0,0,0,0,0,0,0,0,0,0,0,0,0,0,0,0,0,0,0,0,0,0,0,0,0,0,0,0,0,0,0,0,0,0,0,0,0,0,0,0],"sum_hessian":[5.282E3,1.424E3,3.858E3,1.259E3,1.65E2,2.433E3,1.425E3,1.032E3,2.27E2,4.2E1,1.23E2,8.3E1,2.35E3,6.2E1,1.363E3,1.04E2,9.28E2,2.07E2,2E1,6.1E1,6.2E1,4E1,4.3E1,1.04E2,2.246E3,2.2E1,4E1,2E1,1.343E3,8.3E1,2.1E1,3.5E2,5.78E2,1.45E2,6.2E1,4.1E1,2E1,2.2E1,4E1,2E1,2E1,2.2E1,2.1E1,3.9E1,6.5E1,1.8E1,2.228E3,2.3E1,1.32E3,6.2E1,2.1E1,2.88E2,6.2E1,2.89E2,2.89E2,1.03E2,4.2E1,2E1,4.2E1,2E1,2.1E1,2E1,2E1,2E1,1.9E1,2.063E3,1.65E2,1.02E2,1.218E3],"tree_param":{"num_deleted":"0","num_feature":"1","num_nodes":"69","size_leaf_vector":"1"}},{"base_weights":[3.5108096E-5,4.937322E-2,-6.132853E-2,4.5916248E-2,1.7292573E-1,-1.9233246E-1,-5.5837322E-2,1.0940035E-1,1.6104884E-2,-4.4008106E-2,-2.62781E-1,-2.3682117E-2,1.2618516E-1,2.1602783E-2,-2.2102924E-1,8.4225774E-2,-4.7553506E-2,-1.993213E-1,-3.7651676E-1,-7.4550197E-3,-2.53691E-2,2.253437E-1,1.085154E-1,1.6325122E-2,1.6613625E-1,-9.8649226E-2,-2.801424E-2,-3.5794377E-2,-9.221122E-2,-9.493197E-2,-7.745699E-2,-9.213368E-2,-1.2796003E-1,-1.3513439E-2,3.0158186E-2,5.5243276E-2,1.2559456E-1,2.4397666E-2,5.8794912E-2,6.6976533E-3,-4.6578065E-2,-1.32137565E-2,2.813894E-2,-4.5886822E-2,-1.7136617E-2,1.41737005E-2,-6.1322834E-2],"categories":[],"categories_nodes":[],"categories_segments":[],"categories_sizes":[],"default_left":[0,0,0,0,0,0,0,0,0,0,0,0,0,0,0,0,0,0,0,0,0,0,0,0,0,0,0,0,0,0,0,0,0,0,0,0,0,0,0,0,0,0,0,0,0,0,0],"id":5,"left_children":[1,3,5,7,-1,-1,9,11,13,15,17,19,21,23,25,-1,27,29,31,33,-1,35,37,39,-1,-1,-1,41,43,-1,45,-1,-1,-1,-1,-1,-1,-1,-1,-1,-1,-1,-1,-1,-1,-1,-1],"loss_changes":[1.599766E1,5.3101196E0,7.461794E0,5.5074434E0,0E0,0E0,5.7020245E0,2.08039E0,2.5887868E0,2.5568085E0,8.343744E-1,1.0310231E-1,1.4227877E0,5.4342027E0,5.885248E-1,0E0,1.1446466E0,1.1601131E0,2.174759E-2,3.454868E-1,0E0,9.1045046E-1,1.6559591E0,1.9802573E0,0E0,0E0,0E0,1.8561859E0,9.610889E-1,0E0,6.7457235E-1,0E0,0E0,0E0,0E0,0E0,0E0,0E0,0E0,0E0,0E0,0E0,0E0,0E0,0E0,0E0,0E0],"parents":[2147483647,0,0,1,1,2,2,3,3,6,6,7,7,8,8,9,9,10,10,11,11,12,12,13,13,14,14,16,16,17,17,18,18,19,19,21,21,22,22,23,23,27,27,28,28,30,30],"right_children":[2,4,6,8,-1,-1,10,12,14,16,18,20,22,24,26,-1,28,30,32,34,-1,36,38,40,-1,-1,-1,42,44,-1,46,-1,-1,-1,-1,-1,-1,-1,-1,-1,-1,-1,-1,-1,-1,-1,-1],"split_conditions":[2.1730915E-2,2.113153E-2,2.2242583E-2,-4.0397078E-2,1.7292573E-1,-1.9233246E-1,1.233837E-1,-1.0239383E-1,1.9909866E-2,2.269411E-2,1.5297647E-1,-1.0754729E-1,-8.515608E-2,1.9413479E-2,2.0601116E-2,8.4225774E-2,7.810585E-2,1.331901E-1,1.6257444E-1,-1.17065154E-1,-2.53691E-2,-8.645762E-2,-4.828912E-2,1.777953E-2,1.6613625E-1,-9.8649226E-2,-2.801424E-2,7.252261E-2,8.812247E-2,-9.493197E-2,1.4202215E-1,-9.213368E-2,-1.2796003E-1,-1.3513439E-2,3.0158186E-2,5.5243276E-2,1.2559456E-1,2.4397666E-2,5.8794912E-2,6.6976533E-3,-4.6578065E-2,-1.32137565E-2,2.813894E-2,-4.5886822E-2,-1.7136617E-2,1.41737005E-2,-6.1322834E-2],"split_indices":[0,0,0,0,0,0,0,0,0,0,0,0,0,0,0,0,0,0,0,0,0,0,0,0,0,0,0,0,0,0,0,0,0,0,0,0,0,0,0,0,0,0,0,0,0,0,0],"split_type":[0,0,0,0,0,0,0,0,0,0,0,0,0,0,0,0,0,0,0,0,0,0,0,0,0,0,0,0,0,0,0,0,0,0,0,0,0,0,0,0,0,0,0,0,0,0,0],"sum_hessian":[5.282E3,2.928E3,2.354E3,2.91E3,1.8E1,2.1E1,2.333E3,9.29E2,1.981E3,2.208E3,1.25E2,1.04E2,8.25E2,1.937E3,4.4E1,2.3E1,2.185E3,8.2E1,4.3E1,8.3E1,2.1E1,1.23E2,7.02E2,1.919E3,1.8E1,2.3E1,2.1E1,1.731E3,4.54E2,4.1E1,4.1E1,2.1E1,2.2E1,6.2E1,2.1E1,1.03E2,2E1,5.37E2,1.65E2,1.855E3,6.4E1,1.628E3,1.03E2,1.65E2,2.89E2,2.1E1,2E1],"tree_param":{"num_deleted":"0","num_feature":"1","num_nodes":"47","size_leaf_vector":"1"}},{"base_weights":[7.370713E-6,4.581838E-2,-3.4468647E-2,3.367401E-2,2.2348024E-1,-1.8171552E-1,-2.6858114E-2,3.9411183E-2,-1.5496168E-1,3.769512E-1,9.756554E-2,-1.2296419E-1,-3.1345823E-1,-1.6334523E-2,-1.4806084E-1,9.605569E-2,1.7893111E-2,1.555348E-1,2.4079494E-1,5.391725E-2,7.114772E-2,-1.7346367E-1,3.3625264E-2,-1.1177283E-1,-7.0415385E-2,-2.0369612E-2,1.3943014E-1,-1.4566647E-1,-1.13441534E-1,8.029295E-2,1.4744698E-1,-1.73935E-1,2.6135787E-2,9.9482924E-2,-1.5930023E-2,1.2566304E-1,-2.5650831E-2,-1.20506E-2,-2.1591023E-1,6.329404E-2,-3.411858E-2,6.721473E-2,-1.5233171E-1,2.9335458E-2,-1.11497E-1,-6.2469058E-2,-4.5548864E-2,9.223324E-2,5.3443727E-3,4.4947085E-3,6.2414788E-2,-9.612222E-2,-4.5317054E-2,-4.6817595E-3,8.1225805E-2,-1.3463306E-1,-8.890368E-3,-3.480321E-2,-8.0569156E-2],"categories":[],"categories_nodes":[],"categories_segments":[],"categories_sizes":[],"default_left":[0,0,0,0,0,0,0,0,0,0,0,0,0,0,0,0,0,0,0,0,0,0,0,0,0,0,0,0,0,0,0,0,0,0,0,0,0,0,0,0,0,0,0,0,0,0,0,0,0,0,0,0,0,0,0,0,0,0,0],"id":6,"left_children":[1,3,5,7,9,11,13,15,-1,17,19,21,23,25,27,29,31,33,-1,35,-1,37,-1,-1,-1,39,-1,-1,41,43,-1,45,47,-1,-1,49,-1,-1,51,53,55,-1,57,-1,-1,-1,-1,-1,-1,-1,-1,-1,-1,-1,-1,-1,-1,-1,-1],"loss_changes":[8.34545E0,4.8880506E0,3.37381E0,6.7282734E0,2.7652383E0,1.1069851E0,3.6556811E0,2.5628057E0,0E0,6.0018425E0,4.8074752E-1,1.2539039E0,1.2202215E-1,5.134469E0,2.6205106E0,3.5695176E0,2.4174218E0,1.6339648E0,0E0,6.4092094E-1,0E0,4.7790766E-1,0E0,0E0,0E0,3.0147662E0,0E0,0E0,2.777269E0,4.4475904E0,0E0,1.6145587E-2,3.421493E0,0E0,0E0,3.7986267E-1,0E0,0E0,3.921051E-1,6.0605574E0,4.170209E0,0E0,7.6251745E-1,0E0,0E0,0E0,0E0,0E0,0E0,0E0,0E0,0E0,0E0,0E0,0E0,0E0,0E0,0E0,0E0],"parents":[2147483647,0,0,1,1,2,2,3,3,4,4,5,5,6,6,7,7,9,9,10,10,11,11,12,12,13,13,14,14,15,15,16,16,17,17,19,19,21,21,25,25,28,28,29,29,31,31,32,32,35,35,38,38,39,39,40,40,42,42],"right_children":[2,4,6,8,10,12,14,16,-1,18,20,22,24,26,28,30,32,34,-1,36,-1,38,-1,-1,-1,40,-1,-1,42,44,-1,46,48,-1,-1,50,-1,-1,52,54,56,-1,58,-1,-1,-1,-1,-1,-1,-1,-1,-1,-1,-1,-1,-1,-1,-1,-1],"split_conditions":[3.8787127E-3,3.0265749E-4,7.620722E-3,-2.8206408E-4,1.6562417E-3,6.3215196E-3,1.0533271E-1,-5.8229543E-2,-1.5496168E-1,1.2966543E-3,3.372565E-3,5.810529E-3,7.035516E-3,1.02538235E-1,1.0711511E-1,-5.9567854E-2,-5.517672E-2,8.1596524E-4,2.4079494E-1,2.7772337E-3,7.114772E-2,4.3737143E-3,3.3625264E-2,-1.1177283E-1,-7.0415385E-2,1.777953E-2,1.3943014E-1,-1.4566647E-1,1.09674275E-1,-6.0862556E-2,1.4744698E-1,-5.7317823E-2,-5.3451903E-2,9.9482924E-2,-1.5930023E-2,2.122067E-3,-2.5650831E-2,-1.20506E-2,4.99174E-3,1.5327111E-2,1.8445738E-2,6.721473E-2,1.5297647E-1,2.9335458E-2,-1.11497E-1,-6.2469058E-2,-4.5548864E-2,9.223324E-2,5.3443727E-3,4.4947085E-3,6.2414788E-2,-9.612222E-2,-4.5317054E-2,-4.6817595E-3,8.1225805E-2,-1.3463306E-1,-8.890368E-3,-3.480321E-2,-8.0569156E-2],"split_indices":[0,0,0,0,0,0,0,0,0,0,0,0,0,0,0,0,0,0,0,0,0,0,0,0,0,0,0,0,0,0,0,0,0,0,0,0,0,0,0,0,0,0,0,0,0,0,0,0,0,0,0,0,0,0,0,0,0,0,0],"split_type":[0,0,0,0,0,0,0,0,0,0,0,0,0,0,0,0,0,0,0,0,0,0,0,0,0,0,0,0,0,0,0,0,0,0,0,0,0,0,0,0,0,0,0,0,0,0,0,0,0,0,0,0,0,0,0,0,0,0,0],"sum_hessian":[5.282E3,2.268E3,3.014E3,2.124E3,1.44E2,1.47E2,2.867E3,2.103E3,2.1E1,6.4E1,8E1,1.03E2,4.4E1,2.639E3,2.28E2,5.78E2,1.525E3,4.3E1,2.1E1,6.2E1,1.8E1,8.5E1,1.8E1,2.3E1,2.1E1,2.618E3,2.1E1,2E1,2.08E2,5.57E2,2.1E1,6.2E1,1.463E3,2.3E1,2E1,4.1E1,2.1E1,2.1E1,6.4E1,3.69E2,2.249E3,2.1E1,1.87E2,5.37E2,2E1,2.1E1,4.1E1,4.1E1,1.422E3,1.8E1,2.3E1,2.3E1,4.1E1,2.68E2,1.01E2,2.3E1,2.226E3,1.44E2,4.3E1],"tree_param":{"num_deleted":"0","num_feature":"1","num_nodes":"59","size_leaf_vector":"1"}},{"base_weights":[-1.13706665E-5,1.9429699E-2,-4.6931155E-2,1.4292572E-2,4.5015654E-1,-1.09716E-1,-4.273056E-2,1.8668724E-2,-2.0544027E-1,2.4504799E-1,1.3907394E-2,-2.634443E-2,-9.724542E-2,1.3543806E-2,3.1677014E-1,-3.26694E-2,9.2160404E-2,-1.1122585E-1,-7.882853E-2,1.9208362E-2,-2.7335015E-1,5.083492E-1,-4.3067604E-2,-2.735769E-2,-9.5535524E-2,-4.32366E-2,-1.3667536E-1,1.45822745E-2,-4.5309655E-5,2.0539226E-1,8.479976E-2,-1.0412416E-2,1.0392467E-1,-1.9580526E-2,4.3499324E-2,-3.461099E-2,-6.812113E-2],"categories":[],"categories_nodes":[],"categories_segments":[],"categories_sizes":[],"default_left":[0,0,0,0,0,0,0,0,0,0,0,0,0,0,0,0,0,0,0,0,0,0,0,0,0,0,0,0,0,0,0,0,0,0,0,0,0],"id":7,"left_children":[1,3,5,7,9,-1,11,13,-1,-1,-1,15,17,19,21,23,-1,-1,25,27,-1,29,-1,31,-1,33,35,-1,-1,-1,-1,-1,-1,-1,-1,-1,-1],"loss_changes":[4.81991E0,8.260208E0,2.0573032E0,1.13109255E1,6.4768105E0,0E0,1.3632748E0,5.6040626E0,0E0,0E0,0E0,2.493113E0,1.7488904E0,1.8926962E1,5.5407176E0,1.7460865E0,0E0,0E0,6.7763877E-1,2.0426903E0,0E0,1.557064E0,0E0,3.133034E0,0E0,8.67923E-1,2.1646667E-1,0E0,0E0,0E0,0E0,0E0,0E0,0E0,0E0,0E0,0E0],"parents":[2147483647,0,0,1,1,2,2,3,3,4,4,6,6,7,7,11,11,12,12,13,13,14,14,15,15,18,18,19,19,21,21,23,23,25,25,26,26],"right_children":[2,4,6,8,10,-1,12,14,-1,-1,-1,16,18,20,22,24,-1,-1,26,28,-1,30,-1,32,-1,34,36,-1,-1,-1,-1,-1,-1,-1,-1,-1,-1],"split_conditions":[4.3974325E-2,4.2899273E-2,4.4507474E-2,4.2144313E-2,4.3321148E-2,-1.09716E-1,9.2830025E-2,4.049012E-2,-2.0544027E-1,2.4504799E-1,1.3907394E-2,9.114838E-2,9.4558395E-2,3.97785E-2,4.1708946E-2,8.9907676E-2,9.2160404E-2,-1.1122585E-1,1.233837E-1,-2.284795E-2,-2.7335015E-1,4.138606E-2,-4.3067604E-2,8.812247E-2,-9.5535524E-2,1.18509024E-1,1.6257444E-1,1.45822745E-2,-4.5309655E-5,2.0539226E-1,8.479976E-2,-1.0412416E-2,1.0392467E-1,-1.9580526E-2,4.3499324E-2,-3.461099E-2,-6.812113E-2],"split_indices":[0,0,0,0,0,0,0,0,0,0,0,0,0,0,0,0,0,0,0,0,0,0,0,0,0,0,0,0,0,0,0,0,0,0,0,0,0],"split_type":[0,0,0,0,0,0,0,0,0,0,0,0,0,0,0,0,0,0,0,0,0,0,0,0,0,0,0,0,0,0,0,0,0,0,0,0,0],"sum_hessian":[5.282E3,3.735E3,1.547E3,3.692E3,4.3E1,1.9E1,1.528E3,3.67E3,2.2E1,2.2E1,2.1E1,1.176E3,3.52E2,3.609E3,6.1E1,1.155E3,2.1E1,2.1E1,3.31E2,3.588E3,2.1E1,4.3E1,1.8E1,1.135E3,2E1,2.06E2,1.25E2,1.424E3,2.164E3,2.3E1,2E1,1.114E3,2.1E1,1.85E2,2.1E1,1.03E2,2.2E1],"tree_param":{"num_deleted":"0","num_feature":"1","num_nodes":"37","size_leaf_vector":"1"}},{"base_weights":[-3.973715E-5,9.487456E-3,-5.1385153E-2,5.772526E-3,3.9069504E-1,-9.0862766E-2,-4.477711E-2,9.704275E-3,-1.995533E-1,1.3311683E-1,9.75875E-2,4.834205E-2,-5.048373E-2,5.001312E-3,1.44542E-1,-4.4265383E-1,4.8298523E-2,-2.5477505E-1,-3.889887E-2,7.375793E-3,-1.3995443E-1,1.5977234E-1,-1.7284326E-2,-4.824015E-2,-2.074725E-1,-1.01543395E-2,3.9616995E-2,-1.0165194E-1,-4.888523E-2,2.0667803E-2,-6.1702956E-2,3.8770433E-3,-1.8440327E-2,-1.8538299E-1,3.9925855E-2,6.481709E-5,6.0540464E-2,-7.0849665E-2,-1.625227E-2],"categories":[],"categories_nodes":[],"categories_segments":[],"categories_sizes":[],"default_left":[0,0,0,0,0,0,0,0,0,0,0,0,0,0,0,0,0,0,0,0,0,0,0,0,0,0,0,0,0,0,0,0,0,0,0,0,0,0,0],"id":8,"left_children":[1,3,5,7,9,-1,11,13,15,-1,-1,-1,17,19,21,23,25,27,29,31,-1,-1,33,-1,-1,-1,-1,-1,-1,35,37,-1,-1,-1,-1,-1,-1,-1,-1],"loss_changes":[2.584813E0,6.309566E0,1.3607972E0,3.5661204E0,4.793167E-3,0E0,9.5643365E-1,2.7469919E0,5.022372E0,0E0,0E0,0E0,1.8503046E0,4.6923504E0,9.177109E0,2.8354826E0,2.9344755E-1,2.6899147E-1,1.0132563E0,1.5926464E0,0E0,0E0,9.475664E0,0E0,0E0,0E0,0E0,0E0,0E0,7.6678807E-1,6.951721E-1,0E0,0E0,0E0,0E0,0E0,0E0,0E0,0E0],"parents":[2147483647,0,0,1,1,2,2,3,3,4,4,6,6,7,7,8,8,12,12,13,13,14,14,15,15,16,16,17,17,18,18,19,19,22,22,29,29,30,30],"right_children":[2,4,6,8,10,-1,12,14,16,-1,-1,-1,18,20,22,24,26,28,30,32,-1,-1,34,-1,-1,-1,-1,-1,-1,36,38,-1,-1,-1,-1,-1,-1,-1,-1],"split_conditions":[6.656707E-2,6.493035E-2,6.728774E-2,6.1916456E-2,6.5677546E-2,-9.0862766E-2,6.816798E-2,5.7062477E-2,6.368174E-2,1.3311683E-1,9.75875E-2,4.834205E-2,7.0097156E-2,5.657693E-2,5.838348E-2,6.2799886E-2,6.4302236E-2,6.916502E-2,8.02853E-2,4.747998E-2,-1.3995443E-1,1.5977234E-1,5.9124805E-2,-4.824015E-2,-2.074725E-1,-1.01543395E-2,3.9616995E-2,-1.0165194E-1,-4.888523E-2,7.9251364E-2,8.1171006E-2,3.8770433E-3,-1.8440327E-2,-1.8538299E-1,3.9925855E-2,6.481709E-5,6.0540464E-2,-7.0849665E-2,-1.625227E-2],"split_indices":[0,0,0,0,0,0,0,0,0,0,0,0,0,0,0,0,0,0,0,0,0,0,0,0,0,0,0,0,0,0,0,0,0,0,0,0,0,0,0],"split_type":[0,0,0,0,0,0,0,0,0,0,0,0,0,0,0,0,0,0,0,0,0,0,0,0,0,0,0,0,0,0,0,0,0,0,0,0,0,0,0],"sum_hessian":[5.282E3,4.456E3,8.26E2,4.414E3,4.2E1,2E1,8.06E2,4.332E3,8.2E1,2E1,2.2E1,2.1E1,7.85E2,4.187E3,1.45E2,4.1E1,4.1E1,4.1E1,7.44E2,4.167E3,2E1,4.2E1,1.03E2,2E1,2.1E1,2.1E1,2E1,2E1,2.1E1,2.06E2,5.38E2,3.857E3,3.1E2,2E1,8.3E1,1.86E2,2E1,2.1E1,5.17E2],"tree_param":{"num_deleted":"0","num_feature":"1","num_nodes":"39","size_leaf_vector":"1"}},{"base_weights":[-9.518976E-5,3.0161213E-2,-1.12678455E-2,9.586076E-3,1.8615225E-1,-1.5085179E-1,-8.15971E-3,2.8987035E-2,-1.6680652E-1,1.67103E-1,5.604712E-2,-2.028984E-1,-9.8925345E-2,1.1086789E-1,-1.1561055E-2,2.0612312E-2,1.3563469E-1,-3.6393785E-1,-6.2668525E-2,9.123737E-2,2.0525808E-2,-2.993045E-2,-8.891004E-2,-1.9962367E-2,-3.8485464E-2,-2.4162013E-2,1.9102436E-1,-1.949423E-1,-9.487764E-3,3.088482E-2,-1.5480213E-1,-8.617723E-2,-1.272227E-1,8.269857E-2,-1.7445059E-1,3.8787927E-2,5.753749E-2,-1.895145E-2,6.697733E-2,7.0885904E-2,-8.89274E-2,5.0245516E-2,6.832522E-2,-7.956589E-2,-3.8523402E-2,-3.349241E-3,-4.8201893E-2,-1.9200027E-2,1.2272115E-2,-1.8892013E-2,-1.1832189E-1,1.5190482E-2,7.7148983E-3,2.4971945E-2,1.4257632E-2,-1.425324E-3,5.8587193E-2,-5.8786817E-2,-1.0346176E-2],"categories":[],"categories_nodes":[],"categories_segments":[],"categories_sizes":[],"default_left":[0,0,0,0,0,0,0,0,0,0,0,0,0,0,0,0,0,0,0,0,0,0,0,0,0,0,0,0,0,0,0,0,0,0,0,0,0,0,0,0,0,0,0,0,0,0,0,0,0,0,0,0,0,0,0,0,0,0,0],"id":9,"left_children":[1,3,5,7,9,11,13,15,17,-1,19,21,23,25,27,29,-1,31,33,35,37,-1,-1,-1,-1,39,41,43,45,47,-1,-1,-1,-1,49,51,-1,-1,53,-1,-1,-1,-1,-1,-1,55,57,-1,-1,-1,-1,-1,-1,-1,-1,-1,-1,-1,-1],"loss_changes":[1.7862283E0,4.5718055E0,1.6729796E0,4.3167887E0,7.978364E0,2.0694637E-1,1.5300099E0,4.016192E0,2.5433009E0,0E0,1.5312773E-1,3.6564827E-1,3.3298224E-2,1.1410853E0,1.3942543E0,6.1622925E0,0E0,7.647085E-2,3.1870892E0,3.1954974E-1,2.491667E-1,0E0,0E0,0E0,0E0,2.9064553E0,1.8913269E-2,1.5764332E-1,8.629745E-1,1.0439174E0,0E0,0E0,0E0,0E0,1.519926E0,5.2019507E-3,0E0,0E0,9.013787E-3,0E0,0E0,0E0,0E0,0E0,0E0,8.7418187E-1,1.0003604E0,0E0,0E0,0E0,0E0,0E0,0E0,0E0,0E0,0E0,0E0,0E0,0E0],"parents":[2147483647,0,0,1,1,2,2,3,3,4,4,5,5,6,6,7,7,8,8,10,10,11,11,12,12,13,13,14,14,15,15,17,17,18,18,19,19,20,20,25,25,26,26,27,27,28,28,29,29,34,34,35,35,38,38,45,45,46,46],"right_children":[2,4,6,8,10,12,14,16,18,-1,20,22,24,26,28,30,-1,32,34,36,38,-1,-1,-1,-1,40,42,44,46,48,-1,-1,-1,-1,50,52,-1,-1,54,-1,-1,-1,-1,-1,-1,56,58,-1,-1,-1,-1,-1,-1,-1,-1,-1,-1,-1,-1],"split_conditions":[-2.284795E-2,-2.802752E-2,-1.9932583E-2,-3.2685123E-2,-2.689585E-2,-2.1401212E-2,-1.6400062E-2,-3.3534877E-2,-3.1184874E-2,1.67103E-1,-2.4627432E-2,-2.212736E-2,-2.0709395E-2,-1.8518493E-2,-1.4948189E-2,-3.4401E-2,1.3563469E-1,-3.1989418E-2,-3.0430764E-2,-2.524545E-2,-2.3900531E-2,-2.993045E-2,-8.891004E-2,-1.9962367E-2,-3.8485464E-2,-1.9160077E-2,-1.7246097E-2,-1.569958E-2,8.2597375E-2,-1.0239383E-1,-1.5480213E-1,-8.617723E-2,-1.272227E-1,8.269857E-2,-2.854567E-2,-2.6087664E-2,5.753749E-2,-1.895145E-2,-2.330482E-2,7.0885904E-2,-8.89274E-2,5.0245516E-2,6.832522E-2,-7.956589E-2,-3.8523402E-2,8.1171006E-2,8.5156456E-2,-1.9200027E-2,1.2272115E-2,-1.8892013E-2,-1.1832189E-1,1.5190482E-2,7.7148983E-3,2.4971945E-2,1.4257632E-2,-1.425324E-3,5.8587193E-2,-5.8786817E-2,-1.0346176E-2],"split_indices":[0,0,0,0,0,0,0,0,0,0,0,0,0,0,0,0,0,0,0,0,0,0,0,0,0,0,0,0,0,0,0,0,0,0,0,0,0,0,0,0,0,0,0,0,0,0,0,0,0,0,0,0,0,0,0,0,0,0,0],"split_type":[0,0,0,0,0,0,0,0,0,0,0,0,0,0,0,0,0,0,0,0,0,0,0,0,0,0,0,0,0,0,0,0,0,0,0,0,0,0,0,0,0,0,0,0,0,0,0,0,0,0,0,0,0,0,0,0,0,0,0],"sum_hessian":[5.282E3,1.424E3,3.858E3,1.259E3,1.65E2,8.3E1,3.775E3,1.135E3,1.24E2,4.2E1,1.23E2,4E1,4.3E1,1.04E2,3.671E3,1.114E3,2.1E1,4.2E1,8.2E1,6.1E1,6.2E1,2E1,2E1,2.2E1,2.1E1,3.9E1,6.5E1,4E1,3.631E3,1.094E3,2E1,2.1E1,2.1E1,2E1,6.2E1,4.1E1,2E1,2.2E1,4E1,2E1,1.9E1,4.3E1,2.2E1,1.8E1,2.2E1,3.135E3,4.96E2,1.04E2,9.9E2,4.2E1,2E1,2E1,2.1E1,2E1,2E1,3.114E3,2.1E1,4.1E1,4.55E2],"tree_param":{"num_deleted":"0","num_feature":"1","num_nodes":"59","size_leaf_vector":"1"}},{"base_weights":[-1.10707726E-4,4.2326517E-2,-5.3330334E-3,3.1247346E-2,9.6423194E-2,-1.5371245E-1,-3.3185522E-3,4.3913558E-2,-8.842108E-2,-5.3380504E-2,-1.3736463E-1,1.8740746E-1,-5.0584855E-3,-3.7742257E-2,6.846202E-2,-2.6563164E-2,-5.3316724E-2,2.756432E-2,8.356757E-2,-8.4295325E-2,-2.516511E-3,-5.988681E-2,-1.4998618E-2,9.230068E-2,5.48971E-2,2.1020123E-1,-5.4946616E-3,-5.0448454E-3,-2.4306528E-2,1.3333459E-2,-1.3733571E-2,2.8323635E-5,2.5976954E-2,-8.450431E-4,1.9091144E-1,-9.364471E-4,-2.0110898E-2],"categories":[],"categories_nodes":[],"categories_segments":[],"categories_sizes":[],"default_left":[0,0,0,0,0,0,0,0,0,0,0,0,0,0,0,0,0,0,0,0,0,0,0,0,0,0,0,0,0,0,0,0,0,0,0,0,0],"id":10,"left_children":[1,3,5,7,-1,9,11,13,-1,-1,15,17,19,21,23,-1,-1,-1,-1,-1,25,27,29,-1,31,33,35,-1,-1,-1,-1,-1,-1,-1,-1,-1,-1],"loss_changes":[1.1710495E0,1.7802365E0,1.4058499E0,2.316917E0,0E0,5.0508976E-4,1.5417303E0,1.0810181E0,0E0,0E0,6.70163E-2,3.4011376E-1,3.2271204E0,6.205775E-2,1.3264664E0,0E0,0E0,0E0,0E0,0E0,2.890574E0,5.598618E-2,1.17303684E-1,0E0,6.8257284E-1,5.721055E0,6.568648E-1,0E0,0E0,0E0,0E0,0E0,0E0,0E0,0E0,0E0,0E0],"parents":[2147483647,0,0,1,1,2,2,3,3,5,5,6,6,7,7,10,10,11,11,12,12,13,13,14,14,20,20,21,21,22,22,24,24,25,25,26,26],"right_children":[2,4,6,8,-1,10,12,14,-1,-1,16,18,20,22,24,-1,-1,-1,-1,-1,26,28,30,-1,32,34,36,-1,-1,-1,-1,-1,-1,-1,-1,-1,-1],"split_conditions":[-5.8229543E-2,-5.9567854E-2,-5.517672E-2,-6.0862556E-2,9.6423194E-2,-5.7317823E-2,-5.3451903E-2,-9.783411E-2,-8.842108E-2,-5.3380504E-2,-5.6135952E-2,-5.460243E-2,-5.079452E-2,-1.17065154E-1,-9.419178E-2,-2.6563164E-2,-5.3316724E-2,2.756432E-2,8.356757E-2,-8.4295325E-2,-4.7543824E-2,-1.4507061E-1,-1.0754729E-1,9.230068E-2,-7.823062E-2,-4.828912E-2,1.1328257E-1,-5.0448454E-3,-2.4306528E-2,1.3333459E-2,-1.3733571E-2,2.8323635E-5,2.5976954E-2,-8.450431E-4,1.9091144E-1,-9.364471E-4,-2.0110898E-2],"split_indices":[0,0,0,0,0,0,0,0,0,0,0,0,0,0,0,0,0,0,0,0,0,0,0,0,0,0,0,0,0,0,0,0,0,0,0,0,0],"split_type":[0,0,0,0,0,0,0,0,0,0,0,0,0,0,0,0,0,0,0,0,0,0,0,0,0,0,0,0,0,0,0,0,0,0,0,0,0],"sum_hessian":[5.282E3,5.78E2,4.704E3,5.57E2,2.1E1,6.2E1,4.642E3,5.37E2,2E1,2.1E1,4.1E1,4.1E1,4.601E3,1.24E2,4.13E2,2E1,2.1E1,2.1E1,2E1,4.1E1,4.56E3,6.2E1,6.2E1,2.1E1,3.92E2,6.2E1,4.498E3,2.1E1,4.1E1,2.1E1,4.1E1,1.44E2,2.48E2,4.2E1,2E1,4.332E3,1.66E2],"tree_param":{"num_deleted":"0","num_feature":"1","num_nodes":"37","size_leaf_vector":"1"}},{"base_weights":[-4.7323312E-5,1.027834E-2,-1.288971E-2,7.603024E-3,1.258872E-1,-1.3513064E-1,-8.759935E-3,1.0078483E-2,-1.5028016E-1,6.2144164E-2,-1.09983655E-2,7.4517163E-3,1.2102743E-1,-6.8154365E-2,-1.7867161E-2,-5.9825778E-2,-3.488464E-3,2.127204E-3,9.3497135E-2,-2.9664537E-2,-7.834935E-2,1.9472568E-1,-1.2046365E-2,2.7153604E-3,-1.300922E-1,5.666024E-2,-1.7279794E-2,-1.620626E-2,7.387383E-2,8.1581315E-3,2.2728375E-1,-1.3004403E-1,-2.0141536E-3],"categories":[],"categories_nodes":[],"categories_segments":[],"categories_sizes":[],"default_left":[0,0,0,0,0,0,0,0,0,0,0,0,0,0,0,0,0,0,0,0,0,0,0,0,0,0,0,0,0,0,0,0,0],"id":11,"left_children":[1,3,5,7,-1,-1,9,11,13,-1,15,17,-1,-1,-1,19,21,23,25,27,-1,29,31,-1,-1,-1,-1,-1,-1,-1,-1,-1,-1],"loss_changes":[7.00691E-1,3.204443E0,4.2514586E0,1.1392303E0,0E0,0E0,1.1302841E0,2.9592612E0,3.0042076E-1,0E0,8.4720975E-1,1.3050702E0,0E0,0E0,0E0,1.862621E0,3.4017253E0,8.102238E0,2.402958E0,1.8210281E0,0E0,7.806422E0,4.316408E0,0E0,0E0,0E0,0E0,0E0,0E0,0E0,0E0,0E0,0E0],"parents":[2147483647,0,0,1,1,2,2,3,3,6,6,7,7,8,8,10,10,11,11,15,15,16,16,17,17,18,18,19,19,21,21,22,22],"right_children":[2,4,6,8,-1,-1,10,12,14,-1,16,18,-1,-1,-1,20,22,24,26,28,-1,30,32,-1,-1,-1,-1,-1,-1,-1,-1,-1,-1],"split_conditions":[2.1730915E-2,2.113153E-2,2.2242583E-2,1.9909866E-2,1.258872E-1,-1.3513064E-1,2.269411E-2,1.9413479E-2,2.0601116E-2,6.2144164E-2,3.003861E-2,1.5327111E-2,1.2102743E-1,-6.8154365E-2,-1.7867161E-2,2.89938E-2,3.264478E-2,1.4033854E-2,1.777953E-2,2.8181084E-2,-7.834935E-2,3.1900764E-2,3.3487678E-2,2.7153604E-3,-1.300922E-1,5.666024E-2,-1.7279794E-2,-1.620626E-2,7.387383E-2,8.1581315E-3,2.2728375E-1,-1.3004403E-1,-2.0141536E-3],"split_indices":[0,0,0,0,0,0,0,0,0,0,0,0,0,0,0,0,0,0,0,0,0,0,0,0,0,0,0,0,0,0,0,0,0],"split_type":[0,0,0,0,0,0,0,0,0,0,0,0,0,0,0,0,0,0,0,0,0,0,0,0,0,0,0,0,0,0,0,0,0],"sum_hessian":[5.282E3,2.928E3,2.354E3,2.91E3,1.8E1,2.1E1,2.333E3,2.866E3,4.4E1,2.3E1,2.31E3,2.848E3,1.8E1,2.3E1,2.1E1,3.07E2,2.003E3,2.683E3,1.65E2,2.68E2,3.9E1,8.2E1,1.921E3,2.642E3,4.1E1,1.01E2,6.4E1,2.47E2,2.1E1,6.4E1,1.8E1,2.3E1,1.898E3],"tree_param":{"num_deleted":"0","num_feature":"1","num_nodes":"33","size_leaf_vector":"1"}},{"base_weights":[-1.7602855E-5,2.2157516E-2,-4.2566657E-3,7.1304524E-3,1.5874735E-1,-4.9571373E-2,-2.75428E-3,2.069071E-2,-1.03050806E-1,1.3558948E-1,6.0054917E-2,8.392507E-2,-4.1742446E-3,1.50861E-2,5.8915224E-2,-2.0134711E-1,-4.6439394E-3,1.5202389E-2,2.2697806E-2,-5.693985E-2,4.4247194E-4,2.7084364E-2,-6.7795806E-2,-7.122444E-2,-4.6192188E-2,-2.134884E-2,1.8625803E-2,-4.244323E-2,-8.502395E-2,1.1761668E-1,-3.78651E-3,5.7487777E-3,6.8033464E-2,-3.371595E-2,1.8893197E-2,-1.6664235E-2,4.080726E-2,-8.412924E-4,-2.7488967E-2],"categories":[],"categories_nodes":[],"categories_segments":[],"categories_sizes":[],"default_left":[0,0,0,0,0,0,0,0,0,0,0,0,0,0,0,0,0,0,0,0,0,0,0,0,0,0,0,0,0,0,0,0,0,0,0,0,0,0,0],"id":12,"left_children":[1,3,5,7,9,-1,11,13,15,-1,17,-1,19,21,-1,23,25,-1,-1,27,29,31,33,-1,-1,-1,-1,35,-1,-1,37,-1,-1,-1,-1,-1,-1,-1,-1],"loss_changes":[4.9670544E-1,1.7394254E0,1.0724176E0,1.1451082E0,2.4036791E0,0E0,1.7646073E0,6.6859776E-1,8.1159943E-1,0E0,5.5339485E-3,0E0,1.0657922E0,6.6015476E-1,0E0,3.520727E-2,1.9528662E-1,0E0,0E0,1.1436216E0,6.665731E0,9.115914E-1,4.969039E-1,0E0,0E0,0E0,0E0,7.839963E-1,0E0,0E0,3.4330988E-1,0E0,0E0,0E0,0E0,0E0,0E0,0E0,0E0],"parents":[2147483647,0,0,1,1,2,2,3,3,4,4,6,6,7,7,8,8,10,10,12,12,13,13,15,15,16,16,19,19,20,20,21,21,22,22,27,27,30,30],"right_children":[2,4,6,8,10,-1,12,14,16,-1,18,-1,20,22,-1,24,26,-1,-1,28,30,32,34,-1,-1,-1,-1,36,-1,-1,38,-1,-1,-1,-1,-1,-1,-1,-1],"split_conditions":[-4.4661686E-2,-4.828912E-2,-4.2548135E-2,-5.3451903E-2,-4.7543824E-2,-4.9571373E-2,-4.1851453E-2,-5.460243E-2,-5.079452E-2,1.3558948E-1,-4.5751408E-2,8.392507E-2,-2.802752E-2,-5.8229543E-2,5.8915224E-2,-5.207251E-2,-4.9419075E-2,1.5202389E-2,2.2697806E-2,-2.854567E-2,-2.689585E-2,-5.9567854E-2,-5.517672E-2,-7.122444E-2,-4.6192188E-2,-2.134884E-2,1.8625803E-2,-2.941662E-2,-8.502395E-2,1.1761668E-1,1.5297647E-1,5.7487777E-3,6.8033464E-2,-3.371595E-2,1.8893197E-2,-1.6664235E-2,4.080726E-2,-8.412924E-4,-2.7488967E-2],"split_indices":[0,0,0,0,0,0,0,0,0,0,0,0,0,0,0,0,0,0,0,0,0,0,0,0,0,0,0,0,0,0,0,0,0,0,0,0,0,0,0],"split_type":[0,0,0,0,0,0,0,0,0,0,0,0,0,0,0,0,0,0,0,0,0,0,0,0,0,0,0,0,0,0,0,0,0,0,0,0,0,0,0],"sum_hessian":[5.282E3,8.47E2,4.435E3,7.64E2,8.3E1,4E1,4.395E3,6.81E2,8.3E1,2E1,6.3E1,2.1E1,4.374E3,6.61E2,2E1,4.1E1,4.2E1,4.2E1,2.1E1,3.51E2,4.023E3,5.78E2,8.3E1,2.1E1,2E1,2.1E1,2.1E1,3.31E2,2E1,4.2E1,3.981E3,5.57E2,2.1E1,6.2E1,2.1E1,3.09E2,2.2E1,3.938E3,4.3E1],"tree_param":{"num_deleted":"0","num_feature":"1","num_nodes":"39","size_leaf_vector":"1"}},{"base_weights":[3.1842395E-5,3.6674724E-3,-1.9561913E-2,9.368477E-4,2.839475E-1,-9.21544E-2,-4.1219816E-3,3.5838184E-3,-1.3725907E-1,9.6574076E-2,7.1081184E-2,-5.181991E-2,-9.459164E-2,1.442873E-1,-1.9171359E-2,-3.408623E-6,1.06458634E-1,-3.108533E-1,3.960324E-2,-1.1116094E-1,6.6683084E-2,1.903734E-2,8.76119E-2,-4.8702672E-2,-4.395085E-3,2.4275254E-3,-2.4002913E-1,1.1448403E-1,-8.33093E-3,-3.296665E-2,-1.46566E-1,-5.752552E-3,2.9788427E-2,-4.2841468E-2,-1.7683372E-1,8.22655E-3,3.139156E-2,-5.2290177E-3,-1.4798802E-1,8.286706E-2,-2.005299E-2,3.6501652E-4,6.58431E-2,-4.347063E-2,-9.847682E-2,-1.3092586E-1,2.963712E-2,-6.341139E-2,3.5992574E-2,-7.111787E-2,-3.339226E-2,-1.2756429E-2,2.617158E-2,-8.431031E-2,-2.243207E-2,-5.9556667E-2,-2.9935122E-3],"categories":[],"categories_nodes":[],"categories_segments":[],"categories_sizes":[],"default_left":[0,0,0,0,0,0,0,0,0,0,0,0,0,0,0,0,0,0,0,0,0,0,0,0,0,0,0,0,0,0,0,0,0,0,0,0,0,0,0,0,0,0,0,0,0,0,0,0,0,0,0,0,0,0,0,0,0],"id":13,"left_children":[1,3,5,7,9,11,13,15,17,-1,-1,19,-1,21,23,25,27,29,31,33,35,-1,-1,37,39,41,43,-1,45,-1,-1,-1,-1,47,49,-1,-1,51,53,-1,55,-1,-1,-1,-1,-1,-1,-1,-1,-1,-1,-1,-1,-1,-1,-1,-1],"loss_changes":[3.7640965E-1,3.4108524E0,9.2654073E-1,1.6155012E0,4.7278404E-4,1.28876E0,1.5282243E0,1.5990303E0,2.5605998E0,0E0,0E0,8.793918E-1,0E0,7.338611E-1,2.7076724E-1,2.4442248E0,4.614574E0,1.4461923E0,1.4926405E-1,3.6482286E-1,5.9718102E-2,0E0,0E0,8.926996E-1,1.8290074E0,1.0895822E0,3.0493093E-1,0E0,4.8122864E0,0E0,0E0,0E0,0E0,1.1778171E0,1.393609E-1,0E0,0E0,5.0371885E-1,5.9266365E-1,0E0,7.0643455E-1,0E0,0E0,0E0,0E0,0E0,0E0,0E0,0E0,0E0,0E0,0E0,0E0,0E0,0E0,0E0,0E0],"parents":[2147483647,0,0,1,1,2,2,3,3,4,4,5,5,6,6,7,7,8,8,11,11,13,13,14,14,15,15,16,16,17,17,18,18,19,19,20,20,23,23,24,24,25,25,26,26,28,28,33,33,34,34,37,37,38,38,40,40],"right_children":[2,4,6,8,10,12,14,16,18,-1,-1,20,-1,22,24,26,28,30,32,34,36,-1,-1,38,40,42,44,-1,46,-1,-1,-1,-1,48,50,-1,-1,52,54,-1,56,-1,-1,-1,-1,-1,-1,-1,-1,-1,-1,-1,-1,-1,-1,-1,-1],"split_conditions":[6.656707E-2,6.493035E-2,7.252261E-2,6.1916456E-2,6.5677546E-2,7.157394E-2,7.5700134E-2,5.7062477E-2,6.368174E-2,9.6574076E-2,7.1081184E-2,7.0097156E-2,-9.459164E-2,7.441835E-2,8.812247E-2,5.59567E-2,5.838348E-2,6.2799886E-2,6.4302236E-2,6.816798E-2,7.077099E-2,1.903734E-2,8.76119E-2,8.366014E-2,8.9907676E-2,5.5231906E-2,5.657693E-2,1.1448403E-1,5.9124805E-2,-3.296665E-2,-1.46566E-1,-5.752552E-3,2.9788427E-2,6.728774E-2,6.916502E-2,8.22655E-3,3.139156E-2,8.1171006E-2,8.5156456E-2,8.286706E-2,9.114838E-2,3.6501652E-4,6.58431E-2,-4.347063E-2,-9.847682E-2,-1.3092586E-1,2.963712E-2,-6.341139E-2,3.5992574E-2,-7.111787E-2,-3.339226E-2,-1.2756429E-2,2.617158E-2,-8.431031E-2,-2.243207E-2,-5.9556667E-2,-2.9935122E-3],"split_indices":[0,0,0,0,0,0,0,0,0,0,0,0,0,0,0,0,0,0,0,0,0,0,0,0,0,0,0,0,0,0,0,0,0,0,0,0,0,0,0,0,0,0,0,0,0,0,0,0,0,0,0,0,0,0,0,0,0],"split_type":[0,0,0,0,0,0,0,0,0,0,0,0,0,0,0,0,0,0,0,0,0,0,0,0,0,0,0,0,0,0,0,0,0,0,0,0,0,0,0,0,0,0,0,0,0,0,0,0,0,0,0,0,0,0,0,0,0],"sum_hessian":[5.282E3,4.456E3,8.26E2,4.414E3,4.2E1,1.44E2,6.82E2,4.332E3,8.2E1,2E1,2.2E1,1.23E2,2.1E1,6.2E1,6.2E2,4.187E3,1.45E2,4.1E1,4.1E1,8.2E1,4.1E1,4.1E1,2.1E1,2.06E2,4.14E2,4.146E3,4.1E1,4.2E1,1.03E2,2E1,2.1E1,2.1E1,2E1,4.1E1,4.1E1,2.1E1,2E1,1.44E2,6.2E1,2.1E1,3.93E2,4.124E3,2.2E1,2.1E1,2E1,2E1,8.3E1,2E1,2.1E1,2E1,2.1E1,1.03E2,4.1E1,2.1E1,4.1E1,2E1,3.73E2],"tree_param":{"num_deleted":"0","num_feature":"1","num_nodes":"57","size_leaf_vector":"1"}},{"base_weights":[-1.6074142E-5,2.9004991E-2,-2.2202772E-3,-3.5992737E-3,1.4122203E-1,-1.2838379E-1,-3.9192752E-4,2.223664E-2,-9.7043544E-2,1.1676313E-1,6.1453287E-2,8.1523E-2,-1.6212056E-3,8.1109314E-4,7.001781E-2,-4.8506647E-2,-6.087117E-2,1.7728256E-1,-3.815331E-3,3.1060071E-3,-1.1767786E-2,-3.541617E-2,5.471106E-2,-4.2067734E-3,-3.211561E-2,3.8407844E-2,6.554421E-2,-1.1720862E-3,3.2194784E-1,-7.8294516E-2,2.15956E-3,-1.2944427E-2,1.4789718E-3,3.4266647E-2,-3.5458185E-2,6.781623E-4,-1.462081E-1,1.7500967E-1,1.02040535E-2,-2.1384596E-3,-4.1314032E-2,8.360324E-2,-3.6399388E-3],"categories":[],"categories_nodes":[],"categories_segments":[],"categories_sizes":[],"default_left":[0,0,0,0,0,0,0,0,0,0,0,0,0,0,0,0,0,0,0,0,0,0,0,0,0,0,0,0,0,0,0,0,0,0,0,0,0,0,0,0,0,0,0],"id":14,"left_children":[1,3,5,7,9,-1,11,13,15,17,-1,-1,19,21,-1,-1,23,25,-1,27,29,31,33,-1,-1,-1,-1,35,37,39,41,-1,-1,-1,-1,-1,-1,-1,-1,-1,-1,-1,-1],"loss_changes":[3.3800903E-1,1.3652236E0,3.8224335E0,7.022811E-1,1.0679674E-1,0E0,1.6366264E0,1.0313131E0,1.3747525E-1,4.9592972E-1,0E0,0E0,2.3362632E-1,4.080885E-1,0E0,0E0,8.936618E-2,5.928743E-2,0E0,4.5330663E0,1.4344542E0,3.9206788E-2,8.7784064E-1,0E0,0E0,0E0,0E0,5.4751034E0,3.2920876E0,1.1322899E0,5.066129E0,0E0,0E0,0E0,0E0,0E0,0E0,0E0,0E0,0E0,0E0,0E0,0E0],"parents":[2147483647,0,0,1,1,2,2,3,3,4,4,6,6,7,7,8,8,9,9,12,12,13,13,16,16,17,17,19,19,20,20,21,21,22,22,27,27,28,28,29,29,30,30],"right_children":[2,4,6,8,10,-1,12,14,16,18,-1,-1,20,22,-1,-1,24,26,-1,28,30,32,34,-1,-1,-1,-1,36,38,40,42,-1,-1,-1,-1,-1,-1,-1,-1,-1,-1,-1,-1],"split_conditions":[-7.208198E-2,-7.823062E-2,-7.118998E-2,-8.515608E-2,-7.32862E-2,-1.2838379E-1,-6.9677964E-2,-8.645762E-2,-8.304417E-2,-7.47951E-2,6.1453287E-2,8.1523E-2,4.3974325E-2,-9.783411E-2,7.001781E-2,-4.8506647E-2,-8.0711015E-2,-7.6608375E-2,-3.815331E-3,4.2899273E-2,5.1214457E-2,-1.0239383E-1,-8.887868E-2,-4.2067734E-3,-3.211561E-2,3.8407844E-2,6.554421E-2,4.2144313E-2,4.3321148E-2,4.747998E-2,5.3005926E-2,-1.2944427E-2,1.4789718E-3,3.4266647E-2,-3.5458185E-2,6.781623E-4,-1.462081E-1,1.7500967E-1,1.02040535E-2,-2.1384596E-3,-4.1314032E-2,8.360324E-2,-3.6399388E-3],"split_indices":[0,0,0,0,0,0,0,0,0,0,0,0,0,0,0,0,0,0,0,0,0,0,0,0,0,0,0,0,0,0,0,0,0,0,0,0,0,0,0,0,0,0,0],"split_type":[0,0,0,0,0,0,0,0,0,0,0,0,0,0,0,0,0,0,0,0,0,0,0,0,0,0,0,0,0,0,0,0,0,0,0,0,0,0,0,0,0,0,0],"sum_hessian":[5.282E3,3.72E2,4.91E3,2.89E2,8.3E1,2E1,4.89E3,2.27E2,6.2E1,6.2E1,2.1E1,2.1E1,4.869E3,2.07E2,2E1,2.1E1,4.1E1,4.2E1,2E1,3.322E3,1.547E3,1.24E2,8.3E1,2.1E1,2E1,2.1E1,2.1E1,3.279E3,4.3E1,2.67E2,1.28E3,1.04E2,2E1,6.2E1,2.1E1,3.257E3,2.2E1,2.2E1,2.1E1,1.22E2,1.45E2,6.2E1,1.218E3],"tree_param":{"num_deleted":"0","num_feature":"1","num_nodes":"43","size_leaf_vector":"1"}},{"base_weights":[1.9805711E-5,1.7741978E-2,-1.9891593E-3,9.267497E-3,1.176009E-1,-6.587431E-2,-1.0218681E-3,1.44524425E-2,-3.1001138E-2,5.685183E-2,1.3085591E-2,4.8252456E-2,-1.7785041E-3,3.2776392E-3,6.65625E-2,-5.049287E-2,3.0737617E-6,2.0663012E-2,-9.170274E-2,5.81778E-2,2.102982E-2,-1.1181547E-2,-1.14586286E-1,1.8360634E-1,-1.7109383E-3,-7.842839E-4,3.0233731E-2,1.4181955E-2,-9.008113E-3,-2.4069669E-2,2.7798211E-2,-4.342702E-2,-1.5533908E-2,1.2993437E-2,9.6551634E-2,-3.6098764E-3,1.5058323E-3],"categories":[],"categories_nodes":[],"categories_segments":[],"categories_sizes":[],"default_left":[0,0,0,0,0,0,0,0,0,0,0,0,0,0,0,0,0,0,0,0,0,0,0,0,0,0,0,0,0,0,0,0,0,0,0,0,0],"id":15,"left_children":[1,3,5,7,9,-1,11,13,-1,-1,-1,-1,15,17,19,21,23,25,-1,-1,27,29,31,33,35,-1,-1,-1,-1,-1,-1,-1,-1,-1,-1,-1,-1],"loss_changes":[1.8812712E-1,4.54194E-1,9.986885E-1,2.9166636E-1,2.151618E-1,0E0,5.790871E-1,2.7696604E-1,0E0,0E0,0E0,0E0,4.0833977E-1,2.1172254E0,4.8305464E-1,4.1697186E-1,1.429044E0,6.9586575E-1,0E0,0E0,8.583341E-2,7.531536E-1,1.118834E-1,8.005793E-1,3.1260976E-1,0E0,0E0,0E0,0E0,0E0,0E0,0E0,0E0,0E0,0E0,0E0,0E0],"parents":[2147483647,0,0,1,1,2,2,3,3,4,4,6,6,7,7,12,12,13,13,14,14,15,15,16,16,17,17,20,20,21,21,22,22,23,23,24,24],"right_children":[2,4,6,8,10,-1,12,14,-1,-1,-1,-1,16,18,20,22,24,26,-1,-1,28,30,32,34,36,-1,-1,-1,-1,-1,-1,-1,-1,-1,-1,-1,-1],"split_conditions":[-6.0862556E-2,-6.3218415E-2,-5.9567854E-2,-6.531613E-2,-6.18653E-2,-6.587431E-2,-5.8229543E-2,-7.118998E-2,-3.1001138E-2,5.685183E-2,1.3085591E-2,4.8252456E-2,-4.9419075E-2,-7.208198E-2,-6.9677964E-2,-5.3451903E-2,-4.7543824E-2,-7.823062E-2,-9.170274E-2,5.81778E-2,-6.695267E-2,-5.517672E-2,-5.079452E-2,-4.828912E-2,1.1892669E-2,-7.842839E-4,3.0233731E-2,1.4181955E-2,-9.008113E-3,-2.4069669E-2,2.7798211E-2,-4.342702E-2,-1.5533908E-2,1.2993437E-2,9.6551634E-2,-3.6098764E-3,1.5058323E-3],"split_indices":[0,0,0,0,0,0,0,0,0,0,0,0,0,0,0,0,0,0,0,0,0,0,0,0,0,0,0,0,0,0,0,0,0,0,0,0,0],"split_type":[0,0,0,0,0,0,0,0,0,0,0,0,0,0,0,0,0,0,0,0,0,0,0,0,0,0,0,0,0,0,0,0,0,0,0,0,0],"sum_hessian":[5.282E3,5.37E2,4.745E3,4.96E2,4.1E1,2E1,4.725E3,4.75E2,2.1E1,2E1,2.1E1,2.1E1,4.704E3,3.92E2,8.3E1,1.65E2,4.539E3,3.72E2,2E1,2.1E1,6.2E1,1.03E2,6.2E1,4.1E1,4.498E3,2.89E2,8.3E1,4.1E1,2.1E1,6.2E1,4.1E1,4.1E1,2.1E1,2.1E1,2E1,1.775E3,2.723E3],"tree_param":{"num_deleted":"0","num_feature":"1","num_nodes":"37","size_leaf_vector":"1"}},{"base_weights":[2.7909595E-5,5.9506698E-3,-8.223195E-3,3.5207018E-3,1.02934316E-1,-9.4083525E-2,-5.5699497E-3,-3.6816702E-3,4.0687136E-2,-6.713438E-2,1.7761387E-4,2.4482145E-3,-1.9545245E-1,5.927281E-1,-7.7205757E-3,-3.4436412E-2,-5.593155E-2,1.3745753E-1,-5.7508E-3,-1.5362316E-3,2.5121567E-1,2.3331174E-1,1.0420414E-1,-1.6631931E-1,2.8965477E-2,-7.0289694E-2,5.2230023E-2,1.747979E-2,1.6220194E-1,-2.2803569E-1,-4.2142262E-4,2.2161542E-3,-2.979065E-2,1.09594814E-1,3.176327E-2,3.572085E-2,-7.8106105E-2,6.615579E-2,1.3716138E-3,-1.134887E-2,-2.6112508E-2,5.1611084E-2,-8.7728724E-2,-9.314731E-2,-3.831575E-2,6.1088387E-2,-2.2499987E-3],"categories":[],"categories_nodes":[],"categories_segments":[],"categories_sizes":[],"default_left":[0,0,0,0,0,0,0,0,0,0,0,0,0,0,0,0,0,0,0,0,0,0,0,0,0,0,0,0,0,0,0,0,0,0,0,0,0,0,0,0,0,0,0,0,0,0,0],"id":16,"left_children":[1,3,5,7,-1,-1,9,11,13,15,17,19,-1,21,23,25,-1,27,29,31,33,-1,-1,35,37,39,-1,41,-1,43,45,-1,-1,-1,-1,-1,-1,-1,-1,-1,-1,-1,-1,-1,-1,-1,-1],"loss_changes":[2.582255E-1,2.51895E0,1.7873306E0,8.17932E-1,0E0,0E0,7.749335E-1,1.0167615E1,1.3259203E1,7.2306705E-1,1.6317505E0,2.5150619E0,0E0,1.5454674E0,2.6638088E0,1.1187916E0,0E0,4.0058317E0,2.2767823E0,2.180003E0,6.246462E-1,0E0,0E0,2.3389266E0,1.7372193E0,6.5766275E-2,0E0,3.1637192E0,0E0,3.325677E-1,2.71407E0,0E0,0E0,0E0,0E0,0E0,0E0,0E0,0E0,0E0,0E0,0E0,0E0,0E0,0E0,0E0,0E0],"parents":[2147483647,0,0,1,1,2,2,3,3,6,6,7,7,8,8,9,9,10,10,11,11,13,13,14,14,15,15,17,17,18,18,19,19,20,20,23,23,24,24,25,25,27,27,29,29,30,30],"right_children":[2,4,6,8,-1,-1,10,12,14,16,18,20,-1,22,24,26,-1,28,30,32,34,-1,-1,36,38,40,-1,42,-1,44,46,-1,-1,-1,-1,-1,-1,-1,-1,-1,-1,-1,-1,-1,-1,-1,-1],"split_conditions":[2.5053732E-2,2.4639994E-2,2.5555387E-2,1.1892669E-2,1.02934316E-1,-9.4083525E-2,3.003861E-2,1.1156797E-2,1.2708746E-2,2.89938E-2,3.264478E-2,9.9166185E-3,-1.9545245E-1,1.2279645E-2,1.5327111E-2,2.8181084E-2,-5.593155E-2,3.1900764E-2,3.434956E-2,4.3737143E-3,1.05698705E-2,2.3331174E-1,1.0420414E-1,1.3337292E-2,1.616481E-2,2.6435703E-2,5.2230023E-2,3.1305112E-2,1.6220194E-1,3.3487678E-2,3.5888746E-2,2.2161542E-3,-2.979065E-2,1.09594814E-1,3.176327E-2,3.572085E-2,-7.8106105E-2,6.615579E-2,1.3716138E-3,-1.134887E-2,-2.6112508E-2,5.1611084E-2,-8.7728724E-2,-9.314731E-2,-3.831575E-2,6.1088387E-2,-2.2499987E-3],"split_indices":[0,0,0,0,0,0,0,0,0,0,0,0,0,0,0,0,0,0,0,0,0,0,0,0,0,0,0,0,0,0,0,0,0,0,0,0,0,0,0,0,0,0,0,0,0,0,0],"split_type":[0,0,0,0,0,0,0,0,0,0,0,0,0,0,0,0,0,0,0,0,0,0,0,0,0,0,0,0,0,0,0,0,0,0,0,0,0,0,0,0,0,0,0,0,0,0,0],"sum_hessian":[5.282E3,3.075E3,2.207E3,3.054E3,2.1E1,1.8E1,2.189E3,2.559E3,4.95E2,1.86E2,2.003E3,2.536E3,2.3E1,3.9E1,4.56E2,1.47E2,3.9E1,8.2E1,1.921E3,2.497E3,3.9E1,2.1E1,1.8E1,8.5E1,3.71E2,1.26E2,2.1E1,6.4E1,1.8E1,4.4E1,1.877E3,2.289E3,2.08E2,2.1E1,1.8E1,2.1E1,6.4E1,4.1E1,3.3E2,4.4E1,8.2E1,4.3E1,2.1E1,2.3E1,2.1E1,6.2E1,1.815E3],"tree_param":{"num_deleted":"0","num_feature":"1","num_nodes":"47","size_leaf_vector":"1"}},{"base_weights":[7.6734184E-5,1.0587067E-3,-3.0012067E-2,-5.6884857E-4,9.858316E-2,-6.557906E-2,-2.8672218E-3,8.081521E-4,-4.927634E-2,1.1592504E-1,-3.4949703E-3,4.7349047E-2,-3.0902738E-2,1.4198878E-3,-4.708513E-2,-8.7662086E-2,1.3758518E-1,-1.0041904E-1,3.810055E-3,2.821317E-4,7.658455E-2,-6.855925E-2,4.907893E-2,6.438939E-2,1.6285557E-2,-1.9408347E-2,-3.8986575E-2,4.629913E-2,-4.799086E-2,2.6229527E-4,-4.1287802E-2,1.01764E-2,1.8395007E-2,-8.474699E-3,-2.4586398E-2],"categories":[],"categories_nodes":[],"categories_segments":[],"categories_sizes":[],"default_left":[0,0,0,0,0,0,0,0,0,0,0,0,0,0,0,0,0,0,0,0,0,0,0,0,0,0,0,0,0,0,0,0,0,0,0],"id":17,"left_children":[1,3,5,7,9,-1,11,13,-1,-1,15,-1,17,19,21,-1,23,25,27,29,-1,-1,31,-1,-1,-1,-1,-1,33,-1,-1,-1,-1,-1,-1],"loss_changes":[1.5612528E-1,8.122592E-1,8.542636E-1,1.134772E0,2.4693978E0,0E0,6.6714674E-1,1.4635192E-1,0E0,0E0,2.6062896E0,0E0,3.0443382E-1,1.4241632E0,1.110475E0,0E0,2.643202E-1,3.5909653E-2,6.701594E-1,4.0110654E-1,0E0,0E0,5.7108477E-3,0E0,0E0,0E0,0E0,0E0,4.059741E-2,0E0,0E0,0E0,0E0,0E0,0E0],"parents":[2147483647,0,0,1,1,2,2,3,3,4,4,6,6,7,7,10,10,12,12,13,13,14,14,16,16,17,17,18,18,19,19,22,22,28,28],"right_children":[2,4,6,8,10,-1,12,14,-1,-1,16,-1,18,20,22,-1,24,26,28,30,-1,-1,32,-1,-1,-1,-1,-1,34,-1,-1,-1,-1,-1,-1],"split_conditions":[1.1328257E-1,1.02538235E-1,1.18509024E-1,9.833947E-2,1.0533271E-1,-6.557906E-2,1.233837E-1,9.2830025E-2,-4.927634E-2,1.1592504E-1,1.0711511E-1,4.7349047E-2,1.331901E-1,9.114838E-2,9.4558395E-2,-8.7662086E-2,1.09674275E-1,1.2858446E-1,1.4202215E-1,8.9907676E-2,7.658455E-2,-6.855925E-2,9.634471E-2,6.438939E-2,1.6285557E-2,-1.9408347E-2,-3.8986575E-2,4.629913E-2,1.6257444E-1,2.6229527E-4,-4.1287802E-2,1.01764E-2,1.8395007E-2,-8.474699E-3,-2.4586398E-2],"split_indices":[0,0,0,0,0,0,0,0,0,0,0,0,0,0,0,0,0,0,0,0,0,0,0,0,0,0,0,0,0,0,0,0,0,0,0],"split_type":[0,0,0,0,0,0,0,0,0,0,0,0,0,0,0,0,0,0,0,0,0,0,0,0,0,0,0,0,0,0,0,0,0,0,0],"sum_hessian":[5.282E3,5.116E3,1.66E2,5.033E3,8.3E1,2E1,1.46E2,4.992E3,4.1E1,2.1E1,6.2E1,2.1E1,1.25E2,4.93E3,6.2E1,2E1,4.2E1,4.1E1,8.4E1,4.909E3,2.1E1,2.1E1,4.1E1,2.1E1,2.1E1,2E1,2.1E1,2.1E1,6.3E1,4.889E3,2E1,2E1,2.1E1,4.1E1,2.2E1],"tree_param":{"num_deleted":"0","num_feature":"1","num_nodes":"35","size_leaf_vector":"1"}},{"base_weights":[5.22078E-5,4.540268E-3,-5.52978E-3,2.6285483E-3,8.915908E-2,-9.739087E-2,-2.5195521E-3,-2.871372E-3,4.26205E-2,4.331709E-2,-4.0441374E-3,1.4962963E-3,-1.393352E-1,4.2309186E-1,-6.138205E-3,-3.3180844E-2,8.262783E-4,-1.3487063E-3,1.791293E-1,1.6642466E-1,7.451368E-2,-1.17175706E-1,3.5771284E-2,2.6618587E-2,-6.0312245E-2,8.489419E-2,-2.1956838E-3,1.5789546E-3,-1.9971168E-2,7.8135744E-2,2.2661332E-2,2.5416605E-2,-5.5112284E-2,2.139573E-2,-3.311241E-2,-9.444776E-3,7.338256E-2,-6.74186E-2,-1.3544783E-2,-6.268156E-2,4.4986416E-5],"categories":[],"categories_nodes":[],"categories_segments":[],"categories_sizes":[],"default_left":[0,0,0,0,0,0,0,0,0,0,0,0,0,0,0,0,0,0,0,0,0,0,0,0,0,0,0,0,0,0,0,0,0,0,0,0,0,0,0,0,0],"id":18,"left_children":[1,3,5,7,-1,-1,9,11,13,-1,15,17,-1,19,21,23,25,27,29,-1,-1,31,33,35,37,-1,39,-1,-1,-1,-1,-1,-1,-1,-1,-1,-1,-1,-1,-1,-1],"loss_changes":[1.323764E-1,1.6379285E0,2.261355E0,6.404042E-1,0E0,0E0,5.233453E-1,5.1617193E0,6.532652E0,0E0,3.279765E-1,1.282356E0,0E0,7.8229856E-1,1.4607449E0,5.386339E-1,1.6897401E0,1.0775869E0,3.173015E-1,0E0,0E0,1.1707711E0,1.1923705E0,1.3249099E0,5.5826706E-1,0E0,9.510066E-1,0E0,0E0,0E0,0E0,0E0,0E0,0E0,0E0,0E0,0E0,0E0,0E0,0E0,0E0],"parents":[2147483647,0,0,1,1,2,2,3,3,6,6,7,7,8,8,10,10,11,11,13,13,14,14,15,15,16,16,17,17,18,18,21,21,22,22,23,23,24,24,26,26],"right_children":[2,4,6,8,-1,-1,10,12,14,-1,16,18,-1,20,22,24,26,28,30,-1,-1,32,34,36,38,-1,40,-1,-1,-1,-1,-1,-1,-1,-1,-1,-1,-1,-1,-1,-1],"split_conditions":[2.1730915E-2,2.113153E-2,2.2242583E-2,1.1892669E-2,8.915908E-2,-9.739087E-2,2.269411E-2,1.1156797E-2,1.2708746E-2,4.331709E-2,3.058888E-2,9.9166185E-3,-1.393352E-1,1.2279645E-2,1.5327111E-2,2.5053732E-2,3.1305112E-2,3.8787127E-3,1.05698705E-2,1.6642466E-1,7.451368E-2,1.3337292E-2,1.9909866E-2,2.4639994E-2,2.5555387E-2,8.489419E-2,3.1900764E-2,1.5789546E-3,-1.9971168E-2,7.8135744E-2,2.2661332E-2,2.5416605E-2,-5.5112284E-2,2.139573E-2,-3.311241E-2,-9.444776E-3,7.338256E-2,-6.74186E-2,-1.3544783E-2,-6.268156E-2,4.4986416E-5],"split_indices":[0,0,0,0,0,0,0,0,0,0,0,0,0,0,0,0,0,0,0,0,0,0,0,0,0,0,0,0,0,0,0,0,0,0,0,0,0,0,0,0,0],"split_type":[0,0,0,0,0,0,0,0,0,0,0,0,0,0,0,0,0,0,0,0,0,0,0,0,0,0,0,0,0,0,0,0,0,0,0,0,0,0,0,0,0],"sum_hessian":[5.282E3,2.928E3,2.354E3,2.91E3,1.8E1,2.1E1,2.333E3,2.559E3,3.51E2,2.3E1,2.31E3,2.536E3,2.3E1,3.9E1,3.12E2,3.3E2,1.98E3,2.497E3,3.9E1,2.1E1,1.8E1,8.5E1,2.27E2,1.03E2,2.27E2,2E1,1.96E3,2.268E3,2.29E2,2.1E1,1.8E1,2.1E1,6.4E1,1.83E2,4.4E1,8.2E1,2.1E1,1.8E1,2.09E2,2.1E1,1.939E3],"tree_param":{"num_deleted":"0","num_feature":"1","num_nodes":"41","size_leaf_vector":"1"}},{"base_weights":[7.129266E-5,-6.9891843E-3,4.6005915E-3,8.007923E-4,-2.0084856E-1,1.2710658E-1,-2.0597205E-3,-2.216395E-3,9.6650556E-2,4.8427545E-2,2.5497183E-1,-5.8520555E-2,1.6223702E-3,2.9499556E-3,-1.4174652E-1,6.436163E-2,-5.4539777E-2,1.7045537E-1,8.48373E-2,-2.1195857E-2,-1.7582971E-1,1.20673805E-1,-1.0490231E-3,-1.7550593E-3,1.2800848E-1,-1.11970924E-1,1.0604808E-1,1.8430824E-3,4.3080475E-2,-4.3458845E-2,3.791603E-2,-6.5630436E-2,-3.6298666E-2,-6.746778E-2,2.0479779E-3,1.2050947E-3,-7.682356E-2,6.949145E-2,-1.276001E-2,-2.6061747E-3,-6.1757486E-2,-1.8066356E-3,-9.927635E-2,9.065628E-2,-7.272416E-4],"categories":[],"categories_nodes":[],"categories_segments":[],"categories_sizes":[],"default_left":[0,0,0,0,0,0,0,0,0,0,0,0,0,0,0,0,0,0,0,0,0,0,0,0,0,0,0,0,0,0,0,0,0,0,0,0,0,0,0,0,0,0,0,0,0],"id":19,"left_children":[1,3,5,7,-1,9,11,13,-1,15,17,19,21,23,-1,-1,25,-1,27,29,31,-1,33,35,-1,-1,37,-1,-1,39,-1,-1,-1,41,43,-1,-1,-1,-1,-1,-1,-1,-1,-1,-1],"loss_changes":[1.6897728E-1,1.0657806E1,2.6267343E0,1.9806916E0,0E0,1.6576645E0,6.35003E-1,4.9188843E0,0E0,1.7905197E0,3.30896E0,8.1505805E-1,3.0698223E0,3.9941828E0,0E0,0E0,3.3662035E0,0E0,1.9334167E-1,4.7533774E-1,7.948208E-2,0E0,5.863802E-1,2.9105368E0,0E0,0E0,8.3090806E-1,0E0,0E0,7.040726E-1,0E0,0E0,0E0,2.0538914E0,3.6570473E0,0E0,0E0,0E0,0E0,0E0,0E0,0E0,0E0,0E0,0E0],"parents":[2147483647,0,0,1,1,2,2,3,3,5,5,6,6,7,7,9,9,10,10,11,11,12,12,13,13,16,16,18,18,19,19,20,20,22,22,23,23,26,26,29,29,33,33,34,34],"right_children":[2,4,6,8,-1,10,12,14,-1,16,18,20,22,24,-1,-1,26,-1,28,30,32,-1,34,36,-1,-1,38,-1,-1,40,-1,-1,-1,42,44,-1,-1,-1,-1,-1,-1,-1,-1,-1,-1],"split_conditions":[-1.3393611E-3,-2.0252168E-3,2.7772337E-3,-2.629131E-3,-2.0084856E-1,1.2966543E-3,7.620722E-3,-3.297411E-3,9.6650556E-2,-2.8206408E-4,1.6562417E-3,6.3215196E-3,7.966556E-3,-4.1181E-3,-1.4174652E-1,6.436163E-2,3.0265749E-4,1.7045537E-1,2.122067E-3,5.810529E-3,7.035516E-3,1.20673805E-1,1.1892669E-2,-5.3313226E-3,1.2800848E-1,-1.11970924E-1,8.1596524E-4,1.8430824E-3,4.3080475E-2,5.3851902E-3,3.791603E-2,-6.5630436E-2,-3.6298666E-2,1.1156797E-2,1.2708746E-2,1.2050947E-3,-7.682356E-2,6.949145E-2,-1.276001E-2,-2.6061747E-3,-6.1757486E-2,-1.8066356E-3,-9.927635E-2,9.065628E-2,-7.272416E-4],"split_indices":[0,0,0,0,0,0,0,0,0,0,0,0,0,0,0,0,0,0,0,0,0,0,0,0,0,0,0,0,0,0,0,0,0,0,0,0,0,0,0,0,0,0,0,0,0],"split_type":[0,0,0,0,0,0,0,0,0,0,0,0,0,0,0,0,0,0,0,0,0,0,0,0,0,0,0,0,0,0,0,0,0,0,0,0,0,0,0,0,0,0,0,0,0],"sum_hessian":[5.282E3,2.064E3,3.218E3,2.041E3,2.3E1,1.65E2,3.053E3,2.023E3,1.8E1,1.03E2,6.2E1,1.86E2,2.867E3,2.002E3,2.1E1,3.9E1,6.4E1,2.1E1,4.1E1,1.42E2,4.4E1,1.8E1,2.849E3,1.981E3,2.1E1,2.1E1,4.3E1,1.8E1,2.3E1,1.24E2,1.8E1,2.3E1,2.1E1,1.26E2,2.723E3,1.938E3,4.3E1,2.3E1,2E1,1.03E2,2.1E1,1.03E2,2.3E1,3.9E1,2.684E3],"tree_param":{"num_deleted":"0","num_feature":"1","num_nodes":"45","size_leaf_vector":"1"}},{"base_weights":[5.2218093E-5,-9.230345E-3,2.958773E-3,1.4251261E-3,-1.0599342E-1,8.2362406E-2,2.5320209E-5,-5.1437165E-3,1.00284375E-1,-2.478134E-1,-3.124339E-2,6.1588723E-2,-9.4814476E-4,1.6082837E-3,-1.0709021E-1,-5.800857E-2,-8.73002E-2,6.255316E-2,-1.1066543E-1,2.4149945E-2,4.0060043E-2,-5.923806E-2,1.3059007E-3,-3.8310073E-3,4.384783E-2,-6.911868E-2,-4.9618956E-2,9.812168E-3,4.4651725E-3,1.1114162E-2,-1.1129701E-1,7.49661E-2,-8.007516E-4,1.2106157E-3,-1.03002615E-1,9.1528274E-2,-3.551234E-3,2.8323842E-2,-6.1501566E-2,-1.4555875E-2,1.3288849E-2,-4.4541664E-2,-2.2238106E-2,-6.2721884E-3,3.9580606E-2,-2.0293288E-2,8.1738527E-4],"categories":[],"categories_nodes":[],"categories_segments":[],"categories_sizes":[],"default_left":[0,0,0,0,0,0,0,0,0,0,0,0,0,0,0,0,0,0,0,0,0,0,0,0,0,0,0,0,0,0,0,0,0,0,0,0,0,0,0,0,0,0,0,0,0,0,0],"id":20,"left_children":[1,3,5,7,9,-1,11,13,-1,15,17,19,21,23,-1,-1,-1,-1,25,27,-1,29,31,33,35,-1,37,-1,-1,39,41,43,45,-1,-1,-1,-1,-1,-1,-1,-1,-1,-1,-1,-1,-1,-1],"loss_changes":[1.425641E-1,1.2992818E0,3.2058117E0,2.48556E0,1.3173883E0,0E0,2.3869893E-1,2.6492717E0,0E0,4.4850826E-2,1.6035397E0,1.6377364E-1,5.152502E-1,2.5174773E-1,0E0,0E0,0E0,0E0,4.490415E-1,2.8434563E-3,0E0,5.3595656E-1,5.860063E-1,2.5946615E0,1.8220589E0,0E0,9.81719E-1,0E0,0E0,1.2681153E-1,1.05065584E-1,5.76251E-1,8.654843E-1,0E0,0E0,0E0,0E0,0E0,0E0,0E0,0E0,0E0,0E0,0E0,0E0,0E0,0E0],"parents":[2147483647,0,0,1,1,2,2,3,3,4,4,6,6,7,7,9,9,10,10,11,11,12,12,13,13,18,18,19,19,21,21,22,22,23,23,24,24,26,26,29,29,30,30,31,31,32,32],"right_children":[2,4,6,8,10,-1,12,14,-1,16,18,20,22,24,-1,-1,-1,-1,26,28,-1,30,32,34,36,-1,38,-1,-1,40,42,44,46,-1,-1,-1,-1,-1,-1,-1,-1,-1,-1,-1,-1,-1,-1],"split_conditions":[-2.802752E-2,-3.2685123E-2,-2.689585E-2,-3.3534877E-2,-3.1184874E-2,8.2362406E-2,-2.4627432E-2,-3.4401E-2,1.00284375E-1,-3.1989418E-2,-3.0430764E-2,-2.524545E-2,-1.9932583E-2,-3.8990043E-2,-1.0709021E-1,-5.800857E-2,-8.73002E-2,6.255316E-2,-2.941662E-2,-2.6087664E-2,4.0060043E-2,-2.284795E-2,-1.6400062E-2,-3.958884E-2,-3.812377E-2,-6.911868E-2,-2.854567E-2,9.812168E-3,4.4651725E-3,-2.3900531E-2,-2.1401212E-2,-1.8518493E-2,-1.02074E-2,1.2106157E-3,-1.03002615E-1,9.1528274E-2,-3.551234E-3,2.8323842E-2,-6.1501566E-2,-1.4555875E-2,1.3288849E-2,-4.4541664E-2,-2.2238106E-2,-6.2721884E-3,3.9580606E-2,-2.0293288E-2,8.1738527E-4],"split_indices":[0,0,0,0,0,0,0,0,0,0,0,0,0,0,0,0,0,0,0,0,0,0,0,0,0,0,0,0,0,0,0,0,0,0,0,0,0,0,0,0,0,0,0,0,0,0,0],"split_type":[0,0,0,0,0,0,0,0,0,0,0,0,0,0,0,0,0,0,0,0,0,0,0,0,0,0,0,0,0,0,0,0,0,0,0,0,0,0,0,0,0,0,0,0,0,0,0],"sum_hessian":[5.282E3,1.259E3,4.023E3,1.135E3,1.24E2,4.2E1,3.981E3,1.114E3,2.1E1,4.2E1,8.2E1,6.1E1,3.92E3,1.094E3,2E1,2.1E1,2.1E1,2E1,6.2E1,4.1E1,2E1,1.45E2,3.775E3,9.7E2,1.24E2,2E1,4.2E1,2E1,2.1E1,6.2E1,8.3E1,1.04E2,3.671E3,9.49E2,2.1E1,2.1E1,1.03E2,2.2E1,2E1,2.2E1,4E1,4E1,4.3E1,3.9E1,6.5E1,1.83E2,3.488E3],"tree_param":{"num_deleted":"0","num_feature":"1","num_nodes":"47","size_leaf_vector":"1"}},{"base_weights":[1.3273096E-5,-3.5961635E-2,7.426325E-4,-2.5037924E-2,-2.2810722E-2,8.966904E-2,1.5569085E-5,-4.3935366E-2,9.064671E-3,-5.6897575E-4,5.189902E-2,3.5726512E-3,-6.837292E-3,-4.05077E-3,-5.883028E-2,-5.0391775E-4,1.6368105E-1,-1.398797E-1,-7.394317E-4,-1.3090339E-2,-2.1584481E-2,2.299268E-3,-1.0785326E-1,1.3430066E-1,4.9264826E-2,9.4483696E-2,-4.7933324E-3,4.7583176E-6,1.15989566E-1,-6.648166E-2,-1.8399056E-2,-1.9248333E-3,4.9119465E-2,-1.0090686E-1,9.396537E-4],"categories":[],"categories_nodes":[],"categories_segments":[],"categories_sizes":[],"default_left":[0,0,0,0,0,0,0,0,0,0,0,0,0,0,0,0,0,0,0,0,0,0,0,0,0,0,0,0,0,0,0,0,0,0,0],"id":21,"left_children":[1,3,5,7,-1,9,11,13,-1,-1,-1,15,17,-1,19,21,23,-1,25,-1,-1,27,29,-1,31,-1,33,-1,-1,-1,-1,-1,-1,-1,-1],"loss_changes":[1.3864546E-1,4.4060796E-2,3.3484757E-1,8.903611E-2,0E0,3.207861E-1,1.2526928E-1,2.7763143E-2,0E0,0E0,0E0,2.2081425E0,4.919142E0,0E0,5.232811E-3,9.9328446E-1,2.7073417E0,0E0,2.2206063E0,0E0,0E0,2.8231938E0,4.309458E-1,0E0,3.8984102E-1,0E0,4.502483E0,0E0,0E0,0E0,0E0,0E0,0E0,0E0,0E0],"parents":[2147483647,0,0,1,1,2,2,3,3,5,5,6,6,7,7,11,11,12,12,14,14,15,15,16,16,18,18,21,21,22,22,24,24,26,26],"right_children":[2,4,6,8,-1,10,12,14,-1,-1,-1,16,18,-1,20,22,24,-1,26,-1,-1,28,30,-1,32,-1,34,-1,-1,-1,-1,-1,-1,-1,-1],"split_conditions":[-1.0239383E-1,-1.0754729E-1,-9.419178E-2,-1.17065154E-1,-2.2810722E-2,-9.783411E-2,3.7882283E-2,-1.4507061E-1,9.064671E-3,-5.6897575E-4,5.189902E-2,3.520082E-2,3.8342655E-2,-4.05077E-3,-1.2474626E-1,3.264478E-2,3.5888746E-2,-1.398797E-1,3.9070725E-2,-1.3090339E-2,-2.1584481E-2,3.1900764E-2,3.3487678E-2,1.3430066E-1,3.7259072E-2,9.4483696E-2,4.049012E-2,4.7583176E-6,1.15989566E-1,-6.648166E-2,-1.8399056E-2,-1.9248333E-3,4.9119465E-2,-1.0090686E-1,9.396537E-4],"split_indices":[0,0,0,0,0,0,0,0,0,0,0,0,0,0,0,0,0,0,0,0,0,0,0,0,0,0,0,0,0,0,0,0,0,0,0],"split_type":[0,0,0,0,0,0,0,0,0,0,0,0,0,0,0,0,0,0,0,0,0,0,0,0,0,0,0,0,0,0,0,0,0,0,0],"sum_hessian":[5.282E3,1.04E2,5.178E3,8.3E1,2.1E1,4.1E1,5.137E3,6.2E1,2.1E1,2E1,2.1E1,3.382E3,1.755E3,2.1E1,4.1E1,3.299E3,8.3E1,2.2E1,1.733E3,2.1E1,2E1,3.216E3,8.3E1,2.3E1,6E1,2.1E1,1.712E3,3.198E3,1.8E1,2.3E1,6E1,4.1E1,1.9E1,3.9E1,1.673E3],"tree_param":{"num_deleted":"0","num_feature":"1","num_nodes":"35","size_leaf_vector":"1"}},{"base_weights":[2.1738286E-5,3.3433693E-3,-7.994822E-3,6.539681E-4,2.2899371E-1,-7.7728465E-2,-4.705093E-3,2.8386945E-3,-1.0442275E-1,1.246194E-1,7.112315E-3,-5.6714192E-2,1.6279095E-3,-9.850585E-4,2.25434E-1,2.2314548E-2,-8.9459926E-2,1.3337193E-1,-5.2943206E-3,2.4008602E-3,-1.6599204E-1,3.621507E-1,-3.0911405E-2,-5.32304E-2,9.870443E-2,-1.1200217E-1,1.3963713E-3,8.604293E-5,5.6988843E-2,1.4625695E-1,6.0486782E-2,2.4702387E-2,-1.00425184E-1,5.780836E-2,-2.1940386E-2,3.3982694E-2,-2.4174203E-3],"categories":[],"categories_nodes":[],"categories_segments":[],"categories_sizes":[],"default_left":[0,0,0,0,0,0,0,0,0,0,0,0,0,0,0,0,0,0,0,0,0,0,0,0,0,0,0,0,0,0,0,0,0,0,0,0,0],"id":22,"left_children":[1,3,5,7,9,-1,11,13,-1,-1,-1,15,17,19,21,23,-1,-1,25,27,-1,29,-1,31,33,-1,35,-1,-1,-1,-1,-1,-1,-1,-1,-1,-1],"loss_changes":[1.4070274E-1,2.2670953E0,1.277508E0,2.8146079E0,1.6738644E0,0E0,5.037048E-1,3.1247919E0,0E0,0E0,0E0,3.1746476E0,4.184607E0,6.752448E0,2.8215868E0,7.323836E-1,0E0,0E0,3.3100998E0,1.4230393E0,0E0,7.8724E-1,0E0,2.4701984E0,1.0316162E0,0E0,1.398208E0,0E0,0E0,0E0,0E0,0E0,0E0,0E0,0E0,0E0,0E0],"parents":[2147483647,0,0,1,1,2,2,3,3,4,4,6,6,7,7,11,11,12,12,13,13,14,14,15,15,18,18,19,19,21,21,23,23,24,24,26,26],"right_children":[2,4,6,8,10,-1,12,14,-1,-1,-1,16,18,20,22,24,-1,-1,26,28,-1,30,-1,32,34,-1,36,-1,-1,-1,-1,-1,-1,-1,-1,-1,-1],"split_conditions":[4.3974325E-2,4.2899273E-2,4.4507474E-2,4.2144313E-2,4.3321148E-2,-7.7728465E-2,4.885775E-2,4.049012E-2,-1.0442275E-1,1.246194E-1,7.112315E-3,4.8001416E-2,4.9576595E-2,3.97785E-2,4.1708946E-2,4.6672776E-2,-8.9459926E-2,1.3337193E-1,5.008284E-2,3.8342655E-2,-1.6599204E-1,4.138606E-2,-3.0911405E-2,4.623113E-2,4.747998E-2,-1.1200217E-1,5.3005926E-2,8.604293E-5,5.6988843E-2,1.4625695E-1,6.0486782E-2,2.4702387E-2,-1.00425184E-1,5.780836E-2,-2.1940386E-2,3.3982694E-2,-2.4174203E-3],"split_indices":[0,0,0,0,0,0,0,0,0,0,0,0,0,0,0,0,0,0,0,0,0,0,0,0,0,0,0,0,0,0,0,0,0,0,0,0,0],"split_type":[0,0,0,0,0,0,0,0,0,0,0,0,0,0,0,0,0,0,0,0,0,0,0,0,0,0,0,0,0,0,0,0,0,0,0,0,0],"sum_hessian":[5.282E3,3.735E3,1.547E3,3.692E3,4.3E1,1.9E1,1.528E3,3.67E3,2.2E1,2.2E1,2.1E1,1.65E2,1.363E3,3.609E3,6.1E1,1.25E2,4E1,2E1,1.343E3,3.588E3,2.1E1,4.3E1,1.8E1,6.3E1,6.2E1,2.3E1,1.32E3,3.549E3,3.9E1,2.3E1,2E1,4.3E1,2E1,4E1,2.2E1,1.02E2,1.218E3],"tree_param":{"num_deleted":"0","num_feature":"1","num_nodes":"37","size_leaf_vector":"1"}},{"base_weights":[4.0548757E-6,2.5393302E-4,-1.714591E-2,-6.7130867E-3,2.447384E-3,8.910332E-4,-7.5765625E-2,1.9400607E-1,3.6670957E-4,-3.7973945E-3,7.154057E-2,-1.7693704E-1,-2.2438675E-2,4.4994984E-2,6.772973E-2,1.4983368E-2,-1.9257882E-3,1.0248694E-3,-7.651895E-2,-4.142294E-2,-6.232651E-2,4.4655E-2,-7.917873E-2,-1.3419283E-2,3.3352715E-1,-1.22424856E-1,7.0053583E-4,1.1372307E-3,-1.3303011E-2,-4.9396418E-2,-1.0677983E-2,9.991884E-4,-1.1187973E-1,7.053892E-2,1.2637106E-1,6.9395766E-2,-1.7824E-4],"categories":[],"categories_nodes":[],"categories_segments":[],"categories_sizes":[],"default_left":[0,0,0,0,0,0,0,0,0,0,0,0,0,0,0,0,0,0,0,0,0,0,0,0,0,0,0,0,0,0,0,0,0,0,0,0,0],"id":23,"left_children":[1,3,-1,5,7,9,11,13,15,17,-1,19,21,-1,-1,23,25,27,-1,-1,-1,-1,29,31,33,-1,35,-1,-1,-1,-1,-1,-1,-1,-1,-1,-1],"loss_changes":[7.546793E-2,8.0414064E-2,0E0,6.616731E-1,1.595011E0,1.2662562E0,6.7042506E-1,2.6259303E-2,1.3272314E-1,1.3512734E0,0E0,2.2810936E-2,8.184569E-1,0E0,0E0,4.8629766E0,3.652667E0,1.3757303E-1,0E0,0E0,0E0,0E0,2.2884649E-1,2.976018E0,2.8069258E-1,0E0,1.0161878E0,0E0,0E0,0E0,0E0,0E0,0E0,0E0,0E0,0E0,0E0],"parents":[2147483647,0,0,1,1,3,3,4,4,5,5,6,6,7,7,8,8,9,9,11,11,12,12,15,15,16,16,17,17,22,22,23,23,24,24,26,26],"right_children":[2,4,-1,6,8,10,12,14,16,18,-1,20,22,-1,-1,24,26,28,-1,-1,-1,-1,30,32,34,-1,36,-1,-1,-1,-1,-1,-1,-1,-1,-1,-1],"split_conditions":[1.6257444E-1,-2.802752E-2,-1.714591E-2,-3.2685123E-2,-2.689585E-2,-3.3534877E-2,-3.1184874E-2,-2.7414784E-2,-8.799985E-3,-3.4401E-2,7.154057E-2,-3.1989418E-2,-3.0430764E-2,4.4994984E-2,6.772973E-2,-1.02074E-2,-8.079328E-3,-3.6302656E-2,-7.651895E-2,-4.142294E-2,-6.232651E-2,4.4655E-2,-2.941662E-2,-1.096914E-2,-9.460434E-3,-1.22424856E-1,-7.3940083E-3,1.1372307E-3,-1.3303011E-2,-4.9396418E-2,-1.0677983E-2,9.991884E-4,-1.1187973E-1,7.053892E-2,1.2637106E-1,6.9395766E-2,-1.7824E-4],"split_indices":[0,0,0,0,0,0,0,0,0,0,0,0,0,0,0,0,0,0,0,0,0,0,0,0,0,0,0,0,0,0,0,0,0,0,0,0,0],"split_type":[0,0,0,0,0,0,0,0,0,0,0,0,0,0,0,0,0,0,0,0,0,0,0,0,0,0,0,0,0,0,0,0,0,0,0,0,0],"sum_hessian":[5.282E3,5.26E3,2.2E1,1.259E3,4.001E3,1.135E3,1.24E2,4.2E1,3.959E3,1.114E3,2.1E1,4.2E1,8.2E1,2E1,2.2E1,5.36E2,3.423E3,1.094E3,2E1,2.1E1,2.1E1,2E1,6.2E1,4.93E2,4.3E1,2.1E1,3.402E3,1.032E3,6.2E1,2E1,4.2E1,4.72E2,2.1E1,2.2E1,2.1E1,1.8E1,3.384E3],"tree_param":{"num_deleted":"0","num_feature":"1","num_nodes":"37","size_leaf_vector":"1"}},{"base_weights":[1.4173337E-6,-2.6884316E-2,5.4650335E-4,-1.9088235E-2,-1.6628748E-2,3.9206654E-2,-4.0175713E-4,-3.2573193E-2,6.118629E-3,1.4414086E-2,4.803657E-2,-7.6083764E-2,5.5306224E-4,-3.2410352E-3,-4.320084E-2,4.2168178E-2,-2.7284918E-2,-3.659672E-2,-5.022661E-2,8.9462765E-2,-2.1908438E-4,-9.692048E-3,-1.5766932E-2,-7.558959E-4,5.6394786E-2,-4.9827807E-3,-2.491591E-2,1.6546102E-2,3.5911612E-2,-5.272891E-2,4.4659304E-4,3.6686797E-2,6.16076E-3,1.0499702E-2,-6.770215E-2,3.9312486E-2,-4.3036693E-5],"categories":[],"categories_nodes":[],"categories_segments":[],"categories_sizes":[],"default_left":[0,0,0,0,0,0,0,0,0,0,0,0,0,0,0,0,0,0,0,0,0,0,0,0,0,0,0,0,0,0,0,0,0,0,0,0,0],"id":24,"left_children":[1,3,5,7,-1,9,11,13,-1,15,-1,17,19,-1,21,23,-1,-1,25,27,29,-1,-1,-1,31,-1,-1,-1,-1,33,35,-1,-1,-1,-1,-1,-1],"loss_changes":[7.743726E-2,2.2308439E-2,1.8987733E-1,4.5388937E-2,0E0,3.6941916E-1,3.65402E-1,1.4109038E-2,0E0,3.0795997E-1,0E0,6.865266E-2,3.4286433E-1,0E0,2.5827065E-3,5.290985E-2,0E0,0E0,4.496912E-2,3.801444E-2,1.7311876E-1,0E0,0E0,0E0,1.4635183E-1,0E0,0E0,0E0,0E0,9.485686E-1,3.7690663E-1,0E0,0E0,0E0,0E0,0E0,0E0],"parents":[2147483647,0,0,1,1,2,2,3,3,5,5,6,6,7,7,9,9,11,11,12,12,14,14,15,15,18,18,19,19,20,20,24,24,29,29,30,30],"right_children":[2,4,6,8,-1,10,12,14,-1,16,-1,18,20,-1,22,24,-1,-1,26,28,30,-1,-1,-1,32,-1,-1,-1,-1,34,36,-1,-1,-1,-1,-1,-1],"split_conditions":[-1.0239383E-1,-1.0754729E-1,-8.515608E-2,-1.17065154E-1,-1.6628748E-2,-8.645762E-2,-7.823062E-2,-1.4507061E-1,6.118629E-3,-8.887868E-2,4.803657E-2,-8.304417E-2,-7.47951E-2,-3.2410352E-3,-1.2474626E-1,-9.783411E-2,-2.7284918E-2,-3.659672E-2,-8.0711015E-2,-7.6608375E-2,-7.118998E-2,-9.692048E-3,-1.5766932E-2,-7.558959E-4,-9.419178E-2,-4.9827807E-3,-2.491591E-2,1.6546102E-2,3.5911612E-2,-7.208198E-2,-6.9677964E-2,3.6686797E-2,6.16076E-3,1.0499702E-2,-6.770215E-2,3.9312486E-2,-4.3036693E-5],"split_indices":[0,0,0,0,0,0,0,0,0,0,0,0,0,0,0,0,0,0,0,0,0,0,0,0,0,0,0,0,0,0,0,0,0,0,0,0,0],"split_type":[0,0,0,0,0,0,0,0,0,0,0,0,0,0,0,0,0,0,0,0,0,0,0,0,0,0,0,0,0,0,0,0,0,0,0,0,0],"sum_hessian":[5.282E3,1.04E2,5.178E3,8.3E1,2.1E1,1.23E2,5.055E3,6.2E1,2.1E1,1.03E2,2E1,6.2E1,4.993E3,2.1E1,4.1E1,8.2E1,2.1E1,2.1E1,4.1E1,4.2E1,4.951E3,2.1E1,2E1,2E1,6.2E1,2.1E1,2E1,2.1E1,2.1E1,6.1E1,4.89E3,2.1E1,4.1E1,4.1E1,2E1,2.1E1,4.869E3],"tree_param":{"num_deleted":"0","num_feature":"1","num_nodes":"37","size_leaf_vector":"1"}},{"base_weights":[-6.945865E-7,-1.8765423E-3,7.167235E-3,1.5330246E-3,-1.1363471E-1,8.260381E-2,-3.780446E-3,-7.562598E-4,2.1567856E-1,-1.3992998E-1,-4.1303907E-2,-9.189389E-2,2.367487E-3,1.9563297E-3,-6.3794896E-2,9.867451E-2,2.4416178E-2,4.23818E-2,-1.6584904E-1,6.957127E-2,-2.3885677E-3,5.964111E-4,7.512134E-2,-1.5608709E-1,-7.2737155E-3,-2.57187E-2,4.85807E-2,-2.9393809E-2,-6.8715915E-2,-5.1169712E-2,1.5131084E-3,5.5034464E-4,-3.4231737E-2,-1.5581004E-2,-6.321178E-2,9.532891E-2,-2.6533894E-2,-2.531903E-3,-1.2531908E-2,8.528557E-2,-1.3793167E-3],"categories":[],"categories_nodes":[],"categories_segments":[],"categories_sizes":[],"default_left":[0,0,0,0,0,0,0,0,0,0,0,0,0,0,0,0,0,0,0,0,0,0,0,0,0,0,0,0,0,0,0,0,0,0,0,0,0,0,0,0,0],"id":25,"left_children":[1,3,5,7,9,-1,11,13,15,-1,17,-1,19,21,23,-1,-1,25,27,-1,29,31,-1,33,35,37,-1,-1,-1,-1,39,-1,-1,-1,-1,-1,-1,-1,-1,-1,-1],"loss_changes":[7.104838E-2,1.5959989E0,3.218827E0,1.9929888E0,3.1449914E0,0E0,1.961112E0,6.8804955E-1,6.2711716E-1,0E0,1.0909843E0,0E0,1.1293607E0,1.3033503E0,8.6479765E-1,0E0,0E0,5.170905E-1,1.5772223E-1,0E0,6.6561717E-1,5.452417E-1,0E0,3.4743667E-1,2.772049E0,1.1020973E-2,0E0,0E0,0E0,0E0,1.7154557E0,0E0,0E0,0E0,0E0,0E0,0E0,0E0,0E0,0E0,0E0],"parents":[2147483647,0,0,1,1,2,2,3,3,4,4,6,6,7,7,8,8,10,10,12,12,13,13,14,14,17,17,18,18,20,20,21,21,23,23,24,24,25,25,30,30],"right_children":[2,4,6,8,10,-1,12,14,16,-1,18,-1,20,22,24,-1,-1,26,28,-1,30,32,-1,34,36,38,-1,-1,-1,-1,40,-1,-1,-1,-1,-1,-1,-1,-1,-1,-1],"split_conditions":[5.7062477E-2,5.3005926E-2,5.838348E-2,5.186387E-2,5.3795524E-2,8.260381E-2,5.9124805E-2,4.747998E-2,5.2420743E-2,-1.3992998E-1,5.59567E-2,-9.189389E-2,5.976083E-2,4.7094613E-2,4.885775E-2,9.867451E-2,2.4416178E-2,5.5231906E-2,5.657693E-2,6.957127E-2,6.0500838E-2,4.623113E-2,7.512134E-2,4.8001416E-2,4.9576595E-2,5.445236E-2,4.85807E-2,-2.9393809E-2,-6.8715915E-2,-5.1169712E-2,6.0915396E-2,5.5034464E-4,-3.4231737E-2,-1.5581004E-2,-6.321178E-2,9.532891E-2,-2.6533894E-2,-2.531903E-3,-1.2531908E-2,8.528557E-2,-1.3793167E-3],"split_indices":[0,0,0,0,0,0,0,0,0,0,0,0,0,0,0,0,0,0,0,0,0,0,0,0,0,0,0,0,0,0,0,0,0,0,0,0,0,0,0,0,0],"split_type":[0,0,0,0,0,0,0,0,0,0,0,0,0,0,0,0,0,0,0,0,0,0,0,0,0,0,0,0,0,0,0,0,0,0,0,0,0,0,0,0,0],"sum_hessian":[5.282E3,4.187E3,1.095E3,4.064E3,1.23E2,4.2E1,1.053E3,4.022E3,4.2E1,2E1,1.03E2,2E1,1.033E3,3.857E3,1.65E2,2.2E1,2E1,6.2E1,4.1E1,2E1,1.013E3,3.837E3,2E1,6.2E1,1.03E2,4E1,2.2E1,2.1E1,2E1,2.2E1,9.91E2,3.797E3,4E1,2.2E1,4E1,2E1,8.3E1,2E1,2E1,2E1,9.71E2],"tree_param":{"num_deleted":"0","num_feature":"1","num_nodes":"41","size_leaf_vector":"1"}},{"base_weights":[7.746686E-6,-4.989085E-3,3.2132296E-3,5.751003E-4,-1.434602E-1,8.0673225E-2,-2.0546021E-3,-1.5735531E-3,6.882989E-2,2.252821E-3,1.1310752E-1,-6.5990336E-2,1.2454477E-3,2.1263962E-3,-1.0150968E-1,4.517407E-2,-8.026074E-2,1.8714383E-1,5.229927E-2,-3.914983E-2,-1.2655526E-1,8.602553E-2,-6.583648E-4,-1.2179445E-3,9.099733E-2,7.43143E-2,1.2128892E-1,1.703592E-2,4.9941756E-2,-6.70718E-2,2.6788304E-2,-4.71173E-2,-2.6258228E-2,-8.778841E-2,1.3746974E-3,8.6693006E-4,-5.466289E-2,4.9157064E-2,-9.467653E-3,1.7774515E-2,-1.929776E-2,-1.1585661E-2,-4.4426568E-2,-2.94279E-4,-3.875909E-2,5.592362E-2,-2.9420422E-5],"categories":[],"categories_nodes":[],"categories_segments":[],"categories_sizes":[],"default_left":[0,0,0,0,0,0,0,0,0,0,0,0,0,0,0,0,0,0,0,0,0,0,0,0,0,0,0,0,0,0,0,0,0,0,0,0,0,0,0,0,0,0,0,0,0,0,0],"id":26,"left_children":[1,3,5,7,-1,9,11,13,-1,15,17,19,21,23,-1,-1,-1,25,27,29,31,-1,33,35,-1,37,-1,39,-1,41,-1,-1,-1,43,45,-1,-1,-1,-1,-1,-1,-1,-1,-1,-1,-1,-1],"loss_changes":[8.4635206E-2,5.4374957E0,1.3136666E0,1.0044864E0,0E0,5.211648E-1,6.3622034E-1,2.5228531E0,0E0,2.4813251E0,6.4300525E-1,2.3563313E-1,1.5590916E0,2.0180094E0,0E0,0E0,0E0,1.5625341E0,3.2328063E-1,3.7897626E-1,3.9823055E-2,0E0,5.049719E-1,1.4740674E0,0E0,4.2229784E-1,0E0,2.2018349E-1,0E0,1.9252509E-1,0E0,0E0,0E0,2.3352045E-1,7.592496E-1,0E0,0E0,0E0,0E0,0E0,0E0,0E0,0E0,0E0,0E0,0E0,0E0],"parents":[2147483647,0,0,1,1,2,2,3,3,5,5,6,6,7,7,9,9,10,10,11,11,12,12,13,13,17,17,18,18,19,19,20,20,22,22,23,23,25,25,27,27,29,29,33,33,34,34],"right_children":[2,4,6,8,-1,10,12,14,-1,16,18,20,22,24,-1,-1,-1,26,28,30,32,-1,34,36,-1,38,-1,40,-1,42,-1,-1,-1,44,46,-1,-1,-1,-1,-1,-1,-1,-1,-1,-1,-1,-1],"split_conditions":[-1.3393611E-3,-2.0252168E-3,3.8787127E-3,-2.629131E-3,-1.434602E-1,3.0265749E-4,7.620722E-3,-3.297411E-3,6.882989E-2,-2.8206408E-4,1.6562417E-3,6.3215196E-3,7.966556E-3,-4.1181E-3,-1.0150968E-1,4.517407E-2,-8.026074E-2,1.2966543E-3,3.372565E-3,5.810529E-3,7.035516E-3,8.602553E-2,9.9166185E-3,-5.3313226E-3,9.099733E-2,8.1596524E-4,1.2128892E-1,2.7772337E-3,4.9941756E-2,5.3851902E-3,2.6788304E-2,-4.71173E-2,-2.6258228E-2,8.541793E-3,1.05698705E-2,8.6693006E-4,-5.466289E-2,4.9157064E-2,-9.467653E-3,1.7774515E-2,-1.929776E-2,-1.1585661E-2,-4.4426568E-2,-2.94279E-4,-3.875909E-2,5.592362E-2,-2.9420422E-5],"split_indices":[0,0,0,0,0,0,0,0,0,0,0,0,0,0,0,0,0,0,0,0,0,0,0,0,0,0,0,0,0,0,0,0,0,0,0,0,0,0,0,0,0,0,0,0,0,0,0],"split_type":[0,0,0,0,0,0,0,0,0,0,0,0,0,0,0,0,0,0,0,0,0,0,0,0,0,0,0,0,0,0,0,0,0,0,0,0,0,0,0,0,0,0,0,0,0,0,0],"sum_hessian":[5.282E3,2.064E3,3.218E3,2.041E3,2.3E1,2.04E2,3.014E3,2.023E3,1.8E1,6E1,1.44E2,1.47E2,2.867E3,2.002E3,2.1E1,3.9E1,2.1E1,6.4E1,8E1,1.03E2,4.4E1,1.8E1,2.849E3,1.981E3,2.1E1,4.3E1,2.1E1,6.2E1,1.8E1,8.5E1,1.8E1,2.3E1,2.1E1,6.4E1,2.785E3,1.938E3,4.3E1,2.3E1,2E1,4.1E1,2.1E1,6.4E1,2.1E1,2.1E1,4.3E1,2.1E1,2.764E3],"tree_param":{"num_deleted":"0","num_feature":"1","num_nodes":"47","size_leaf_vector":"1"}},{"base_weights":[1.225606E-5,-9.338038E-3,1.5445483E-3,-1.8660158E-3,-9.007742E-2,1.2227371E-1,4.1714899E-4,-5.2266796E-3,3.1249134E-2,-4.1289933E-2,-6.30226E-2,6.673821E-3,6.637261E-2,-1.3053152E-2,2.0104507E-3,2.9981243E-3,-4.0584423E-2,-2.3477573E-2,-1.3684355E-2,-7.2861407E-3,-4.129743E-2,1.3708343E-1,5.513477E-4,-3.1032907E-3,7.512682E-2,-4.9646042E-2,-1.5217429E-2,1.1639209E-2,-2.990694E-2,3.1746674E-2,4.7899824E-2,-1.2381545E-2,2.840429E-3,1.7056942E-4,-2.472235E-2,3.8015537E-2,6.739621E-3,3.1835873E-2,-1.4044503E-2,-5.8606802E-3,3.1196766E-2,-1.2857585E-2,2.2839908E-2,8.683543E-4,-1.13547325E-1,1.0102867E-1,-3.4605167E-4],"categories":[],"categories_nodes":[],"categories_segments":[],"categories_sizes":[],"default_left":[0,0,0,0,0,0,0,0,0,0,0,0,0,0,0,0,0,0,0,0,0,0,0,0,0,0,0,0,0,0,0,0,0,0,0,0,0,0,0,0,0,0,0,0,0,0,0],"id":27,"left_children":[1,3,5,7,9,11,13,15,-1,-1,17,-1,-1,19,21,23,25,-1,-1,27,-1,29,31,33,35,-1,37,39,41,-1,-1,43,45,-1,-1,-1,-1,-1,-1,-1,-1,-1,-1,-1,-1,-1,-1],"loss_changes":[7.570598E-2,4.48677E-1,6.178883E-1,2.435618E-1,7.238251E-2,4.1086006E-1,9.6584916E-2,1.9263822E-1,0E0,0E0,7.569894E-3,0E0,0E0,3.410497E-1,7.9299587E-1,2.3699999E-1,3.9353144E-1,0E0,0E0,1.9556467E-1,0E0,1.34601E-2,1.1792007E-1,1.4477067E-1,1.11262545E-1,0E0,4.075333E-1,7.189009E-1,2.8892922E-1,0E0,0E0,3.3511295E0,4.5134997E0,0E0,0E0,0E0,0E0,0E0,0E0,0E0,0E0,0E0,0E0,0E0,0E0,0E0,0E0],"parents":[2147483647,0,0,1,1,2,2,3,3,4,4,5,5,6,6,7,7,10,10,13,13,14,14,15,15,16,16,19,19,21,21,22,22,23,23,24,24,26,26,27,27,28,28,31,31,32,32],"right_children":[2,4,6,8,10,12,14,16,-1,-1,18,-1,-1,20,22,24,26,-1,-1,28,-1,30,32,34,36,-1,38,40,42,-1,-1,44,46,-1,-1,-1,-1,-1,-1,-1,-1,-1,-1,-1,-1,-1,-1],"split_conditions":[-4.9419075E-2,-5.3451903E-2,-4.7543824E-2,-5.460243E-2,-5.207251E-2,-4.828912E-2,-2.802752E-2,-6.0862556E-2,3.1249134E-2,-4.1289933E-2,-5.079452E-2,6.673821E-3,6.637261E-2,-2.854567E-2,-2.689585E-2,-6.3218415E-2,-5.9567854E-2,-2.3477573E-2,-1.3684355E-2,-3.6302656E-2,-4.129743E-2,-2.7414784E-2,-6.625563E-3,-6.531613E-2,-6.18653E-2,-4.9646042E-2,-5.8229543E-2,-3.8990043E-2,-2.941662E-2,3.1746674E-2,4.7899824E-2,-7.3940083E-3,-5.3313226E-3,1.7056942E-4,-2.472235E-2,3.8015537E-2,6.739621E-3,3.1835873E-2,-1.4044503E-2,-5.8606802E-3,3.1196766E-2,-1.2857585E-2,2.2839908E-2,8.683543E-4,-1.13547325E-1,1.0102867E-1,-3.4605167E-4],"split_indices":[0,0,0,0,0,0,0,0,0,0,0,0,0,0,0,0,0,0,0,0,0,0,0,0,0,0,0,0,0,0,0,0,0,0,0,0,0,0,0,0,0,0,0,0,0,0,0],"split_type":[0,0,0,0,0,0,0,0,0,0,0,0,0,0,0,0,0,0,0,0,0,0,0,0,0,0,0,0,0,0,0,0,0,0,0,0,0,0,0,0,0,0,0,0,0,0,0],"sum_hessian":[5.282E3,7.43E2,4.539E3,6.81E2,6.2E1,4.1E1,4.498E3,6.61E2,2E1,2.1E1,4.1E1,2.1E1,2E1,4.75E2,4.023E3,5.37E2,1.24E2,2E1,2.1E1,4.55E2,2E1,4.2E1,3.981E3,4.96E2,4.1E1,2E1,1.04E2,2.48E2,2.07E2,2E1,2.2E1,5.98E2,3.383E3,4.75E2,2.1E1,2E1,2.1E1,2.1E1,8.3E1,1.86E2,6.2E1,1.85E2,2.2E1,5.75E2,2.3E1,3.9E1,3.344E3],"tree_param":{"num_deleted":"0","num_feature":"1","num_nodes":"47","size_leaf_vector":"1"}},{"base_weights":[2.3013463E-5,-1.556705E-3,7.832732E-3,1.8770421E-4,-1.7811151E-1,1.6928992E-1,-4.47638E-3,-1.404427E-3,4.035432E-2,-1.02463864E-1,-1.9742458E-3,2.3403578E-2,6.297918E-2,-5.8406852E-2,6.9795423E-3,1.0184654E-3,-8.0820985E-2,5.8509044E-2,-1.3608703E-2,-2.9636856E-2,-6.537305E-2,1.1001749E-1,-3.4848223E-3,-9.987691E-4,1.2917674E-1,-9.9842675E-2,-2.9161679E-2,-6.5531194E-2,2.788177E-2,-7.20503E-2,5.4885834E-2,1.5641447E-2,6.465408E-2,-3.2081276E-2,1.3579783E-4,1.2507066E-4,-7.3796876E-2,4.8207954E-2,1.7547542E-2,9.170721E-3,-3.5419043E-2,4.9801063E-2,-2.0941794E-3,-7.013284E-3,-3.5702255E-2,8.00179E-3,2.4548676E-2,4.5804925E-2,-1.6952138E-3],"categories":[],"categories_nodes":[],"categories_segments":[],"categories_sizes":[],"default_left":[0,0,0,0,0,0,0,0,0,0,0,0,0,0,0,0,0,0,0,0,0,0,0,0,0,0,0,0,0,0,0,0,0,0,0,0,0,0,0,0,0,0,0,0,0,0,0,0,0],"id":28,"left_children":[1,3,5,7,9,11,13,15,17,-1,-1,-1,-1,19,21,23,25,-1,27,29,-1,31,33,35,37,-1,39,-1,41,43,45,-1,-1,-1,47,-1,-1,-1,-1,-1,-1,-1,-1,-1,-1,-1,-1,-1,-1],"loss_changes":[6.5189384E-2,1.3536224E0,1.7675514E0,2.784333E-1,1.2032173E0,2.173276E-1,5.1134753E-1,8.0592793E-1,1.3882188E0,0E0,0E0,0E0,0E0,6.5893376E-1,7.3681223E-1,1.0510341E0,1.6044675E0,0E0,1.0598965E0,4.4848198E-1,0E0,3.7344432E-1,2.3261824E-1,1.3884487E0,1.309483E-1,0E0,5.5586684E-1,0E0,5.01945E-1,1.8691713E-1,2.9743731E-2,0E0,0E0,0E0,5.3137535E-1,0E0,0E0,0E0,0E0,0E0,0E0,0E0,0E0,0E0,0E0,0E0,0E0,0E0,0E0],"parents":[2147483647,0,0,1,1,2,2,3,3,4,4,5,5,6,6,7,7,8,8,13,13,14,14,15,15,16,16,18,18,19,19,21,21,22,22,23,23,24,24,26,26,28,28,29,29,30,30,34,34],"right_children":[2,4,6,8,10,12,14,16,18,-1,-1,-1,-1,20,22,24,26,-1,28,30,-1,32,34,36,38,-1,40,-1,42,44,46,-1,-1,-1,48,-1,-1,-1,-1,-1,-1,-1,-1,-1,-1,-1,-1,-1,-1],"split_conditions":[6.4302236E-2,6.2799886E-2,6.656707E-2,5.7062477E-2,6.368174E-2,6.493035E-2,7.252261E-2,5.3005926E-2,5.838348E-2,-1.02463864E-1,-1.9742458E-3,2.3403578E-2,6.297918E-2,7.157394E-2,7.5700134E-2,5.1214457E-2,5.3795524E-2,5.8509044E-2,5.9124805E-2,7.0097156E-2,-6.537305E-2,7.441835E-2,7.68741E-2,5.0397754E-2,5.2420743E-2,-9.9842675E-2,5.59567E-2,-6.5531194E-2,5.976083E-2,6.816798E-2,7.077099E-2,1.5641447E-2,6.465408E-2,-3.2081276E-2,7.810585E-2,1.2507066E-4,-7.3796876E-2,4.8207954E-2,1.7547542E-2,9.170721E-3,-3.5419043E-2,4.9801063E-2,-2.0941794E-3,-7.013284E-3,-3.5702255E-2,8.00179E-3,2.4548676E-2,4.5804925E-2,-1.6952138E-3],"split_indices":[0,0,0,0,0,0,0,0,0,0,0,0,0,0,0,0,0,0,0,0,0,0,0,0,0,0,0,0,0,0,0,0,0,0,0,0,0,0,0,0,0,0,0,0,0,0,0,0,0],"split_type":[0,0,0,0,0,0,0,0,0,0,0,0,0,0,0,0,0,0,0,0,0,0,0,0,0,0,0,0,0,0,0,0,0,0,0,0,0,0,0,0,0,0,0,0,0,0,0,0,0],"sum_hessian":[5.282E3,4.394E3,8.88E2,4.352E3,4.2E1,6.2E1,8.26E2,4.187E3,1.65E2,2.1E1,2.1E1,2E1,4.2E1,1.44E2,6.82E2,4.064E3,1.23E2,4.2E1,1.23E2,1.23E2,2.1E1,6.2E1,6.2E2,4.002E3,6.2E1,2E1,1.03E2,2E1,1.03E2,8.2E1,4.1E1,4.1E1,2.1E1,2E1,6E2,3.98E3,2.2E1,4.2E1,2E1,6.2E1,4.1E1,2E1,8.3E1,4.1E1,4.1E1,2.1E1,2E1,2.1E1,5.79E2],"tree_param":{"num_deleted":"0","num_feature":"1","num_nodes":"49","size_leaf_vector":"1"}},{"base_weights":[-1.6909532E-6,-7.875767E-4,1.5822912E-2,1.4181937E-4,-3.3376895E-2,8.416432E-2,-9.678263E-3,-8.55219E-4,3.8977325E-2,-6.118305E-2,9.887517E-3,3.957735E-4,-9.629436E-2,6.1753336E-2,3.3037274E-3,4.7386605E-2,-7.492163E-3,-2.2305969E-4,7.060918E-2,-5.7550427E-2,-4.395667E-2,-2.8058572E-2,2.747247E-2,-5.288294E-2,5.527597E-3,1.3121472E-4,-4.279748E-2,3.8017616E-2,2.5375332E-3,-3.8444486E-3,-2.1505486E-2,5.6089524E-2,-8.597829E-3,1.3057953E-2,-4.5409523E-2,3.522597E-2,-4.2159073E-3],"categories":[],"categories_nodes":[],"categories_segments":[],"categories_sizes":[],"default_left":[0,0,0,0,0,0,0,0,0,0,0,0,0,0,0,0,0,0,0,0,0,0,0,0,0,0,0,0,0,0,0,0,0,0,0,0,0],"id":29,"left_children":[1,3,5,7,-1,-1,9,11,13,-1,15,17,19,-1,21,-1,23,25,27,-1,29,-1,31,33,35,-1,-1,-1,-1,-1,-1,-1,-1,-1,-1,-1,-1],"loss_changes":[6.5713584E-2,5.168527E-1,1.6904136E0,1.9336472E-1,0E0,0E0,8.724342E-1,5.8136576E-1,7.434137E-1,0E0,5.390181E-1,2.0888177E-1,3.0659044E-1,0E0,2.4596219E-1,0E0,1.11395985E-1,4.4840097E-1,1.4540994E-1,0E0,3.5348766E-2,0E0,7.5737864E-1,4.0536192E-1,3.2371542E-1,0E0,0E0,0E0,0E0,0E0,0E0,0E0,0E0,0E0,0E0,0E0,0E0],"parents":[2147483647,0,0,1,1,2,2,3,3,6,6,7,7,8,8,10,10,11,11,12,12,14,14,16,16,17,17,18,18,20,20,22,22,23,23,24,24],"right_children":[2,4,6,8,-1,-1,10,12,14,-1,16,18,20,-1,22,-1,24,26,28,-1,30,-1,32,34,36,-1,-1,-1,-1,-1,-1,-1,-1,-1,-1,-1,-1],"split_conditions":[1.02538235E-1,9.833947E-2,1.0533271E-1,8.812247E-2,-3.3376895E-2,8.416432E-2,1.0711511E-1,8.366014E-2,8.9907676E-2,-6.118305E-2,1.09674275E-1,8.1171006E-2,8.5156456E-2,6.1753336E-2,9.114838E-2,4.7386605E-2,1.18509024E-1,8.02853E-2,8.2597375E-2,-5.7550427E-2,8.6423196E-2,-2.8058572E-2,9.2830025E-2,1.1328257E-1,1.233837E-1,1.3121472E-4,-4.279748E-2,3.8017616E-2,2.5375332E-3,-3.8444486E-3,-2.1505486E-2,5.6089524E-2,-8.597829E-3,1.3057953E-2,-4.5409523E-2,3.522597E-2,-4.2159073E-3],"split_indices":[0,0,0,0,0,0,0,0,0,0,0,0,0,0,0,0,0,0,0,0,0,0,0,0,0,0,0,0,0,0,0,0,0,0,0,0,0],"split_type":[0,0,0,0,0,0,0,0,0,0,0,0,0,0,0,0,0,0,0,0,0,0,0,0,0,0,0,0,0,0,0,0,0,0,0,0,0],"sum_hessian":[5.282E3,5.033E3,2.49E2,4.992E3,4.1E1,2.1E1,2.28E2,4.868E3,1.24E2,2E1,2.08E2,4.806E3,6.2E1,2.1E1,1.03E2,2.1E1,1.87E2,4.765E3,4.1E1,2.1E1,4.1E1,2E1,8.3E1,4.1E1,1.46E2,4.744E3,2.1E1,2.1E1,2E1,2E1,2.1E1,2.1E1,6.2E1,2.1E1,2E1,2.1E1,1.25E2],"tree_param":{"num_deleted":"0","num_feature":"1","num_nodes":"37","size_leaf_vector":"1"}},{"base_weights":[4.9089494E-6,-4.3275016E-3,2.7841644E-3,-3.727399E-4,-1.0218946E-1,5.7411216E-2,-9.3103625E-4,-1.9184995E-3,4.929329E-2,1.0904016E-3,8.070886E-2,-9.031091E-2,4.2306178E-4,7.126342E-4,-7.241522E-2,3.1987E-2,-5.7251163E-2,1.33566E-1,3.7296228E-2,-7.7452445E-5,-5.072889E-2,3.2871686E-2,-3.5381268E-4,-1.6834926E-3,6.4964846E-2,5.301005E-2,8.658202E-2,1.1989559E-2,3.5773456E-2,-6.1464068E-2,1.4361507E-3,3.599025E-4,-3.861036E-2,3.5050295E-2,-6.736875E-3,1.2595494E-2,-1.3745821E-2,-8.303057E-3,-2.7039384E-2,6.160173E-2,2.2888184E-5],"categories":[],"categories_nodes":[],"categories_segments":[],"categories_sizes":[],"default_left":[0,0,0,0,0,0,0,0,0,0,0,0,0,0,0,0,0,0,0,0,0,0,0,0,0,0,0,0,0,0,0,0,0,0,0,0,0,0,0,0,0],"id":30,"left_children":[1,3,5,7,-1,9,11,13,-1,15,17,19,21,23,-1,-1,-1,25,27,-1,-1,-1,29,31,-1,33,-1,35,-1,37,39,-1,-1,-1,-1,-1,-1,-1,-1,-1,-1],"loss_changes":[6.3624E-2,2.7463276E0,6.5335095E-1,5.201297E-1,0E0,2.6890117E-1,3.6494097E-1,1.2754254E0,0E0,1.2558833E0,3.2774538E-1,3.1922418E-1,2.519654E-1,1.036261E0,0E0,0E0,0E0,7.9651546E-1,1.6655186E-1,0E0,0E0,0E0,3.2288375E-1,7.259892E-1,0E0,2.1455324E-1,0E0,1.1116598E-1,0E0,7.886663E-2,7.952199E-1,0E0,0E0,0E0,0E0,0E0,0E0,0E0,0E0,0E0,0E0],"parents":[2147483647,0,0,1,1,2,2,3,3,5,5,6,6,7,7,9,9,10,10,11,11,12,12,13,13,17,17,18,18,22,22,23,23,25,25,27,27,29,29,30,30],"right_children":[2,4,6,8,-1,10,12,14,-1,16,18,20,22,24,-1,-1,-1,26,28,-1,-1,-1,30,32,-1,34,-1,36,-1,38,40,-1,-1,-1,-1,-1,-1,-1,-1,-1,-1],"split_conditions":[-1.3393611E-3,-2.0252168E-3,3.8787127E-3,-2.629131E-3,-1.0218946E-1,3.0265749E-4,4.99174E-3,-3.297411E-3,4.929329E-2,-2.8206408E-4,1.6562417E-3,4.3737143E-3,5.3851902E-3,-4.1181E-3,-7.241522E-2,3.1987E-2,-5.7251163E-2,1.2966543E-3,3.372565E-3,-7.7452445E-5,-5.072889E-2,3.2871686E-2,7.620722E-3,-5.3313226E-3,6.4964846E-2,8.1596524E-4,8.658202E-2,2.7772337E-3,3.5773456E-2,6.3215196E-3,7.966556E-3,3.599025E-4,-3.861036E-2,3.5050295E-2,-6.736875E-3,1.2595494E-2,-1.3745821E-2,-8.303057E-3,-2.7039384E-2,6.160173E-2,2.2888184E-5],"split_indices":[0,0,0,0,0,0,0,0,0,0,0,0,0,0,0,0,0,0,0,0,0,0,0,0,0,0,0,0,0,0,0,0,0,0,0,0,0,0,0,0,0],"split_type":[0,0,0,0,0,0,0,0,0,0,0,0,0,0,0,0,0,0,0,0,0,0,0,0,0,0,0,0,0,0,0,0,0,0,0,0,0,0,0,0,0],"sum_hessian":[5.282E3,2.064E3,3.218E3,2.041E3,2.3E1,2.04E2,3.014E3,2.023E3,1.8E1,6E1,1.44E2,4.4E1,2.97E3,2.002E3,2.1E1,3.9E1,2.1E1,6.4E1,8E1,2.1E1,2.3E1,2E1,2.95E3,1.981E3,2.1E1,4.3E1,2.1E1,6.2E1,1.8E1,8.3E1,2.867E3,1.938E3,4.3E1,2.3E1,2E1,4.1E1,2.1E1,3.9E1,4.4E1,1.8E1,2.849E3],"tree_param":{"num_deleted":"0","num_feature":"1","num_nodes":"41","size_leaf_vector":"1"}},{"base_weights":[9.830671E-6,-4.6605607E-3,2.412623E-3,-1.3814197E-3,-8.0660015E-2,2.3515059E-1,-5.5977487E-4,6.856582E-4,-9.100638E-2,4.9476992E-2,8.936441E-2,-8.818538E-2,1.3249469E-3,-3.925681E-3,9.136716E-2,-6.855133E-2,1.7375061E-2,4.8860364E-2,4.236728E-4,-7.9451024E-4,-1.269384E-1,5.5833794E-2,5.683117E-2,-8.107959E-2,2.3433275E-3,-1.3883187E-3,2.6719756E-2,-5.333965E-2,-2.3821265E-2,1.1623085E-2,2.538274E-2,7.1297646E-2,-1.41393E-4],"categories":[],"categories_nodes":[],"categories_segments":[],"categories_sizes":[],"default_left":[0,0,0,0,0,0,0,0,0,0,0,0,0,0,0,0,0,0,0,0,0,0,0,0,0,0,0,0,0,0,0,0,0],"id":31,"left_children":[1,3,5,7,-1,9,11,13,15,-1,-1,-1,17,19,21,-1,-1,-1,23,25,27,-1,29,-1,31,-1,-1,-1,-1,-1,-1,-1,-1],"loss_changes":[5.929697E-2,1.5547614E0,2.4137866E0,3.2871678E-1,0E0,1.4471054E-1,1.9058938E0,7.258718E-1,8.323005E-1,0E0,0E0,0E0,4.9859193E-1,6.3620627E-1,2.6428187E-1,0E0,0E0,0E0,1.7710104E0,5.556727E-1,8.500403E-2,0E0,2.8375357E-2,0E0,2.2414293E0,0E0,0E0,0E0,0E0,0E0,0E0,0E0,0E0],"parents":[2147483647,0,0,1,1,2,2,3,3,5,5,6,6,7,7,8,8,12,12,13,13,14,14,18,18,19,19,20,20,22,22,24,24],"right_children":[2,4,6,8,-1,10,12,14,16,-1,-1,-1,18,20,22,-1,-1,-1,24,26,28,-1,30,-1,32,-1,-1,-1,-1,-1,-1,-1,-1],"split_conditions":[-1.02074E-2,-1.096914E-2,-8.799985E-3,-1.2110002E-2,-8.0660015E-2,-9.460434E-3,-8.079328E-3,-1.4948189E-2,-1.1522993E-2,4.9476992E-2,8.936441E-2,-8.818538E-2,-7.3940083E-3,-1.6400062E-2,-1.4477074E-2,-6.855133E-2,1.7375061E-2,4.8860364E-2,-6.625563E-3,-1.8518493E-2,-1.569958E-2,5.5833794E-2,-1.28374845E-2,-8.107959E-2,-5.3313226E-3,-1.3883187E-3,2.6719756E-2,-5.333965E-2,-2.3821265E-2,1.1623085E-2,2.538274E-2,7.1297646E-2,-1.41393E-4],"split_indices":[0,0,0,0,0,0,0,0,0,0,0,0,0,0,0,0,0,0,0,0,0,0,0,0,0,0,0,0,0,0,0,0,0],"split_type":[0,0,0,0,0,0,0,0,0,0,0,0,0,0,0,0,0,0,0,0,0,0,0,0,0,0,0,0,0,0,0,0,0],"sum_hessian":[5.282E3,1.794E3,3.488E3,1.773E3,2.1E1,4.3E1,3.445E3,1.734E3,3.9E1,2.2E1,2.1E1,2.1E1,3.424E3,1.651E3,8.3E1,2E1,1.9E1,1.8E1,3.406E3,1.611E3,4E1,2.1E1,6.2E1,2.3E1,3.383E3,1.546E3,6.5E1,1.8E1,2.2E1,3.9E1,2.3E1,3.9E1,3.344E3],"tree_param":{"num_deleted":"0","num_feature":"1","num_nodes":"33","size_leaf_vector":"1"}},{"base_weights":[6.8619693E-6,-1.2873011E-3,6.4048823E-3,2.922451E-4,-1.0990455E-1,1.19861834E-1,-2.2458956E-3,-5.874181E-4,9.017849E-2,-1.6239057E-1,-1.4124839E-3,1.671328E-2,1.4840387E-1,-4.116748E-2,1.269353E-3,5.1992447E-5,-3.5780955E-2,6.1620407E-2,-7.171798E-3,-2.0826647E-2,-7.3125534E-2,5.310996E-2,3.4743514E-2,2.9821387E-2,-1.4790506E-3,-1.1746413E-3,6.194464E-2,-3.847523E-2,1.9983451E-3,1.6409394E-4,-1.728114E-2,4.1360952E-2,-5.7585174E-3,-9.348323E-3,1.8220773E-3],"categories":[],"categories_nodes":[],"categories_segments":[],"categories_sizes":[],"default_left":[0,0,0,0,0,0,0,0,0,0,0,0,0,0,0,0,0,0,0,0,0,0,0,0,0,0,0,0,0,0,0,0,0,0,0],"id":32,"left_children":[1,3,5,7,9,11,13,15,17,19,-1,-1,21,-1,23,25,-1,-1,-1,-1,-1,-1,-1,-1,27,29,31,-1,33,-1,-1,-1,-1,-1,-1],"loss_changes":[4.3751914E-2,7.5406456E-1,8.728146E-1,3.4266165E-1,3.470794E-1,1.0708505E-1,3.9257312E-1,3.2571232E-1,5.570063E-1,3.0076718E-1,0E0,0E0,1.9620419E-2,0E0,2.1780726E-1,3.242495E-1,0E0,0E0,0E0,0E0,0E0,0E0,0E0,0E0,3.4675294E-1,4.0689412E-1,5.139718E-1,0E0,1.0370096E-1,0E0,0E0,0E0,0E0,0E0,0E0],"parents":[2147483647,0,0,1,1,2,2,3,3,4,4,5,5,6,6,7,7,8,8,9,9,12,12,14,14,15,15,24,24,25,25,26,26,28,28],"right_children":[2,4,6,8,10,12,14,16,18,20,-1,-1,22,-1,24,26,-1,-1,-1,-1,-1,-1,-1,-1,28,30,32,-1,34,-1,-1,-1,-1,-1,-1],"split_conditions":[6.4302236E-2,6.1916456E-2,6.656707E-2,6.0500838E-2,6.368174E-2,6.493035E-2,6.728774E-2,5.976083E-2,6.0915396E-2,6.2799886E-2,-1.4124839E-3,1.671328E-2,6.5677546E-2,-4.116748E-2,6.816798E-2,5.7062477E-2,-3.5780955E-2,6.1620407E-2,-7.171798E-3,-2.0826647E-2,-7.3125534E-2,5.310996E-2,3.4743514E-2,2.9821387E-2,6.916502E-2,5.3005926E-2,5.838348E-2,-3.847523E-2,7.252261E-2,1.6409394E-4,-1.728114E-2,4.1360952E-2,-5.7585174E-3,-9.348323E-3,1.8220773E-3],"split_indices":[0,0,0,0,0,0,0,0,0,0,0,0,0,0,0,0,0,0,0,0,0,0,0,0,0,0,0,0,0,0,0,0,0,0,0],"split_type":[0,0,0,0,0,0,0,0,0,0,0,0,0,0,0,0,0,0,0,0,0,0,0,0,0,0,0,0,0,0,0,0,0,0,0],"sum_hessian":[5.282E3,4.394E3,8.88E2,4.332E3,6.2E1,6.2E1,8.26E2,4.291E3,4.1E1,4.1E1,2.1E1,2E1,4.2E1,2E1,8.06E2,4.269E3,2.2E1,2E1,2.1E1,2E1,2.1E1,2E1,2.2E1,2.1E1,7.85E2,4.187E3,8.2E1,2E1,7.65E2,4.064E3,1.23E2,4.2E1,4E1,8.3E1,6.82E2],"tree_param":{"num_deleted":"0","num_feature":"1","num_nodes":"35","size_leaf_vector":"1"}},{"base_weights":[2.7775786E-6,-2.1064463E-3,4.551341E-3,3.0314486E-4,-1.1853079E-1,2.5795537E-1,-2.28761E-3,-1.2050802E-3,1.3415053E-1,1.0413488E-1,4.313209E-2,-1.7365727E-1,2.1300167E-3,9.569762E-4,-9.9838E-2,5.103454E-2,2.5634035E-2,-2.2198414E-2,-7.453107E-2,8.878596E-2,-2.1785004E-3,-1.8581931E-3,1.1640104E-1,-3.3327047E-2,3.6944493E-3,4.7673648E-6,-2.3053221E-2,9.559133E-2,1.0477286E-2,-3.360265E-3,-7.208794E-2,7.435478E-2,3.9423987E-5],"categories":[],"categories_nodes":[],"categories_segments":[],"categories_sizes":[],"default_left":[0,0,0,0,0,0,0,0,0,0,0,0,0,0,0,0,0,0,0,0,0,0,0,0,0,0,0,0,0,0,0,0,0],"id":33,"left_children":[1,3,5,7,-1,9,11,13,15,-1,-1,17,19,21,-1,-1,-1,-1,-1,-1,23,25,27,29,31,-1,-1,-1,-1,-1,-1,-1,-1],"loss_changes":[5.0694365E-2,3.4186456E0,2.901662E0,7.246803E-1,0E0,3.980379E-1,1.2351139E0,2.5453582E0,5.552858E-2,0E0,0E0,2.87179E-1,2.0147586E0,1.1467973E0,0E0,0E0,0E0,0E0,0E0,0E0,2.871463E-1,4.841265E-1,1.3729894E0,1.1375705E0,1.1491481E0,0E0,0E0,0E0,0E0,0E0,0E0,0E0,0E0],"parents":[2147483647,0,0,1,1,2,2,3,3,5,5,6,6,7,7,8,8,11,11,12,12,13,13,20,20,21,21,22,22,23,23,24,24],"right_children":[2,4,6,8,-1,10,12,14,16,-1,-1,18,20,22,-1,-1,-1,-1,-1,-1,24,26,28,30,32,-1,-1,-1,-1,-1,-1,-1,-1],"split_conditions":[4.049012E-2,3.97785E-2,4.1708946E-2,3.8342655E-2,-1.1853079E-1,4.138606E-2,4.2899273E-2,3.7882283E-2,3.9070725E-2,1.0413488E-1,4.313209E-2,4.2144313E-2,4.3321148E-2,3.520082E-2,-9.9838E-2,5.103454E-2,2.5634035E-2,-2.2198414E-2,-7.453107E-2,8.878596E-2,5.008284E-2,3.264478E-2,3.5888746E-2,4.9576595E-2,5.0397754E-2,4.7673648E-6,-2.3053221E-2,9.559133E-2,1.0477286E-2,-3.360265E-3,-7.208794E-2,7.435478E-2,3.9423987E-5],"split_indices":[0,0,0,0,0,0,0,0,0,0,0,0,0,0,0,0,0,0,0,0,0,0,0,0,0,0,0,0,0,0,0,0,0],"split_type":[0,0,0,0,0,0,0,0,0,0,0,0,0,0,0,0,0,0,0,0,0,0,0,0,0,0,0,0,0,0,0,0,0],"sum_hessian":[5.282E3,3.609E3,1.673E3,3.588E3,2.1E1,4.3E1,1.63E3,3.549E3,3.9E1,2.3E1,2E1,4E1,1.59E3,3.527E3,2.2E1,2.1E1,1.8E1,1.8E1,2.2E1,2.2E1,1.568E3,3.444E3,8.3E1,2.48E2,1.32E3,3.361E3,8.3E1,2.3E1,6E1,2.25E2,2.3E1,1.8E1,1.302E3],"tree_param":{"num_deleted":"0","num_feature":"1","num_nodes":"33","size_leaf_vector":"1"}},{"base_weights":[1.6969057E-5,-2.0167233E-2,4.26184E-4,-1.4603019E-2,-1.21487165E-2,2.6975205E-2,-2.2502342E-4,-2.422525E-2,4.084598E-3,9.257507E-3,3.403064E-2,-5.528268E-2,4.6958157E-4,-2.5947494E-3,-3.180736E-2,2.9052481E-2,-1.97533E-2,-2.6398573E-2,-3.683128E-2,6.288253E-2,-7.246736E-5,-7.198393E-3,-1.1543243E-2,-8.211545E-4,3.9187886E-2,-3.837682E-3,-1.8078338E-2,1.1526021E-2,2.5346009E-2,-3.8800973E-2,4.1848334E-4,2.589917E-2,4.068317E-3,7.1366313E-3,-4.863984E-2,2.1178234E-2,-6.117208E-5],"categories":[],